svm_type c_svc
kernel_type linear
nr_class 3
total_sv 354
rho 1.13584 -1.89504 -4.43931
label 2 3 1
nr_sv 109 126 119
SV
0.4646120878333042 0 1:1 5:1 11:1 13:1 17:1 24:1 25:1 30:1 31:1 35:1 37:1 42:1 47:1 60:1 71:1 77:1 80:1 85:1 90:1 93:1 96:1 98:1 100:1 104:1 106:1 111:1 116:1 120:1 124:1 129:1 135:1 137:1 140:1 142:1 145:1 149:1 155:1 162:1 165:1 166:1 170:1 176:1 
0.1698495163377408 0.05108129436538934 2:1 4:1 9:1 10:1 17:1 26:1 29:1 35:1 38:1 44:1 50:1 53:1 56:1 58:1 61:1 64:1 67:1 71:1 74:1 80:1 83:1 85:1 90:1 96:1 100:1 108:1 110:1 113:1 115:1 119:1 123:1 132:1 133:1 138:1 141:1 144:1 145:1 149:1 152:1 159:1 160:1 163:1 166:1 169:1 173:1 175:1 179:1 
0 0.01014366557074988 3:1 6:1 9:1 14:1 17:1 20:1 27:1 33:1 34:1 38:1 40:1 48:1 51:1 57:1 59:1 62:1 65:1 69:1 71:1 74:1 81:1 83:1 85:1 90:1 91:1 102:1 105:1 106:1 110:1 112:1 117:1 119:1 122:1 125:1 127:1 131:1 133:1 137:1 144:1 146:1 153:1 155:1 162:1 166:1 174:1 180:1 
0.107535454357633 0 6:1 7:1 10:1 13:1 21:1 38:1 41:1 51:1 57:1 61:1 76:1 79:1 83:1 85:1 90:1 93:1 96:1 98:1 105:1 106:1 109:1 114:1 115:1 119:1 121:1 130:1 138:1 141:1 142:1 147:1 148:1 151:1 154:1 159:1 160:1 164:1 171:1 174:1 175:1 178:1 
0.1522571280919634 0.3201060619392148 8:1 14:1 17:1 19:1 32:1 44:1 54:1 57:1 60:1 63:1 68:1 74:1 81:1 83:1 85:1 90:1 93:1 97:1 101:1 105:1 106:1 111:1 113:1 117:1 118:1 121:1 124:1 128:1 130:1 141:1 142:1 145:1 148:1 151:1 156:1 157:1 163:1 170:1 173:1 175:1 
0 0.009311253896091241 2:1 9:1 16:1 20:1 22:1 26:1 30:1 32:1 42:1 46:1 49:1 60:1 61:1 65:1 71:1 80:1 85:1 90:1 93:1 99:1 100:1 105:1 107:1 110:1 113:1 115:1 126:1 129:1 131:1 133:1 138:1 141:1 144:1 147:1 151:1 155:1 158:1 160:1 163:1 166:1 171:1 177:1 178:1 
0 0.03678808336771682 2:1 5:1 8:1 10:1 15:1 18:1 19:1 23:1 29:1 31:1 35:1 37:1 41:1 43:1 56:1 63:1 65:1 71:1 74:1 83:1 85:1 90:1 93:1 96:1 105:1 108:1 111:1 114:1 117:1 123:1 125:1 128:1 131:1 133:1 137:1 141:1 144:1 150:1 151:1 155:1 157:1 162:1 164:1 167:1 169:1 173:1 176:1 178:1 
0.01174578510853956 0.06917755459690937 4:1 9:1 11:1 13:1 17:1 19:1 27:1 33:1 34:1 38:1 45:1 48:1 49:1 53:1 59:1 62:1 68:1 74:1 77:1 80:1 83:1 85:1 90:1 93:1 98:1 102:1 107:1 109:1 114:1 120:1 121:1 126:1 129:1 131:1 134:1 136:1 140:1 142:1 146:1 148:1 153:1 155:1 157:1 162:1 164:1 166:1 171:1 173:1 175:1 
0.1061696592321725 0 4:1 7:1 14:1 18:1 27:1 28:1 38:1 41:1 44:1 53:1 56:1 59:1 65:1 68:1 71:1 77:1 79:1 83:1 85:1 90:1 91:1 94:1 97:1 102:1 104:1 106:1 113:1 116:1 119:1 126:1 129:1 130:1 135:1 136:1 139:1 143:1 145:1 150:1 152:1 155:1 162:1 165:1 166:1 171:1 174:1 175:1 180:1 
0.7137615775063377 0.5425819026337212 3:1 6:1 9:1 11:1 15:1 18:1 21:1 24:1 26:1 33:1 34:1 38:1 41:1 45:1 46:1 51:1 54:1 57:1 60:1 63:1 69:1 72:1 75:1 78:1 80:1 83:1 85:1 90:1 93:1 101:1 107:1 109:1 113:1 115:1 119:1 122:1 125:1 131:1 134:1 136:1 141:1 147:1 150:1 151:1 159:1 160:1 171:1 174:1 176:1 
0.08198450459768847 0 3:1 4:1 8:1 11:1 13:1 18:1 21:1 26:1 57:1 65:1 70:1 74:1 77:1 80:1 83:1 85:1 90:1 92:1 95:1 97:1 102:1 104:1 106:1 109:1 113:1 115:1 120:1 126:1 128:1 131:1 134:1 136:1 141:1 144:1 147:1 149:1 155:1 162:1 163:1 171:1 172:1 177:1 
0 0.3818138198623006 3:1 5:1 8:1 11:1 17:1 19:1 22:1 25:1 33:1 34:1 38:1 41:1 47:1 49:1 53:1 56:1 65:1 71:1 77:1 80:1 85:1 90:1 93:1 99:1 100:1 110:1 116:1 120:1 123:1 126:1 128:1 131:1 135:1 136:1 144:1 152:1 158:1 160:1 165:1 168:1 169:1 172:1 175:1 178:1 
0 0.2188543752935908 5:1 7:1 10:1 14:1 19:1 23:1 25:1 30:1 33:1 36:1 37:1 41:1 44:1 47:1 51:1 53:1 55:1 62:1 68:1 71:1 74:1 79:1 83:1 85:1 90:1 93:1 96:1 105:1 108:1 110:1 113:1 116:1 119:1 122:1 124:1 129:1 131:1 133:1 136:1 141:1 144:1 146:1 152:1 154:1 159:1 162:1 163:1 167:1 169:1 174:1 176:1 178:1 
0.04365227343748754 0 6:1 7:1 11:1 19:1 23:1 25:1 35:1 37:1 50:1 53:1 56:1 64:1 71:1 77:1 80:1 83:1 85:1 90:1 91:1 98:1 101:1 105:1 113:1 120:1 123:1 125:1 130:1 134:1 147:1 148:1 156:1 157:1 162:1 163:1 168:1 171:1 175:1 
0.1018814181114505 0 5:1 8:1 14:1 16:1 26:1 29:1 36:1 38:1 42:1 47:1 54:1 56:1 65:1 68:1 74:1 77:1 80:1 83:1 85:1 90:1 92:1 94:1 97:1 100:1 103:1 108:1 110:1 114:1 120:1 121:1 128:1 138:1 140:1 147:1 150:1 153:1 158:1 162:1 165:1 167:1 169:1 173:1 175:1 180:1 
0.6947525289028825 0.07889074026376428 1:1 8:1 13:1 16:1 19:1 27:1 28:1 36:1 37:1 40:1 49:1 57:1 58:1 68:1 85:1 90:1 99:1 108:1 111:1 112:1 126:1 127:1 130:1 133:1 143:1 146:1 148:1 153:1 154:1 158:1 160:1 163:1 168:1 180:1 
0.2634010806600049 0 5:1 13:1 18:1 21:1 22:1 27:1 30:1 45:1 50:1 56:1 65:1 68:1 71:1 85:1 90:1 93:1 94:1 101:1 103:1 106:1 113:1 119:1 122:1 125:1 128:1 130:1 137:1 140:1 142:1 147:1 148:1 152:1 155:1 160:1 164:1 170:1 177:1 179:1 
0.1683184500829826 0 2:1 5:1 8:1 11:1 13:1 20:1 22:1 26:1 29:1 31:1 36:1 38:1 44:1 47:1 50:1 53:1 56:1 59:1 68:1 74:1 77:1 80:1 83:1 85:1 90:1 91:1 98:1 100:1 104:1 111:1 114:1 116:1 118:1 121:1 126:1 132:1 135:1 148:1 154:1 161:1 165:1 167:1 169:1 176:1 180:1 
0.1234606259189245 0 3:1 4:1 14:1 17:1 22:1 26:1 28:1 33:1 35:1 38:1 48:1 50:1 53:1 60:1 62:1 68:1 74:1 79:1 82:1 85:1 90:1 93:1 95:1 97:1 100:1 104:1 110:1 115:1 120:1 121:1 125:1 127:1 134:1 138:1 140:1 144:1 149:1 152:1 154:1 157:1 161:1 163:1 166:1 170:1 173:1 177:1 
0.1705396186832628 0 2:1 9:1 11:1 14:1 20:1 23:1 26:1 30:1 32:1 45:1 51:1 57:1 59:1 62:1 65:1 68:1 72:1 74:1 80:1 83:1 85:1 90:1 92:1 94:1 99:1 101:1 104:1 110:1 113:1 116:1 120:1 122:1 126:1 127:1 131:1 135:1 136:1 144:1 146:1 149:1 152:1 155:1 161:1 163:1 166:1 170:1 174:1 
0 0.3164866800577095 2:1 5:1 12:1 13:1 18:1 20:1 22:1 26:1 28:1 33:1 34:1 38:1 42:1 45:1 47:1 54:1 62:1 68:1 80:1 82:1 85:1 90:1 93:1 100:1 104:1 106:1 109:1 114:1 116:1 119:1 126:1 127:1 135:1 136:1 139:1 144:1 147:1 150:1 151:1 154:1 157:1 161:1 165:1 166:1 171:1 174:1 177:1 180:1 
0.267145266956738 0 1:1 4:1 9:1 10:1 14:1 22:1 28:1 42:1 47:1 50:1 66:1 83:1 85:1 90:1 92:1 95:1 100:1 104:1 107:1 109:1 117:1 118:1 123:1 124:1 127:1 133:1 136:1 141:1 142:1 147:1 148:1 151:1 154:1 159:1 160:1 163:1 166:1 169:1 177:1 178:1 
0.1394818150257604 0 4:1 7:1 11:1 14:1 16:1 19:1 24:1 28:1 31:1 35:1 39:1 40:1 44:1 50:1 58:1 61:1 68:1 71:1 79:1 83:1 85:1 90:1 91:1 99:1 102:1 105:1 106:1 109:1 112:1 117:1 120:1 123:1 125:1 131:1 134:1 143:1 145:1 148:1 153:1 157:1 165:1 167:1 170:1 177:1 180:1 
0 0.2714155829405878 3:1 6:1 9:1 11:1 14:1 17:1 20:1 26:1 33:1 34:1 41:1 43:1 47:1 50:1 56:1 59:1 61:1 65:1 71:1 74:1 79:1 85:1 90:1 93:1 97:1 105:1 106:1 111:1 112:1 116:1 118:1 123:1 124:1 129:1 131:1 138:1 141:1 143:1 146:1 148:1 156:1 158:1 162:1 164:1 167:1 169:1 174:1 179:1 
0.4797642201402221 0.03524203679392154 3:1 4:1 9:1 13:1 21:1 24:1 25:1 38:1 40:1 44:1 46:1 56:1 61:1 64:1 68:1 70:1 74:1 76:1 85:1 90:1 91:1 94:1 99:1 101:1 108:1 110:1 112:1 117:1 120:1 121:1 129:1 131:1 138:1 139:1 142:1 145:1 156:1 158:1 160:1 163:1 168:1 171:1 173:1 180:1 
0 0.0124570790005918 4:1 7:1 11:1 14:1 16:1 23:1 29:1 35:1 38:1 41:1 47:1 55:1 58:1 62:1 68:1 71:1 74:1 77:1 85:1 90:1 93:1 97:1 111:1 113:1 120:1 121:1 125:1 128:1 135:1 147:1 148:1 152:1 155:1 158:1 165:1 171:1 172:1 179:1 
0.3301663900138236 0.0775405750027605 1:1 9:1 12:1 14:1 17:1 20:1 23:1 32:1 35:1 41:1 44:1 57:1 59:1 66:1 72:1 74:1 77:1 80:1 83:1 85:1 90:1 93:1 94:1 99:1 100:1 104:1 106:1 111:1 117:1 126:1 129:1 130:1 134:1 136:1 144:1 146:1 152:1 155:1 159:1 162:1 165:1 166:1 174:1 176:1 179:1 
0.01037169196984648 0.2314561970309594 1:1 4:1 13:1 16:1 19:1 22:1 27:1 34:1 37:1 40:1 46:1 49:1 53:1 61:1 68:1 71:1 79:1 83:1 85:1 90:1 93:1 99:1 100:1 104:1 107:1 114:1 117:1 121:1 125:1 132:1 134:1 143:1 145:1 153:1 157:1 165:1 170:1 173:1 176:1 179:1 
0 0.1924064856861658 1:1 5:1 11:1 13:1 17:1 20:1 30:1 35:1 38:1 41:1 44:1 47:1 56:1 62:1 65:1 67:1 76:1 83:1 85:1 90:1 93:1 102:1 105:1 107:1 110:1 113:1 115:1 121:1 124:1 127:1 132:1 134:1 137:1 140:1 146:1 153:1 155:1 157:1 161:1 168:1 169:1 174:1 175:1 178:1 
0 0.03648977725792303 3:1 4:1 9:1 12:1 15:1 16:1 20:1 27:1 28:1 31:1 36:1 38:1 41:1 44:1 46:1 51:1 56:1 58:1 66:1 68:1 71:1 74:1 79:1 83:1 85:1 90:1 93:1 94:1 99:1 100:1 107:1 110:1 114:1 120:1 121:1 126:1 135:1 137:1 139:1 144:1 147:1 149:1 155:1 157:1 162:1 164:1 173:1 175:1 180:1 
0.05131342762218166 0 4:1 7:1 13:1 16:1 22:1 27:1 29:1 36:1 47:1 53:1 60:1 69:1 79:1 82:1 85:1 90:1 93:1 95:1 97:1 101:1 106:1 110:1 112:1 115:1 118:1 124:1 128:1 135:1 141:1 144:1 146:1 148:1 153:1 155:1 157:1 163:1 169:1 172:1 
0.01019661870411678 0.0390603673924983 1:1 6:1 8:1 11:1 18:1 21:1 24:1 26:1 33:1 34:1 38:1 41:1 44:1 47:1 49:1 53:1 57:1 62:1 69:1 72:1 74:1 77:1 79:1 83:1 85:1 90:1 93:1 95:1 98:1 101:1 105:1 107:1 111:1 117:1 119:1 126:1 128:1 131:1 134:1 137:1 141:1 144:1 145:1 148:1 153:1 158:1 163:1 171:1 173:1 177:1 
0 0.0771332232995177 9:1 17:1 20:1 23:1 25:1 28:1 32:1 35:1 38:1 41:1 53:1 62:1 65:1 68:1 77:1 80:1 83:1 85:1 90:1 93:1 96:1 99:1 101:1 108:1 110:1 113:1 117:1 120:1 123:1 124:1 129:1 132:1 134:1 139:1 146:1 148:1 151:1 154:1 157:1 162:1 165:1 166:1 173:1 177:1 179:1 
0 0.2348689994106999 2:1 4:1 9:1 11:1 18:1 19:1 23:1 29:1 32:1 35:1 37:1 42:1 43:1 48:1 53:1 56:1 58:1 62:1 68:1 71:1 74:1 81:1 85:1 90:1 93:1 98:1 102:1 105:1 108:1 110:1 112:1 117:1 119:1 121:1 126:1 129:1 131:1 134:1 138:1 142:1 147:1 148:1 151:1 156:1 161:1 168:1 171:1 173:1 175:1 180:1 
0 0.2346277638073973 3:1 7:1 13:1 16:1 20:1 23:1 26:1 33:1 35:1 39:1 40:1 48:1 50:1 53:1 60:1 64:1 71:1 76:1 79:1 83:1 85:1 90:1 93:1 99:1 100:1 105:1 106:1 111:1 113:1 115:1 119:1 121:1 126:1 130:1 133:1 138:1 141:1 142:1 146:1 151:1 162:1 164:1 169:1 177:1 180:1 
0.209035483491804 0 2:1 14:1 20:1 23:1 25:1 28:1 31:1 35:1 37:1 43:1 46:1 49:1 52:1 58:1 71:1 79:1 85:1 90:1 92:1 97:1 101:1 104:1 111:1 113:1 116:1 128:1 135:1 138:1 139:1 142:1 147:1 148:1 151:1 155:1 168:1 170:1 173:1 175:1 
0.3577348651165187 0.01871658226751685 1:1 6:1 9:1 22:1 26:1 30:1 31:1 40:1 48:1 52:1 60:1 61:1 70:1 74:1 81:1 83:1 85:1 90:1 93:1 97:1 102:1 104:1 108:1 110:1 117:1 120:1 124:1 130:1 138:1 141:1 146:1 148:1 151:1 154:1 162:1 163:1 166:1 174:1 175:1 178:1 
0.2152646566611918 0 4:1 7:1 10:1 17:1 26:1 31:1 36:1 38:1 44:1 49:1 64:1 77:1 79:1 83:1 85:1 90:1 91:1 101:1 103:1 115:1 123:1 124:1 129:1 130:1 136:1 141:1 143:1 145:1 148:1 153:1 154:1 157:1 162:1 165:1 167:1 169:1 176:1 179:1 
0 0.170083358537118 5:1 11:1 17:1 23:1 29:1 38:1 41:1 44:1 47:1 50:1 57:1 59:1 62:1 65:1 68:1 71:1 81:1 83:1 85:1 90:1 93:1 97:1 102:1 103:1 106:1 110:1 117:1 119:1 121:1 129:1 134:1 137:1 139:1 143:1 146:1 151:1 156:1 157:1 161:1 165:1 168:1 169:1 176:1 179:1 
0.1118305200618161 0 3:1 9:1 12:1 14:1 16:1 20:1 23:1 27:1 28:1 32:1 39:1 40:1 44:1 46:1 50:1 56:1 59:1 68:1 71:1 77:1 79:1 85:1 90:1 91:1 96:1 101:1 103:1 111:1 113:1 115:1 118:1 123:1 126:1 129:1 131:1 134:1 138:1 140:1 147:1 149:1 151:1 155:1 162:1 163:1 168:1 171:1 174:1 176:1 
0.5000386955306833 0 3:1 6:1 9:1 11:1 15:1 17:1 24:1 29:1 32:1 39:1 53:1 59:1 62:1 69:1 75:1 81:1 83:1 85:1 90:1 91:1 95:1 98:1 102:1 111:1 114:1 117:1 120:1 123:1 126:1 129:1 135:1 136:1 139:1 148:1 152:1 161:1 170:1 174:1 175:1 179:1 
0 0.04738025933781429 1:1 6:1 8:1 11:1 15:1 23:1 27:1 30:1 32:1 41:1 48:1 51:1 54:1 56:1 62:1 69:1 74:1 77:1 79:1 83:1 85:1 90:1 93:1 96:1 97:1 105:1 107:1 114:1 116:1 119:1 126:1 127:1 131:1 134:1 137:1 140:1 142:1 145:1 150:1 151:1 154:1 158:1 162:1 168:1 170:1 172:1 176:1 178:1 
0.1765142829210446 0 6:1 8:1 10:1 15:1 17:1 21:1 22:1 26:1 29:1 35:1 38:1 45:1 59:1 65:1 68:1 78:1 81:1 83:1 85:1 90:1 91:1 94:1 99:1 102:1 103:1 106:1 111:1 113:1 116:1 118:1 125:1 131:1 134:1 137:1 140:1 146:1 149:1 151:1 156:1 157:1 165:1 167:1 171:1 174:1 176:1 179:1 
0 0.0676467460013217 6:1 9:1 12:1 13:1 19:1 24:1 25:1 28:1 31:1 35:1 41:1 43:1 47:1 56:1 59:1 64:1 68:1 70:1 80:1 83:1 85:1 90:1 91:1 99:1 102:1 103:1 106:1 114:1 116:1 122:1 128:1 135:1 137:1 139:1 144:1 147:1 149:1 152:1 154:1 157:1 162:1 164:1 167:1 170:1 174:1 176:1 178:1 
0.3764494303206179 0.2081517932515689 2:1 5:1 12:1 15:1 17:1 19:1 22:1 27:1 29:1 33:1 35:1 42:1 43:1 48:1 50:1 54:1 57:1 58:1 63:1 64:1 71:1 81:1 83:1 85:1 90:1 93:1 95:1 97:1 102:1 108:1 111:1 113:1 116:1 126:1 131:1 135:1 140:1 144:1 145:1 148:1 153:1 158:1 165:1 168:1 170:1 173:1 
0.01903260823039793 0 3:1 6:1 9:1 12:1 14:1 16:1 21:1 24:1 25:1 29:1 35:1 38:1 40:1 44:1 47:1 50:1 54:1 55:1 62:1 64:1 74:1 77:1 80:1 83:1 85:1 90:1 91:1 101:1 103:1 108:1 110:1 112:1 117:1 119:1 123:1 124:1 128:1 135:1 137:1 139:1 144:1 147:1 148:1 153:1 156:1 157:1 162:1 164:1 169:1 174:1 175:1 179:1 
0 0.1131170595235482 3:1 5:1 8:1 14:1 19:1 29:1 33:1 39:1 41:1 45:1 50:1 56:1 59:1 63:1 68:1 74:1 77:1 81:1 83:1 85:1 90:1 93:1 98:1 100:1 105:1 107:1 113:1 116:1 120:1 122:1 125:1 129:1 130:1 133:1 138:1 141:1 143:1 147:1 149:1 152:1 156:1 158:1 161:1 163:1 166:1 171:1 174:1 175:1 178:1 
0.2511182594826305 0.05739387501715898 2:1 4:1 9:1 12:1 17:1 20:1 23:1 30:1 31:1 34:1 37:1 41:1 47:1 59:1 65:1 68:1 76:1 80:1 83:1 85:1 90:1 92:1 97:1 103:1 110:1 117:1 120:1 123:1 129:1 135:1 138:1 144:1 146:1 153:1 156:1 158:1 160:1 165:1 167:1 174:1 180:1 
0.09669676472257094 0 3:1 4:1 10:1 14:1 17:1 20:1 28:1 38:1 41:1 44:1 51:1 57:1 60:1 61:1 69:1 74:1 77:1 83:1 85:1 90:1 93:1 95:1 98:1 105:1 107:1 112:1 116:1 123:1 124:1 128:1 131:1 134:1 141:1 143:1 145:1 150:1 152:1 155:1 157:1 162:1 163:1 166:1 170:1 172:1 177:1 178:1 
0.3448050763981583 0.04124455108426307 1:1 4:1 7:1 11:1 18:1 19:1 24:1 26:1 33:1 34:1 42:1 43:1 49:1 52:1 61:1 70:1 80:1 85:1 90:1 93:1 95:1 98:1 100:1 104:1 106:1 111:1 112:1 115:1 119:1 126:1 127:1 130:1 133:1 137:1 139:1 146:1 155:1 157:1 162:1 168:1 173:1 178:1 
0.4431263079465914 0 3:1 5:1 7:1 11:1 14:1 17:1 19:1 27:1 28:1 32:1 35:1 42:1 45:1 47:1 53:1 59:1 62:1 65:1 68:1 71:1 80:1 83:1 85:1 90:1 93:1 94:1 99:1 102:1 104:1 111:1 117:1 118:1 121:1 126:1 127:1 132:1 134:1 138:1 141:1 143:1 145:1 155:1 157:1 161:1 164:1 168:1 172:1 176:1 
0 0.008357105608790463 2:1 5:1 7:1 12:1 17:1 19:1 23:1 26:1 28:1 32:1 34:1 39:1 42:1 43:1 47:1 50:1 53:1 56:1 66:1 71:1 74:1 77:1 79:1 83:1 85:1 90:1 93:1 98:1 104:1 117:1 118:1 123:1 125:1 128:1 135:1 138:1 139:1 144:1 145:1 149:1 151:1 159:1 160:1 163:1 166:1 172:1 176:1 180:1 
0.3163693300275722 0 3:1 4:1 8:1 10:1 15:1 16:1 21:1 23:1 26:1 33:1 36:1 39:1 45:1 48:1 51:1 53:1 55:1 62:1 69:1 71:1 74:1 77:1 79:1 83:1 85:1 90:1 91:1 95:1 102:1 105:1 110:1 113:1 116:1 119:1 122:1 124:1 127:1 132:1 135:1 141:1 144:1 150:1 153:1 154:1 159:1 161:1 168:1 174:1 178:1 
0 0.004826875755595888 3:1 6:1 8:1 11:1 14:1 17:1 23:1 25:1 29:1 31:1 36:1 39:1 40:1 44:1 46:1 62:1 71:1 74:1 76:1 79:1 83:1 85:1 90:1 93:1 99:1 102:1 103:1 106:1 109:1 112:1 117:1 120:1 121:1 126:1 129:1 132:1 133:1 138:1 140:1 145:1 149:1 155:1 160:1 163:1 168:1 171:1 173:1 180:1 
0 0.001742398016427246 3:1 8:1 11:1 14:1 17:1 23:1 25:1 29:1 31:1 36:1 39:1 42:1 44:1 46:1 62:1 71:1 74:1 77:1 79:1 83:1 85:1 90:1 93:1 99:1 102:1 103:1 106:1 109:1 112:1 117:1 120:1 121:1 126:1 129:1 132:1 133:1 138:1 140:1 147:1 149:1 155:1 161:1 163:1 168:1 171:1 173:1 180:1 
0.02843821660259726 0.003237013350294331 1:1 6:1 8:1 13:1 16:1 21:1 26:1 29:1 36:1 38:1 41:1 44:1 50:1 52:1 65:1 68:1 71:1 77:1 83:1 85:1 90:1 93:1 95:1 97:1 105:1 108:1 109:1 114:1 119:1 122:1 129:1 135:1 138:1 140:1 142:1 149:1 152:1 154:1 158:1 162:1 163:1 166:1 169:1 173:1 178:1 
0.2481859187471146 0 1:1 4:1 7:1 15:1 21:1 22:1 25:1 38:1 45:1 48:1 49:1 79:1 85:1 90:1 92:1 94:1 102:1 114:1 120:1 125:1 127:1 136:1 141:1 147:1 148:1 151:1 154:1 158:1 165:1 168:1 169:1 172:1 175:1 178:1 
0.74653615953192 0.2584356842792526 3:1 9:1 12:1 15:1 24:1 33:1 34:1 39:1 42:1 45:1 48:1 49:1 52:1 56:1 58:1 63:1 66:1 69:1 72:1 73:1 77:1 79:1 85:1 90:1 92:1 99:1 105:1 107:1 112:1 120:1 121:1 126:1 129:1 140:1 153:1 154:1 158:1 167:1 169:1 172:1 180:1 
0 0.0283760224572883 4:1 7:1 10:1 15:1 18:1 26:1 34:1 41:1 47:1 53:1 58:1 65:1 70:1 74:1 85:1 90:1 93:1 94:1 97:1 102:1 103:1 110:1 113:1 115:1 120:1 122:1 131:1 134:1 136:1 139:1 144:1 150:1 152:1 155:1 157:1 161:1 168:1 170:1 172:1 177:1 
0.07520327602936336 0 5:1 13:1 16:1 22:1 25:1 29:1 31:1 34:1 42:1 44:1 46:1 55:1 61:1 65:1 77:1 85:1 90:1 91:1 94:1 103:1 107:1 109:1 112:1 117:1 118:1 121:1 128:1 131:1 134:1 136:1 139:1 142:1 146:1 152:1 154:1 158:1 161:1 163:1 168:1 171:1 172:1 180:1 
0 0.08773307039401686 2:1 11:1 14:1 19:1 23:1 30:1 31:1 34:1 37:1 41:1 48:1 49:1 52:1 56:1 59:1 62:1 68:1 71:1 73:1 76:1 80:1 83:1 85:1 90:1 93:1 96:1 97:1 102:1 104:1 107:1 110:1 113:1 117:1 118:1 123:1 127:1 134:1 138:1 141:1 143:1 145:1 150:1 152:1 154:1 159:1 164:1 166:1 171:1 173:1 175:1 180:1 
0.05228914211067497 0 3:1 5:1 8:1 10:1 14:1 16:1 21:1 23:1 26:1 29:1 31:1 36:1 53:1 59:1 66:1 67:1 71:1 74:1 77:1 79:1 85:1 90:1 95:1 105:1 107:1 111:1 113:1 116:1 119:1 122:1 124:1 129:1 132:1 133:1 138:1 143:1 152:1 154:1 159:1 165:1 171:1 177:1 178:1 
0 0.02214620955168618 2:1 5:1 7:1 12:1 17:1 19:1 23:1 26:1 28:1 32:1 34:1 39:1 42:1 43:1 47:1 50:1 53:1 56:1 66:1 71:1 74:1 77:1 79:1 83:1 85:1 90:1 93:1 98:1 104:1 117:1 118:1 123:1 125:1 128:1 135:1 138:1 139:1 144:1 145:1 149:1 151:1 159:1 160:1 163:1 166:1 172:1 176:1 180:1 
0 0.187385654144811 2:1 8:1 10:1 21:1 22:1 25:1 28:1 32:1 34:1 39:1 41:1 46:1 52:1 65:1 83:1 85:1 90:1 91:1 100:1 105:1 111:1 112:1 120:1 121:1 129:1 130:1 133:1 137:1 140:1 142:1 147:1 150:1 157:1 165:1 166:1 170:1 173:1 
0 0.2080696948798931 2:1 6:1 12:1 13:1 18:1 24:1 25:1 32:1 35:1 42:1 47:1 50:1 56:1 62:1 65:1 67:1 71:1 74:1 77:1 81:1 83:1 85:1 90:1 93:1 96:1 98:1 101:1 105:1 107:1 111:1 119:1 123:1 125:1 127:1 131:1 134:1 136:1 139:1 142:1 145:1 149:1 152:1 156:1 162:1 163:1 166:1 171:1 172:1 175:1 180:1 
0.5235514313612649 0.2346806351055046 3:1 6:1 7:1 10:1 14:1 19:1 22:1 27:1 30:1 31:1 36:1 38:1 41:1 43:1 51:1 54:1 55:1 62:1 69:1 72:1 77:1 80:1 85:1 90:1 93:1 95:1 97:1 105:1 108:1 114:1 117:1 123:1 124:1 129:1 132:1 133:1 137:1 142:1 146:1 150:1 155:1 164:1 170:1 173:1 176:1 
0 0.349193554968368 2:1 5:1 8:1 10:1 14:1 20:1 27:1 28:1 32:1 39:1 45:1 47:1 50:1 53:1 59:1 66:1 68:1 71:1 74:1 81:1 83:1 85:1 90:1 93:1 94:1 99:1 100:1 105:1 109:1 117:1 118:1 122:1 125:1 132:1 134:1 138:1 141:1 143:1 147:1 149:1 156:1 159:1 162:1 163:1 168:1 169:1 172:1 177:1 
0.4894526108645058 0 2:1 5:1 7:1 10:1 15:1 18:1 20:1 25:1 28:1 32:1 41:1 48:1 66:1 73:1 77:1 85:1 90:1 99:1 102:1 103:1 108:1 109:1 112:1 117:1 120:1 121:1 124:1 128:1 132:1 133:1 138:1 139:1 144:1 145:1 148:1 153:1 156:1 157:1 160:1 163:1 172:1 177:1 
0 0.05941373773087447 1:1 11:1 14:1 16:1 19:1 22:1 25:1 28:1 36:1 38:1 50:1 62:1 65:1 68:1 71:1 74:1 81:1 83:1 85:1 90:1 93:1 99:1 100:1 105:1 106:1 109:1 114:1 115:1 123:1 124:1 128:1 130:1 135:1 136:1 141:1 144:1 145:1 148:1 153:1 154:1 157:1 162:1 166:1 171:1 172:1 177:1 178:1 
0.05555489010438645 0.05376466555432157 3:1 6:1 9:1 10:1 13:1 17:1 20:1 27:1 28:1 32:1 36:1 39:1 40:1 45:1 46:1 50:1 53:1 56:1 63:1 66:1 69:1 71:1 80:1 83:1 85:1 90:1 93:1 99:1 102:1 104:1 107:1 109:1 116:1 118:1 121:1 124:1 128:1 130:1 134:1 138:1 144:1 147:1 148:1 153:1 154:1 157:1 162:1 165:1 166:1 170:1 173:1 177:1 180:1 
0.01493643574491272 0 3:1 9:1 12:1 15:1 16:1 20:1 23:1 29:1 31:1 34:1 38:1 44:1 47:1 56:1 59:1 62:1 65:1 67:1 74:1 77:1 79:1 83:1 85:1 90:1 91:1 94:1 97:1 105:1 108:1 114:1 116:1 121:1 125:1 128:1 131:1 133:1 138:1 140:1 146:1 148:1 151:1 156:1 158:1 161:1 168:1 171:1 174:1 176:1 179:1 
0 0.4409594777425207 1:1 5:1 12:1 13:1 18:1 23:1 26:1 29:1 32:1 36:1 42:1 44:1 53:1 56:1 59:1 62:1 65:1 77:1 80:1 85:1 90:1 93:1 95:1 97:1 100:1 105:1 108:1 109:1 114:1 115:1 118:1 123:1 126:1 127:1 132:1 134:1 137:1 140:1 143:1 150:1 153:1 154:1 159:1 164:1 168:1 170:1 172:1 177:1 
0.442028239289769 0.07568495227045258 2:1 5:1 14:1 16:1 20:1 23:1 26:1 28:1 35:1 38:1 41:1 44:1 51:1 56:1 59:1 62:1 69:1 71:1 75:1 78:1 80:1 83:1 85:1 90:1 93:1 98:1 102:1 103:1 108:1 111:1 117:1 118:1 129:1 132:1 135:1 138:1 141:1 142:1 147:1 149:1 151:1 156:1 157:1 161:1 163:1 166:1 171:1 175:1 179:1 
0 0.2767506058840751 5:1 7:1 10:1 17:1 22:1 25:1 30:1 33:1 35:1 51:1 57:1 58:1 65:1 69:1 74:1 77:1 79:1 83:1 85:1 90:1 93:1 99:1 100:1 104:1 106:1 109:1 116:1 122:1 125:1 127:1 130:1 136:1 141:1 142:1 146:1 156:1 162:1 167:1 176:1 178:1 
0.6995504393491185 0 1:1 8:1 11:1 14:1 20:1 23:1 26:1 29:1 31:1 34:1 38:1 41:1 48:1 54:1 56:1 59:1 62:1 72:1 77:1 85:1 89:1 91:1 96:1 97:1 102:1 104:1 106:1 110:1 117:1 118:1 122:1 124:1 128:1 132:1 135:1 137:1 143:1 146:1 149:1 153:1 156:1 159:1 160:1 164:1 167:1 173:1 177:1 180:1 
0.03857591087606225 0.002928061149214213 6:1 7:1 11:1 14:1 21:1 22:1 29:1 42:1 44:1 50:1 56:1 59:1 62:1 65:1 68:1 75:1 78:1 80:1 83:1 85:1 90:1 99:1 100:1 105:1 108:1 109:1 114:1 117:1 118:1 123:1 124:1 127:1 131:1 134:1 137:1 141:1 144:1 145:1 149:1 158:1 165:1 168:1 169:1 172:1 176:1 179:1 
0.2297909455303725 0 5:1 10:1 21:1 24:1 25:1 28:1 31:1 35:1 38:1 44:1 46:1 53:1 65:1 74:1 83:1 85:1 90:1 91:1 96:1 98:1 101:1 104:1 107:1 118:1 121:1 125:1 127:1 130:1 134:1 137:1 141:1 143:1 150:1 153:1 157:1 164:1 166:1 169:1 172:1 180:1 
0.04398308476022021 0.006514728111749243 1:1 5:1 8:1 11:1 13:1 17:1 32:1 35:1 41:1 50:1 53:1 55:1 59:1 65:1 72:1 75:1 76:1 81:1 83:1 85:1 90:1 92:1 94:1 101:1 105:1 108:1 114:1 115:1 120:1 132:1 134:1 141:1 147:1 150:1 151:1 155:1 157:1 160:1 165:1 168:1 171:1 173:1 175:1 179:1 
0.3224016471006472 0.03350239799270188 2:1 4:1 7:1 11:1 18:1 21:1 24:1 27:1 28:1 32:1 35:1 41:1 43:1 47:1 50:1 53:1 59:1 62:1 65:1 67:1 74:1 77:1 80:1 83:1 85:1 90:1 93:1 94:1 97:1 101:1 104:1 106:1 114:1 115:1 118:1 122:1 126:1 128:1 135:1 137:1 140:1 147:1 153:1 154:1 159:1 161:1 168:1 170:1 177:1 180:1 
0.07672076965639597 0.03669099993913039 2:1 4:1 9:1 10:1 18:1 21:1 24:1 26:1 32:1 34:1 38:1 42:1 45:1 47:1 50:1 52:1 59:1 62:1 65:1 71:1 74:1 81:1 83:1 85:1 90:1 93:1 94:1 99:1 101:1 103:1 108:1 110:1 114:1 115:1 119:1 126:1 129:1 130:1 134:1 137:1 140:1 142:1 147:1 148:1 153:1 155:1 158:1 160:1 168:1 174:1 177:1 179:1 
0.1017596010862123 0 3:1 4:1 7:1 21:1 29:1 31:1 39:1 40:1 44:1 49:1 60:1 66:1 74:1 81:1 85:1 90:1 92:1 95:1 102:1 103:1 108:1 109:1 113:1 115:1 120:1 122:1 129:1 131:1 134:1 141:1 147:1 153:1 156:1 159:1 160:1 164:1 171:1 172:1 177:1 178:1 
0.1029167102332852 0 3:1 4:1 7:1 21:1 29:1 31:1 39:1 40:1 44:1 49:1 65:1 74:1 81:1 85:1 90:1 92:1 95:1 102:1 103:1 108:1 109:1 113:1 115:1 120:1 122:1 129:1 131:1 134:1 144:1 150:1 156:1 158:1 162:1 163:1 167:1 174:1 175:1 180:1 
0.2488630072927497 0 2:1 5:1 8:1 10:1 14:1 16:1 19:1 23:1 25:1 30:1 36:1 54:1 56:1 59:1 66:1 69:1 71:1 74:1 77:1 81:1 85:1 90:1 95:1 105:1 106:1 110:1 113:1 116:1 119:1 121:1 124:1 127:1 132:1 133:1 136:1 139:1 143:1 152:1 154:1 159:1 165:1 171:1 177:1 180:1 
0.003959025313387297 0 2:1 8:1 11:1 13:1 21:1 24:1 31:1 35:1 42:1 45:1 48:1 52:1 56:1 59:1 62:1 65:1 68:1 74:1 77:1 80:1 83:1 85:1 90:1 92:1 96:1 98:1 105:1 106:1 111:1 115:1 119:1 122:1 125:1 127:1 132:1 133:1 137:1 140:1 146:1 149:1 153:1 154:1 157:1 160:1 165:1 167:1 169:1 173:1 175:1 178:1 
0 0.04743864549054735 3:1 9:1 12:1 14:1 17:1 19:1 23:1 25:1 30:1 32:1 38:1 44:1 47:1 53:1 56:1 59:1 63:1 65:1 68:1 72:1 74:1 77:1 81:1 83:1 85:1 90:1 93:1 98:1 107:1 110:1 116:1 118:1 122:1 125:1 129:1 131:1 144:1 146:1 150:1 152:1 156:1 158:1 161:1 164:1 167:1 171:1 172:1 175:1 180:1 
0 0.0121885874173932 1:1 8:1 11:1 20:1 23:1 29:1 32:1 34:1 38:1 41:1 47:1 54:1 57:1 68:1 77:1 81:1 83:1 85:1 90:1 93:1 94:1 97:1 100:1 107:1 110:1 112:1 120:1 122:1 125:1 128:1 132:1 133:1 143:1 145:1 150:1 151:1 154:1 159:1 160:1 165:1 168:1 169:1 174:1 176:1 179:1 
0.1610608593816744 0 2:1 9:1 10:1 13:1 18:1 21:1 22:1 25:1 29:1 33:1 36:1 39:1 43:1 48:1 51:1 54:1 56:1 59:1 61:1 66:1 69:1 72:1 74:1 76:1 81:1 83:1 85:1 90:1 92:1 98:1 101:1 108:1 109:1 114:1 117:1 119:1 121:1 125:1 132:1 134:1 137:1 144:1 146:1 153:1 156:1 162:1 163:1 167:1 170:1 173:1 180:1 
0.07278041546087549 0.2331759778133189 2:1 4:1 12:1 14:1 17:1 27:1 28:1 31:1 44:1 59:1 66:1 68:1 70:1 74:1 78:1 79:1 83:1 85:1 90:1 93:1 98:1 105:1 107:1 110:1 112:1 117:1 119:1 127:1 131:1 133:1 145:1 149:1 152:1 155:1 157:1 160:1 163:1 167:1 174:1 179:1 
0 0.1925991277379834 12:1 14:1 16:1 20:1 27:1 28:1 31:1 39:1 41:1 43:1 46:1 49:1 56:1 77:1 80:1 82:1 85:1 90:1 93:1 99:1 100:1 109:1 116:1 119:1 126:1 127:1 130:1 134:1 137:1 139:1 146:1 149:1 151:1 156:1 159:1 161:1 164:1 166:1 169:1 172:1 178:1 
0 0.0675923472204743 8:1 21:1 22:1 25:1 31:1 34:1 37:1 44:1 47:1 55:1 59:1 64:1 76:1 80:1 83:1 85:1 90:1 93:1 94:1 98:1 100:1 103:1 107:1 114:1 116:1 118:1 122:1 125:1 127:1 132:1 133:1 137:1 140:1 142:1 150:1 152:1 161:1 163:1 168:1 174:1 175:1 180:1 
0 0.2254791228376119 2:1 9:1 11:1 17:1 19:1 23:1 26:1 30:1 31:1 35:1 39:1 40:1 43:1 47:1 51:1 52:1 56:1 58:1 74:1 77:1 79:1 83:1 85:1 90:1 93:1 94:1 99:1 101:1 104:1 108:1 109:1 113:1 116:1 123:1 125:1 128:1 133:1 137:1 139:1 144:1 145:1 149:1 152:1 155:1 159:1 161:1 164:1 171:1 174:1 175:1 180:1 
0.1262692484292598 0 2:1 5:1 8:1 14:1 17:1 22:1 26:1 29:1 33:1 36:1 37:1 40:1 44:1 51:1 52:1 55:1 59:1 62:1 65:1 71:1 74:1 76:1 79:1 83:1 85:1 90:1 93:1 96:1 97:1 102:1 104:1 107:1 110:1 113:1 117:1 118:1 123:1 127:1 134:1 138:1 141:1 143:1 145:1 150:1 152:1 154:1 159:1 164:1 166:1 171:1 173:1 175:1 180:1 
0.2438842719126932 0 3:1 11:1 18:1 19:1 22:1 27:1 30:1 33:1 37:1 42:1 45:1 48:1 50:1 52:1 57:1 60:1 63:1 66:1 68:1 70:1 75:1 77:1 79:1 83:1 85:1 90:1 92:1 98:1 101:1 106:1 109:1 114:1 116:1 119:1 121:1 125:1 132:1 134:1 137:1 144:1 146:1 153:1 156:1 162:1 163:1 167:1 170:1 173:1 180:1 
0.04496637883226102 0 6:1 9:1 11:1 14:1 16:1 21:1 23:1 26:1 32:1 37:1 40:1 44:1 50:1 53:1 55:1 60:1 62:1 65:1 68:1 71:1 74:1 83:1 85:1 90:1 92:1 94:1 101:1 107:1 110:1 114:1 117:1 119:1 124:1 128:1 132:1 133:1 137:1 139:1 146:1 149:1 152:1 159:1 160:1 165:1 168:1 171:1 173:1 175:1 179:1 
0.4153708332335166 0.02862261199930816 3:1 6:1 9:1 12:1 14:1 16:1 21:1 24:1 25:1 29:1 35:1 38:1 40:1 44:1 47:1 50:1 54:1 55:1 62:1 64:1 74:1 77:1 80:1 83:1 85:1 90:1 91:1 101:1 103:1 108:1 110:1 112:1 117:1 119:1 123:1 124:1 128:1 135:1 137:1 139:1 144:1 147:1 148:1 153:1 156:1 157:1 162:1 164:1 169:1 174:1 175:1 179:1 
0 0.003222085721966513 2:1 8:1 10:1 15:1 18:1 20:1 24:1 29:1 32:1 35:1 38:1 45:1 47:1 54:1 59:1 62:1 65:1 69:1 72:1 74:1 81:1 83:1 85:1 90:1 96:1 97:1 101:1 104:1 111:1 114:1 117:1 118:1 123:1 125:1 128:1 130:1 133:1 137:1 139:1 143:1 146:1 149:1 155:1 159:1 161:1 168:1 169:1 174:1 177:1 
0 0.2117666437974419 7:1 10:1 18:1 23:1 29:1 32:1 35:1 37:1 40:1 43:1 47:1 50:1 56:1 58:1 62:1 65:1 68:1 70:1 73:1 77:1 80:1 83:1 85:1 90:1 93:1 94:1 99:1 100:1 103:1 106:1 116:1 119:1 123:1 126:1 127:1 132:1 138:1 139:1 143:1 149:1 154:1 161:1 163:1 167:1 170:1 172:1 175:1 179:1 
0 0.2223615144502041 3:1 8:1 11:1 14:1 17:1 23:1 25:1 29:1 31:1 36:1 39:1 42:1 44:1 46:1 62:1 71:1 74:1 77:1 79:1 83:1 85:1 90:1 93:1 99:1 102:1 103:1 106:1 109:1 112:1 117:1 120:1 121:1 126:1 129:1 132:1 133:1 138:1 140:1 147:1 149:1 155:1 161:1 163:1 168:1 171:1 173:1 180:1 
0.3450923280646 0 3:1 6:1 9:1 10:1 14:1 18:1 21:1 24:1 26:1 33:1 34:1 38:1 41:1 43:1 47:1 51:1 54:1 57:1 60:1 63:1 65:1 69:1 72:1 75:1 78:1 80:1 83:1 85:1 90:1 93:1 96:1 101:1 107:1 109:1 113:1 115:1 119:1 122:1 125:1 131:1 134:1 136:1 141:1 142:1 147:1 150:1 151:1 159:1 163:1 167:1 171:1 174:1 176:1 
0.122656396416037 0 2:1 5:1 9:1 11:1 15:1 20:1 22:1 26:1 29:1 31:1 36:1 39:1 41:1 44:1 51:1 56:1 59:1 69:1 72:1 75:1 80:1 83:1 85:1 90:1 93:1 96:1 97:1 101:1 103:1 110:1 116:1 120:1 122:1 125:1 128:1 132:1 137:1 140:1 147:1 148:1 151:1 156:1 159:1 160:1 164:1 167:1 170:1 173:1 177:1 179:1 
0.03964847820049187 0 2:1 10:1 14:1 16:1 20:1 22:1 25:1 28:1 39:1 42:1 44:1 46:1 54:1 56:1 66:1 72:1 83:1 85:1 90:1 91:1 99:1 101:1 104:1 114:1 117:1 125:1 127:1 130:1 135:1 138:1 141:1 142:1 150:1 153:1 154:1 157:1 160:1 165:1 170:1 172:1 176:1 179:1 
0.07653500966577219 0.07251379770348919 1:1 6:1 8:1 13:1 16:1 21:1 26:1 29:1 36:1 38:1 41:1 44:1 50:1 52:1 65:1 68:1 71:1 77:1 83:1 85:1 90:1 93:1 95:1 97:1 105:1 108:1 109:1 114:1 119:1 122:1 129:1 135:1 138:1 140:1 142:1 149:1 152:1 154:1 158:1 162:1 163:1 166:1 169:1 173:1 178:1 
0 0.1340274455255864 6:1 12:1 14:1 21:1 22:1 26:1 29:1 33:1 35:1 38:1 45:1 47:1 54:1 55:1 59:1 66:1 68:1 71:1 81:1 83:1 85:1 90:1 93:1 99:1 100:1 103:1 106:1 117:1 119:1 122:1 125:1 132:1 138:1 141:1 146:1 149:1 159:1 162:1 168:1 171:1 176:1 179:1 
0.103623386080171 0.07653448838634465 1:1 6:1 8:1 11:1 13:1 17:1 23:1 25:1 29:1 35:1 41:1 47:1 50:1 53:1 57:1 59:1 63:1 65:1 69:1 71:1 75:1 77:1 79:1 83:1 85:1 90:1 93:1 95:1 97:1 104:1 108:1 114:1 116:1 123:1 126:1 127:1 131:1 137:1 140:1 144:1 147:1 149:1 153:1 154:1 158:1 162:1 165:1 167:1 171:1 176:1 178:1 
0.1270587599700237 0 2:1 5:1 11:1 14:1 17:1 21:1 23:1 36:1 42:1 48:1 50:1 53:1 56:1 59:1 63:1 65:1 71:1 74:1 76:1 81:1 83:1 85:1 90:1 92:1 95:1 101:1 104:1 107:1 111:1 113:1 117:1 118:1 122:1 126:1 127:1 135:1 137:1 140:1 143:1 146:1 152:1 154:1 157:1 161:1 165:1 172:1 176:1 179:1 
0.02776075750974544 0.09468736824742469 6:1 7:1 11:1 14:1 21:1 22:1 29:1 42:1 44:1 50:1 56:1 59:1 62:1 65:1 68:1 75:1 78:1 80:1 83:1 85:1 90:1 99:1 100:1 105:1 108:1 109:1 114:1 117:1 118:1 123:1 124:1 127:1 131:1 134:1 137:1 141:1 144:1 145:1 149:1 158:1 165:1 168:1 169:1 172:1 176:1 179:1 
0.1789578724120838 0.09999534484836663 1:1 4:1 12:1 16:1 22:1 30:1 34:1 37:1 43:1 46:1 56:1 65:1 67:1 83:1 85:1 90:1 93:1 94:1 97:1 102:1 103:1 106:1 111:1 112:1 115:1 124:1 128:1 130:1 135:1 136:1 139:1 142:1 148:1 152:1 154:1 161:1 164:1 166:1 171:1 174:1 175:1 180:1 
0.2272752343027635 0.2164813370354934 3:1 8:1 10:1 14:1 16:1 22:1 28:1 32:1 39:1 40:1 44:1 47:1 53:1 60:1 61:1 65:1 67:1 71:1 74:1 77:1 85:1 90:1 93:1 96:1 97:1 100:1 105:1 110:1 112:1 117:1 123:1 126:1 129:1 130:1 135:1 141:1 144:1 148:1 151:1 155:1 158:1 160:1 164:1 167:1 169:1 173:1 175:1 179:1 
0.3782902331630674 0 7:1 15:1 17:1 29:1 32:1 43:1 50:1 53:1 56:1 62:1 69:1 73:1 79:1 83:1 85:1 90:1 93:1 94:1 99:1 100:1 104:1 106:1 111:1 112:1 116:1 119:1 121:1 124:1 128:1 133:1 138:1 139:1 142:1 147:1 148:1 156:1 157:1 162:1 163:1 166:1 171:1 176:1 
-0 0.004072939198070748 6:1 7:1 11:1 13:1 16:1 19:1 22:1 33:1 36:1 37:1 40:1 48:1 56:1 68:1 70:1 75:1 80:1 82:1 85:1 93:1 96:1 98:1 100:1 103:1 107:1 109:1 128:1 130:1 134:1 141:1 144:1 147:1 157:1 163:1 168:1 172:1 177:1 180:1 
-0.465247568918449 0 6:1 8:1 14:1 17:1 20:1 23:1 26:1 28:1 31:1 35:1 45:1 48:1 51:1 54:1 56:1 59:1 62:1 69:1 72:1 73:1 80:1 83:1 85:1 90:1 92:1 94:1 99:1 102:1 108:1 111:1 112:1 119:1 121:1 126:1 127:1 132:1 134:1 141:1 144:1 146:1 150:1 152:1 154:1 157:1 160:1 165:1 166:1 171:1 173:1 177:1 180:1 
-0.02033181951261985 0 3:1 4:1 11:1 13:1 17:1 19:1 23:1 28:1 35:1 41:1 44:1 46:1 50:1 60:1 62:1 65:1 68:1 70:1 75:1 77:1 80:1 83:1 90:1 96:1 99:1 100:1 103:1 108:1 109:1 118:1 123:1 125:1 129:1 132:1 134:1 137:1 139:1 147:1 151:1 161:1 164:1 166:1 169:1 177:1 
-0 0.4036693221413473 3:1 6:1 8:1 11:1 14:1 19:1 24:1 28:1 33:1 35:1 37:1 42:1 44:1 47:1 49:1 55:1 59:1 61:1 66:1 69:1 70:1 75:1 77:1 84:1 87:1 90:1 93:1 94:1 97:1 102:1 105:1 108:1 111:1 114:1 116:1 119:1 125:1 132:1 135:1 138:1 141:1 143:1 150:1 151:1 155:1 158:1 160:1 165:1 168:1 170:1 174:1 175:1 179:1 
-0.1745814347088733 0 1:1 5:1 9:1 15:1 17:1 24:1 26:1 28:1 33:1 34:1 41:1 44:1 48:1 49:1 52:1 63:1 66:1 68:1 74:1 77:1 79:1 83:1 85:1 89:1 92:1 95:1 99:1 105:1 108:1 114:1 117:1 123:1 125:1 132:1 133:1 138:1 140:1 144:1 147:1 149:1 152:1 159:1 162:1 163:1 167:1 169:1 173:1 176:1 178:1 
-0 0.06271546789739385 2:1 4:1 8:1 10:1 15:1 18:1 20:1 22:1 32:1 35:1 37:1 44:1 46:1 50:1 52:1 55:1 58:1 65:1 68:1 81:1 84:1 86:1 93:1 99:1 101:1 114:1 120:1 121:1 126:1 136:1 143:1 145:1 150:1 155:1 157:1 162:1 163:1 168:1 170:1 172:1 179:1 
-0.1051936479071172 0 1:1 6:1 11:1 13:1 17:1 24:1 27:1 30:1 35:1 41:1 48:1 50:1 53:1 56:1 58:1 63:1 66:1 69:1 74:1 77:1 79:1 82:1 87:1 90:1 93:1 96:1 99:1 105:1 106:1 111:1 112:1 116:1 119:1 121:1 125:1 127:1 132:1 135:1 137:1 139:1 143:1 146:1 148:1 153:1 156:1 158:1 161:1 167:1 170:1 177:1 180:1 
-0.5394305011015494 0 3:1 11:1 15:1 21:1 24:1 27:1 30:1 33:1 35:1 38:1 40:1 44:1 57:1 59:1 63:1 66:1 68:1 71:1 84:1 85:1 90:1 93:1 94:1 99:1 101:1 104:1 108:1 111:1 112:1 117:1 119:1 126:1 128:1 134:1 138:1 140:1 143:1 146:1 148:1 153:1 156:1 157:1 161:1 163:1 170:1 173:1 177:1 179:1 
-0 0.3259616501561308 1:1 5:1 8:1 21:1 24:1 26:1 32:1 36:1 39:1 42:1 43:1 48:1 49:1 54:1 57:1 59:1 61:1 66:1 67:1 71:1 78:1 84:1 87:1 90:1 92:1 99:1 101:1 105:1 106:1 110:1 113:1 119:1 126:1 134:1 138:1 139:1 144:1 145:1 148:1 153:1 154:1 157:1 162:1 167:1 171:1 173:1 180:1 
-0.1977102880445412 0 4:1 9:1 12:1 17:1 20:1 26:1 29:1 36:1 38:1 44:1 50:1 53:1 55:1 61:1 68:1 74:1 78:1 80:1 83:1 85:1 90:1 96:1 99:1 102:1 105:1 117:1 118:1 124:1 129:1 130:1 135:1 136:1 139:1 143:1 149:1 151:1 156:1 157:1 160:1 165:1 167:1 171:1 177:1 180:1 
-0 0.02210758024523217 2:1 5:1 15:1 17:1 23:1 25:1 30:1 31:1 36:1 38:1 42:1 45:1 46:1 51:1 52:1 55:1 58:1 63:1 65:1 67:1 81:1 93:1 97:1 101:1 103:1 106:1 111:1 112:1 119:1 122:1 126:1 128:1 130:1 135:1 136:1 140:1 144:1 150:1 154:1 157:1 160:1 168:1 176:1 179:1 
-0.2978044012257204 0 5:1 8:1 11:1 14:1 18:1 19:1 24:1 26:1 29:1 32:1 38:1 40:1 45:1 47:1 49:1 53:1 55:1 60:1 62:1 64:1 69:1 71:1 78:1 80:1 84:1 85:1 90:1 91:1 96:1 97:1 104:1 113:1 115:1 118:1 122:1 124:1 132:1 135:1 137:1 141:1 142:1 147:1 150:1 153:1 154:1 161:1 163:1 168:1 170:1 174:1 176:1 178:1 
-0.09080329845615755 0 5:1 8:1 10:1 15:1 17:1 32:1 38:1 40:1 45:1 50:1 52:1 56:1 62:1 64:1 69:1 71:1 73:1 80:1 83:1 85:1 89:1 91:1 95:1 97:1 102:1 105:1 107:1 110:1 112:1 117:1 120:1 121:1 125:1 128:1 130:1 135:1 136:1 139:1 142:1 149:1 152:1 155:1 170:1 172:1 176:1 179:1 
-0 0.05847936247345733 3:1 16:1 20:1 23:1 26:1 28:1 31:1 37:1 40:1 45:1 48:1 50:1 52:1 56:1 59:1 61:1 65:1 68:1 71:1 73:1 77:1 80:1 85:1 93:1 94:1 100:1 104:1 111:1 117:1 119:1 124:1 128:1 130:1 135:1 136:1 144:1 147:1 148:1 153:1 157:1 164:1 174:1 175:1 179:1 
-0.08106248386235085 0 1:1 6:1 8:1 12:1 15:1 17:1 24:1 27:1 29:1 31:1 37:1 41:1 44:1 53:1 56:1 59:1 61:1 65:1 71:1 73:1 77:1 81:1 84:1 85:1 90:1 93:1 95:1 98:1 100:1 107:1 110:1 112:1 117:1 120:1 122:1 125:1 135:1 147:1 148:1 153:1 155:1 159:1 162:1 165:1 168:1 170:1 174:1 175:1 180:1 
-0.04416166478381151 0 1:1 8:1 11:1 14:1 17:1 19:1 24:1 25:1 32:1 35:1 40:1 43:1 48:1 49:1 54:1 57:1 59:1 62:1 66:1 67:1 70:1 78:1 81:1 85:1 92:1 99:1 102:1 105:1 107:1 109:1 114:1 115:1 118:1 121:1 126:1 127:1 134:1 138:1 139:1 145:1 151:1 155:1 158:1 163:1 169:1 172:1 176:1 180:1 
-0 0.2960628813040526 1:1 4:1 7:1 11:1 18:1 21:1 24:1 27:1 29:1 32:1 39:1 40:1 45:1 46:1 50:1 54:1 56:1 59:1 62:1 65:1 72:1 75:1 77:1 80:1 82:1 90:1 93:1 94:1 98:1 101:1 105:1 107:1 116:1 119:1 122:1 124:1 130:1 134:1 137:1 144:1 147:1 149:1 155:1 162:1 167:1 170:1 172:1 175:1 180:1 
-0 0.05652752880770707 5:1 8:1 11:1 14:1 20:1 23:1 26:1 28:1 32:1 35:1 38:1 44:1 46:1 51:1 54:1 57:1 58:1 63:1 65:1 68:1 70:1 75:1 78:1 80:1 86:1 90:1 93:1 95:1 97:1 110:1 117:1 120:1 122:1 124:1 129:1 131:1 133:1 136:1 141:1 142:1 150:1 151:1 154:1 158:1 161:1 164:1 167:1 170:1 173:1 176:1 178:1 
-0 0.2290012604901037 3:1 6:1 7:1 20:1 23:1 25:1 30:1 32:1 35:1 41:1 44:1 47:1 50:1 56:1 63:1 65:1 67:1 70:1 73:1 78:1 79:1 87:1 93:1 94:1 97:1 101:1 105:1 106:1 111:1 117:1 123:1 125:1 127:1 132:1 133:1 137:1 141:1 144:1 150:1 152:1 155:1 158:1 160:1 164:1 167:1 170:1 173:1 176:1 179:1 
-0 0.03431879155687836 1:1 4:1 7:1 15:1 18:1 19:1 24:1 25:1 33:1 35:1 38:1 40:1 43:1 46:1 49:1 53:1 55:1 60:1 61:1 65:1 68:1 70:1 75:1 78:1 80:1 82:1 86:1 88:1 93:1 94:1 97:1 100:1 105:1 107:1 114:1 115:1 118:1 123:1 126:1 132:1 134:1 141:1 144:1 145:1 150:1 151:1 159:1 161:1 164:1 166:1 169:1 174:1 180:1 
-0.4613207456956475 0.4440895116956232 3:1 5:1 7:1 10:1 13:1 17:1 20:1 26:1 32:1 35:1 38:1 45:1 48:1 50:1 53:1 56:1 59:1 69:1 72:1 73:1 78:1 83:1 85:1 90:1 93:1 95:1 97:1 101:1 103:1 108:1 111:1 114:1 116:1 120:1 123:1 126:1 129:1 135:1 144:1 147:1 153:1 156:1 159:1 162:1 163:1 166:1 169:1 177:1 
-0.2193440940028947 0 2:1 8:1 14:1 28:1 36:1 38:1 47:1 53:1 68:1 70:1 74:1 80:1 87:1 90:1 91:1 96:1 97:1 101:1 103:1 108:1 109:1 114:1 116:1 123:1 127:1 132:1 135:1 136:1 141:1 142:1 145:1 150:1 153:1 154:1 157:1 162:1 164:1 170:1 173:1 176:1 
-0 0.2014483620459014 3:1 5:1 10:1 19:1 23:1 28:1 32:1 35:1 37:1 40:1 45:1 47:1 50:1 57:1 64:1 69:1 76:1 79:1 84:1 87:1 90:1 92:1 94:1 97:1 100:1 105:1 108:1 110:1 112:1 115:1 120:1 121:1 124:1 127:1 138:1 142:1 145:1 159:1 162:1 165:1 168:1 170:1 177:1 
-0 0.02217833082566769 2:1 4:1 10:1 18:1 27:1 28:1 31:1 34:1 37:1 40:1 48:1 49:1 56:1 58:1 61:1 64:1 71:1 73:1 78:1 81:1 82:1 88:1 100:1 105:1 108:1 109:1 117:1 123:1 125:1 127:1 134:1 136:1 141:1 143:1 149:1 151:1 159:1 163:1 175:1 179:1 
-0 0.152764031687784 5:1 8:1 10:1 18:1 30:1 34:1 37:1 40:1 43:1 47:1 52:1 56:1 58:1 62:1 64:1 71:1 74:1 77:1 82:1 85:1 93:1 99:1 105:1 107:1 110:1 112:1 118:1 123:1 124:1 129:1 139:1 142:1 146:1 148:1 152:1 154:1 157:1 162:1 167:1 170:1 177:1 
-0 0.4120908662706613 6:1 9:1 10:1 14:1 18:1 21:1 25:1 28:1 32:1 34:1 39:1 42:1 43:1 46:1 54:1 58:1 66:1 67:1 72:1 73:1 78:1 87:1 90:1 93:1 99:1 101:1 104:1 106:1 109:1 112:1 115:1 119:1 129:1 135:1 138:1 140:1 143:1 147:1 149:1 152:1 155:1 162:1 166:1 170:1 172:1 175:1 180:1 
-0 0.4846513336417034 4:1 9:1 12:1 13:1 27:1 30:1 33:1 36:1 37:1 48:1 49:1 52:1 57:1 59:1 62:1 65:1 69:1 72:1 74:1 81:1 82:1 90:1 93:1 97:1 102:1 105:1 107:1 109:1 114:1 115:1 118:1 122:1 132:1 135:1 136:1 141:1 142:1 146:1 148:1 151:1 159:1 165:1 166:1 171:1 172:1 175:1 180:1 
-0 0.03072970495636116 1:1 12:1 15:1 17:1 19:1 22:1 27:1 30:1 31:1 36:1 37:1 44:1 46:1 57:1 58:1 62:1 65:1 71:1 75:1 81:1 90:1 93:1 94:1 98:1 101:1 105:1 106:1 109:1 119:1 123:1 125:1 127:1 130:1 135:1 137:1 144:1 147:1 149:1 152:1 156:1 157:1 161:1 164:1 166:1 171:1 177:1 179:1 
-0 0.4499960260537054 3:1 6:1 8:1 11:1 14:1 17:1 20:1 22:1 26:1 29:1 36:1 39:1 45:1 48:1 49:1 52:1 57:1 59:1 62:1 65:1 71:1 76:1 80:1 83:1 90:1 93:1 99:1 105:1 107:1 111:1 114:1 117:1 120:1 121:1 126:1 128:1 132:1 133:1 138:1 141:1 152:1 161:1 166:1 170:1 174:1 176:1 178:1 
-0.3402781135388711 0.3883651694041719 3:1 5:1 9:1 11:1 14:1 16:1 19:1 22:1 27:1 29:1 31:1 34:1 37:1 42:1 45:1 48:1 51:1 52:1 56:1 58:1 64:1 67:1 70:1 74:1 76:1 80:1 83:1 85:1 90:1 93:1 94:1 97:1 101:1 103:1 106:1 110:1 114:1 117:1 120:1 123:1 124:1 129:1 130:1 135:1 136:1 141:1 143:1 146:1 152:1 155:1 162:1 168:1 169:1 172:1 175:1 180:1 
-0 0.09838969151235681 8:1 11:1 15:1 16:1 19:1 24:1 25:1 29:1 32:1 41:1 43:1 48:1 49:1 52:1 55:1 58:1 63:1 64:1 67:1 71:1 74:1 76:1 81:1 83:1 85:1 89:1 91:1 97:1 100:1 108:1 109:1 114:1 115:1 119:1 121:1 125:1 128:1 130:1 136:1 139:1 142:1 147:1 148:1 151:1 156:1 165:1 168:1 173:1 180:1 
-0.1713951663861376 0 3:1 4:1 9:1 11:1 14:1 19:1 24:1 25:1 29:1 31:1 35:1 38:1 41:1 44:1 51:1 54:1 57:1 66:1 70:1 75:1 78:1 81:1 84:1 85:1 90:1 91:1 96:1 99:1 101:1 108:1 111:1 114:1 117:1 123:1 126:1 127:1 132:1 135:1 138:1 139:1 144:1 145:1 150:1 153:1 155:1 161:1 164:1 173:1 176:1 179:1 
-0.006017407106183743 0 3:1 4:1 7:1 10:1 18:1 19:1 23:1 30:1 31:1 39:1 42:1 43:1 48:1 51:1 57:1 63:1 66:1 67:1 86:1 90:1 102:1 103:1 106:1 111:1 116:1 118:1 125:1 129:1 132:1 137:1 141:1 144:1 146:1 156:1 157:1 161:1 163:1 167:1 170:1 172:1 180:1 
-0.1105070704311048 0.06124702652959201 6:1 7:1 10:1 15:1 21:1 26:1 31:1 34:1 42:1 44:1 46:1 55:1 58:1 62:1 78:1 82:1 85:1 90:1 93:1 97:1 101:1 108:1 109:1 112:1 118:1 122:1 130:1 133:1 139:1 147:1 153:1 156:1 159:1 160:1 163:1 166:1 170:1 173:1 176:1 
-0.3418529707743784 0 3:1 9:1 12:1 15:1 16:1 20:1 23:1 25:1 29:1 31:1 36:1 38:1 41:1 43:1 48:1 51:1 52:1 56:1 60:1 63:1 65:1 68:1 71:1 80:1 82:1 85:1 90:1 91:1 97:1 102:1 105:1 108:1 111:1 113:1 120:1 121:1 126:1 129:1 132:1 133:1 138:1 141:1 143:1 146:1 148:1 151:1 156:1 159:1 162:1 165:1 166:1 169:1 173:1 175:1 
-0.106782883037082 0.3228312321550144 2:1 6:1 8:1 17:1 20:1 26:1 30:1 35:1 38:1 42:1 44:1 47:1 50:1 53:1 58:1 61:1 66:1 71:1 75:1 78:1 81:1 82:1 85:1 90:1 93:1 101:1 104:1 114:1 116:1 120:1 123:1 131:1 135:1 137:1 141:1 144:1 146:1 150:1 156:1 158:1 161:1 165:1 168:1 169:1 173:1 177:1 
-0 0.04303116473818707 1:1 6:1 9:1 12:1 15:1 17:1 24:1 26:1 29:1 33:1 35:1 37:1 42:1 44:1 47:1 51:1 53:1 56:1 60:1 62:1 66:1 67:1 72:1 74:1 77:1 83:1 86:1 90:1 93:1 94:1 98:1 100:1 105:1 106:1 110:1 114:1 116:1 119:1 121:1 126:1 127:1 132:1 134:1 138:1 139:1 144:1 147:1 148:1 153:1 156:1 158:1 162:1 164:1 169:1 173:1 177:1 179:1 
-0 0.1095353267868207 1:1 6:1 7:1 12:1 15:1 17:1 19:1 24:1 25:1 30:1 32:1 39:1 41:1 44:1 47:1 50:1 57:1 58:1 63:1 69:1 70:1 75:1 77:1 80:1 82:1 90:1 92:1 94:1 99:1 100:1 105:1 108:1 109:1 116:1 122:1 125:1 131:1 134:1 137:1 143:1 145:1 152:1 155:1 157:1 164:1 170:1 176:1 
-0 0.006258992340621618 3:1 4:1 9:1 12:1 13:1 18:1 20:1 29:1 32:1 34:1 37:1 40:1 49:1 56:1 59:1 61:1 70:1 75:1 77:1 79:1 83:1 85:1 88:1 93:1 95:1 98:1 101:1 105:1 110:1 112:1 117:1 123:1 126:1 128:1 131:1 134:1 137:1 139:1 147:1 149:1 151:1 157:1 160:1 163:1 171:1 175:1 179:1 
-0 0.01919712912153524 1:1 6:1 9:1 10:1 13:1 16:1 19:1 22:1 27:1 28:1 33:1 36:1 37:1 40:1 45:1 48:1 51:1 52:1 57:1 60:1 63:1 64:1 69:1 72:1 75:1 76:1 81:1 84:1 85:1 88:1 93:1 96:1 97:1 100:1 105:1 108:1 109:1 112:1 115:1 120:1 121:1 124:1 129:1 132:1 133:1 136:1 141:1 144:1 145:1 148:1 153:1 156:1 159:1 160:1 165:1 166:1 171:1 172:1 177:1 178:1 
-0 0.008253003966771446 5:1 8:1 11:1 14:1 18:1 20:1 22:1 26:1 28:1 33:1 35:1 39:1 40:1 43:1 46:1 53:1 59:1 62:1 65:1 67:1 72:1 78:1 81:1 83:1 85:1 89:1 92:1 96:1 97:1 102:1 105:1 108:1 111:1 114:1 116:1 120:1 121:1 126:1 129:1 132:1 139:1 142:1 147:1 153:1 156:1 159:1 162:1 165:1 168:1 171:1 172:1 177:1 180:1 
-0.1504096261780281 0.5281377406095533 2:1 4:1 8:1 12:1 21:1 24:1 27:1 28:1 33:1 36:1 41:1 45:1 46:1 51:1 54:1 56:1 58:1 63:1 66:1 68:1 70:1 75:1 76:1 83:1 85:1 89:1 99:1 100:1 105:1 107:1 110:1 113:1 115:1 120:1 122:1 124:1 129:1 135:1 139:1 142:1 147:1 150:1 158:1 168:1 172:1 179:1 
-0.415739352219307 0 9:1 11:1 14:1 17:1 27:1 28:1 33:1 34:1 41:1 46:1 62:1 65:1 74:1 80:1 82:1 85:1 91:1 99:1 108:1 109:1 116:1 118:1 121:1 126:1 128:1 130:1 135:1 136:1 141:1 150:1 153:1 154:1 157:1 160:1 163:1 166:1 172:1 180:1 
-0.1076874680259276 0.0504696646231014 8:1 12:1 14:1 17:1 19:1 22:1 26:1 28:1 33:1 35:1 38:1 45:1 48:1 54:1 58:1 66:1 69:1 71:1 75:1 77:1 80:1 86:1 90:1 93:1 94:1 98:1 100:1 105:1 107:1 109:1 112:1 116:1 120:1 125:1 130:1 137:1 141:1 143:1 146:1 148:1 152:1 155:1 162:1 163:1 166:1 171:1 174:1 175:1 179:1 
-0.1872217379178776 0 3:1 6:1 11:1 17:1 24:1 26:1 33:1 36:1 44:1 49:1 54:1 56:1 65:1 68:1 74:1 83:1 86:1 89:1 91:1 104:1 111:1 112:1 116:1 122:1 125:1 132:1 135:1 137:1 148:1 153:1 155:1 161:1 167:1 174:1 177:1 178:1 
-0 0.03912364537960142 3:1 6:1 7:1 10:1 18:1 21:1 27:1 28:1 32:1 39:1 42:1 43:1 47:1 59:1 62:1 64:1 69:1 70:1 77:1 80:1 87:1 90:1 96:1 97:1 105:1 107:1 114:1 117:1 118:1 121:1 124:1 132:1 133:1 137:1 143:1 146:1 149:1 152:1 154:1 159:1 161:1 165:1 171:1 174:1 175:1 180:1 
-0.06088006088477523 0 1:1 5:1 8:1 21:1 24:1 26:1 35:1 41:1 43:1 48:1 50:1 52:1 57:1 60:1 62:1 64:1 69:1 71:1 78:1 79:1 83:1 90:1 91:1 96:1 99:1 100:1 105:1 106:1 110:1 120:1 123:1 126:1 129:1 134:1 143:1 146:1 153:1 156:1 158:1 164:1 166:1 170:1 175:1 
-0.1949504479444194 0.1323759031733644 6:1 9:1 10:1 15:1 18:1 19:1 22:1 25:1 35:1 41:1 45:1 46:1 51:1 54:1 60:1 61:1 65:1 68:1 75:1 78:1 79:1 83:1 85:1 90:1 93:1 96:1 98:1 102:1 105:1 108:1 110:1 117:1 120:1 123:1 125:1 129:1 130:1 135:1 138:1 139:1 143:1 147:1 149:1 155:1 158:1 161:1 165:1 168:1 171:1 174:1 176:1 179:1 
-0 0.1622718898269984 2:1 9:1 12:1 14:1 17:1 26:1 29:1 36:1 39:1 40:1 44:1 46:1 51:1 53:1 55:1 60:1 63:1 66:1 69:1 72:1 74:1 80:1 83:1 90:1 93:1 96:1 97:1 107:1 110:1 117:1 120:1 123:1 134:1 137:1 139:1 144:1 147:1 151:1 154:1 159:1 165:1 166:1 
-0 0.01675684902745937 2:1 5:1 7:1 10:1 14:1 18:1 20:1 23:1 25:1 29:1 32:1 34:1 39:1 41:1 44:1 46:1 54:1 57:1 60:1 61:1 66:1 72:1 78:1 80:1 86:1 88:1 93:1 96:1 97:1 102:1 107:1 111:1 113:1 117:1 120:1 123:1 126:1 128:1 130:1 135:1 136:1 140:1 144:1 150:1 151:1 155:1 157:1 164:1 171:1 176:1 179:1 
-0 0.0001967498749346232 3:1 5:1 7:1 11:1 13:1 21:1 23:1 26:1 29:1 32:1 36:1 39:1 40:1 44:1 46:1 51:1 59:1 66:1 67:1 72:1 78:1 79:1 84:1 86:1 88:1 93:1 99:1 102:1 104:1 106:1 114:1 117:1 119:1 122:1 126:1 138:1 143:1 146:1 149:1 156:1 157:1 162:1 163:1 168:1 169:1 174:1 176:1 179:1 
-0 0.08826599346761756 3:1 6:1 9:1 10:1 15:1 17:1 19:1 24:1 27:1 28:1 33:1 36:1 37:1 42:1 43:1 46:1 51:1 52:1 60:1 62:1 66:1 69:1 70:1 75:1 78:1 80:1 82:1 87:1 90:1 91:1 96:1 99:1 100:1 105:1 106:1 114:1 115:1 123:1 129:1 132:1 135:1 136:1 141:1 145:1 150:1 153:1 154:1 159:1 162:1 163:1 168:1 169:1 172:1 177:1 178:1 
-0.5823584751774821 0 1:1 6:1 8:1 17:1 19:1 29:1 32:1 39:1 41:1 44:1 50:1 60:1 65:1 72:1 75:1 77:1 83:1 85:1 90:1 92:1 94:1 98:1 100:1 106:1 117:1 120:1 125:1 127:1 133:1 136:1 139:1 142:1 146:1 148:1 154:1 164:1 171:1 174:1 
-0 0.1752142530732104 3:1 4:1 14:1 20:1 23:1 30:1 36:1 38:1 43:1 48:1 49:1 57:1 63:1 65:1 67:1 70:1 73:1 81:1 83:1 85:1 88:1 93:1 95:1 100:1 105:1 111:1 114:1 116:1 125:1 127:1 130:1 133:1 136:1 142:1 147:1 148:1 153:1 154:1 157:1 164:1 167:1 170:1 172:1 176:1 
-0 0.5035989476408348 2:1 4:1 12:1 13:1 21:1 24:1 27:1 33:1 36:1 42:1 44:1 51:1 52:1 57:1 60:1 66:1 67:1 77:1 81:1 83:1 86:1 88:1 93:1 94:1 97:1 100:1 105:1 113:1 117:1 126:1 128:1 134:1 140:1 143:1 153:1 156:1 157:1 162:1 164:1 167:1 169:1 174:1 177:1 178:1 
-0.08683706668038206 0 2:1 9:1 15:1 23:1 25:1 29:1 32:1 34:1 38:1 40:1 47:1 49:1 52:1 57:1 59:1 63:1 65:1 68:1 72:1 75:1 78:1 79:1 83:1 85:1 92:1 96:1 102:1 104:1 110:1 112:1 115:1 120:1 126:1 129:1 132:1 133:1 138:1 140:1 147:1 150:1 153:1 156:1 159:1 160:1 165:1 168:1 171:1 173:1 177:1 179:1 
-0 0.1041383235843358 2:1 5:1 9:1 12:1 13:1 18:1 24:1 27:1 30:1 33:1 34:1 39:1 40:1 47:1 49:1 54:1 55:1 63:1 66:1 69:1 72:1 74:1 80:1 87:1 93:1 97:1 104:1 106:1 114:1 116:1 118:1 121:1 124:1 129:1 132:1 133:1 137:1 150:1 152:1 154:1 164:1 171:1 179:1 
-0.09513805370640467 0 1:1 5:1 7:1 10:1 13:1 16:1 23:1 25:1 28:1 33:1 34:1 39:1 42:1 47:1 49:1 53:1 58:1 61:1 72:1 73:1 79:1 85:1 92:1 97:1 114:1 115:1 120:1 129:1 131:1 134:1 147:1 148:1 153:1 154:1 158:1 167:1 170:1 172:1 176:1 180:1 
-0.2253726081057425 0 1:1 6:1 9:1 12:1 14:1 16:1 20:1 22:1 27:1 28:1 36:1 43:1 47:1 49:1 54:1 56:1 62:1 64:1 69:1 72:1 74:1 77:1 80:1 83:1 85:1 90:1 93:1 96:1 98:1 101:1 103:1 108:1 110:1 116:1 119:1 121:1 126:1 129:1 131:1 136:1 141:1 148:1 152:1 155:1 162:1 168:1 169:1 174:1 177:1 179:1 
-0.4337621290337727 0 3:1 7:1 20:1 22:1 26:1 28:1 34:1 43:1 47:1 49:1 52:1 66:1 71:1 73:1 77:1 79:1 90:1 99:1 102:1 108:1 114:1 116:1 118:1 122:1 135:1 141:1 144:1 147:1 155:1 164:1 167:1 174:1 176:1 178:1 
-0.002943560477439451 0.3331222359669731 3:1 4:1 8:1 13:1 16:1 20:1 24:1 25:1 29:1 31:1 35:1 37:1 43:1 47:1 49:1 57:1 58:1 61:1 64:1 76:1 81:1 83:1 90:1 93:1 100:1 103:1 107:1 111:1 114:1 120:1 122:1 125:1 127:1 132:1 133:1 136:1 141:1 142:1 147:1 152:1 154:1 158:1 165:1 168:1 169:1 173:1 175:1 178:1 
-0.8590502526602689 0.03921794469420224 2:1 5:1 7:1 10:1 14:1 16:1 21:1 23:1 25:1 29:1 32:1 34:1 37:1 43:1 50:1 59:1 68:1 74:1 77:1 80:1 83:1 85:1 90:1 96:1 97:1 102:1 104:1 106:1 113:1 117:1 119:1 124:1 128:1 130:1 135:1 137:1 140:1 153:1 155:1 157:1 160:1 168:1 170:1 176:1 
-0 0.025658899819969 4:1 10:1 16:1 23:1 26:1 28:1 32:1 34:1 42:1 48:1 50:1 56:1 58:1 63:1 67:1 71:1 74:1 76:1 81:1 84:1 90:1 93:1 96:1 97:1 102:1 111:1 112:1 126:1 131:1 140:1 146:1 148:1 152:1 159:1 167:1 173:1 
-0.4630123645902974 0.3661276388051795 1:1 9:1 10:1 15:1 18:1 21:1 22:1 27:1 30:1 34:1 39:1 42:1 45:1 46:1 50:1 54:1 57:1 61:1 65:1 72:1 77:1 80:1 83:1 85:1 90:1 93:1 97:1 103:1 113:1 117:1 118:1 121:1 124:1 129:1 134:1 137:1 139:1 145:1 148:1 156:1 159:1 167:1 169:1 174:1 175:1 178:1 
-0 0.3859704828546066 9:1 12:1 13:1 16:1 19:1 22:1 25:1 29:1 34:1 37:1 40:1 45:1 46:1 53:1 65:1 71:1 73:1 76:1 79:1 82:1 88:1 93:1 97:1 100:1 108:1 109:1 112:1 115:1 123:1 128:1 133:1 141:1 142:1 153:1 154:1 157:1 160:1 165:1 167:1 175:1 178:1 
-0.565775044632808 0.5146622838286908 3:1 4:1 7:1 11:1 15:1 16:1 20:1 22:1 25:1 31:1 36:1 38:1 49:1 53:1 56:1 59:1 65:1 67:1 72:1 75:1 77:1 79:1 85:1 90:1 93:1 95:1 98:1 105:1 108:1 111:1 117:1 119:1 126:1 129:1 131:1 138:1 140:1 143:1 146:1 148:1 153:1 154:1 158:1 161:1 164:1 167:1 173:1 180:1 
-0 0.00770720928049263 2:1 15:1 17:1 24:1 25:1 30:1 31:1 39:1 40:1 43:1 47:1 49:1 54:1 57:1 60:1 63:1 65:1 71:1 75:1 76:1 79:1 83:1 87:1 88:1 93:1 99:1 102:1 103:1 106:1 111:1 112:1 116:1 120:1 123:1 132:1 138:1 141:1 144:1 146:1 150:1 153:1 159:1 161:1 164:1 166:1 174:1 
-0.5693491904071243 0 5:1 8:1 15:1 18:1 21:1 29:1 31:1 39:1 41:1 44:1 46:1 56:1 62:1 65:1 72:1 74:1 77:1 83:1 85:1 90:1 92:1 95:1 101:1 104:1 107:1 111:1 112:1 117:1 121:1 124:1 129:1 131:1 138:1 141:1 144:1 145:1 148:1 154:1 158:1 160:1 165:1 168:1 170:1 172:1 176:1 179:1 
-0.02814746471993699 0 3:1 4:1 9:1 11:1 17:1 24:1 26:1 28:1 33:1 36:1 38:1 45:1 46:1 49:1 54:1 55:1 63:1 68:1 72:1 74:1 76:1 81:1 83:1 90:1 95:1 97:1 102:1 104:1 108:1 111:1 114:1 115:1 123:1 126:1 129:1 132:1 135:1 137:1 139:1 143:1 147:1 149:1 159:1 161:1 168:1 169:1 173:1 177:1 179:1 
-0 0.1700043751954912 1:1 4:1 12:1 15:1 16:1 22:1 27:1 28:1 32:1 35:1 37:1 42:1 44:1 46:1 50:1 56:1 58:1 63:1 64:1 68:1 71:1 73:1 77:1 82:1 98:1 100:1 105:1 109:1 116:1 123:1 140:1 148:1 151:1 155:1 161:1 163:1 168:1 171:1 174:1 176:1 179:1 
-0 0.1378404766109191 5:1 9:1 10:1 18:1 21:1 23:1 27:1 29:1 32:1 37:1 42:1 45:1 46:1 51:1 56:1 59:1 61:1 69:1 70:1 73:1 76:1 82:1 86:1 90:1 93:1 97:1 101:1 103:1 108:1 111:1 113:1 122:1 125:1 129:1 132:1 134:1 138:1 139:1 143:1 147:1 150:1 151:1 159:1 161:1 164:1 167:1 170:1 174:1 176:1 179:1 
-0 0.1425262965992102 2:1 4:1 7:1 12:1 13:1 18:1 21:1 32:1 39:1 40:1 45:1 51:1 57:1 58:1 63:1 66:1 67:1 78:1 80:1 86:1 93:1 96:1 97:1 102:1 108:1 111:1 112:1 115:1 123:1 126:1 128:1 131:1 134:1 140:1 142:1 146:1 148:1 153:1 156:1 160:1 165:1 168:1 169:1 174:1 180:1 
-0 0.08282912318433469 2:1 4:1 7:1 11:1 14:1 17:1 19:1 24:1 26:1 31:1 39:1 42:1 50:1 56:1 62:1 66:1 68:1 70:1 73:1 78:1 81:1 84:1 85:1 88:1 93:1 98:1 101:1 111:1 113:1 115:1 118:1 123:1 125:1 130:1 133:1 143:1 156:1 157:1 161:1 164:1 171:1 180:1 
-0 0.1145912643862397 10:1 13:1 16:1 19:1 22:1 27:1 29:1 33:1 36:1 38:1 42:1 43:1 47:1 53:1 56:1 60:1 68:1 70:1 74:1 77:1 80:1 83:1 87:1 93:1 99:1 101:1 108:1 118:1 123:1 125:1 127:1 131:1 134:1 137:1 139:1 144:1 146:1 149:1 155:1 158:1 161:1 164:1 168:1 174:1 175:1 178:1 
-0.03853690045480045 0 4:1 9:1 11:1 13:1 17:1 20:1 22:1 27:1 29:1 31:1 36:1 42:1 45:1 47:1 49:1 54:1 56:1 65:1 69:1 70:1 73:1 78:1 80:1 83:1 85:1 90:1 92:1 95:1 98:1 100:1 105:1 111:1 114:1 115:1 118:1 122:1 125:1 127:1 131:1 133:1 136:1 140:1 147:1 149:1 152:1 155:1 161:1 163:1 166:1 169:1 172:1 177:1 178:1 
-0 0.3317335155506681 10:1 14:1 16:1 20:1 23:1 30:1 32:1 35:1 37:1 40:1 45:1 51:1 54:1 55:1 60:1 62:1 64:1 68:1 71:1 74:1 76:1 79:1 84:1 86:1 90:1 96:1 97:1 101:1 105:1 106:1 111:1 113:1 116:1 119:1 125:1 131:1 133:1 137:1 139:1 144:1 150:1 153:1 154:1 157:1 165:1 168:1 169:1 174:1 175:1 180:1 
-0.5903965886517373 0 2:1 4:1 9:1 10:1 13:1 16:1 21:1 22:1 26:1 28:1 31:1 36:1 41:1 48:1 51:1 55:1 68:1 71:1 83:1 85:1 90:1 93:1 94:1 98:1 104:1 107:1 110:1 120:1 121:1 126:1 131:1 133:1 142:1 145:1 148:1 151:1 154:1 157:1 160:1 163:1 170:1 179:1 
-0.07472588251569307 0 1:1 4:1 8:1 14:1 17:1 19:1 23:1 25:1 30:1 35:1 38:1 41:1 44:1 47:1 51:1 53:1 60:1 62:1 66:1 69:1 72:1 73:1 76:1 80:1 83:1 85:1 93:1 96:1 97:1 101:1 103:1 106:1 109:1 112:1 116:1 123:1 125:1 134:1 136:1 140:1 146:1 151:1 155:1 160:1 163:1 166:1 169:1 172:1 177:1 
-0.1201909202622797 0 1:1 6:1 8:1 15:1 18:1 19:1 35:1 38:1 48:1 57:1 59:1 64:1 79:1 82:1 85:1 88:1 93:1 96:1 102:1 107:1 110:1 112:1 117:1 123:1 129:1 130:1 135:1 138:1 144:1 146:1 150:1 151:1 155:1 162:1 165:1 171:1 174:1 175:1 180:1 
-0.01841746707021518 0 8:1 13:1 21:1 26:1 36:1 39:1 42:1 47:1 53:1 62:1 69:1 72:1 74:1 81:1 83:1 89:1 102:1 104:1 107:1 113:1 120:1 126:1 129:1 134:1 137:1 143:1 145:1 152:1 155:1 162:1 164:1 171:1 173:1 180:1 
-0 0.1559011653979212 2:1 9:1 12:1 13:1 17:1 19:1 23:1 25:1 29:1 33:1 35:1 38:1 41:1 43:1 48:1 51:1 60:1 64:1 69:1 72:1 78:1 79:1 82:1 86:1 90:1 92:1 97:1 105:1 108:1 110:1 116:1 119:1 121:1 124:1 129:1 130:1 133:1 138:1 139:1 144:1 146:1 148:1 156:1 159:1 164:1 166:1 176:1 
-0.272248423181597 0 2:1 6:1 9:1 11:1 14:1 17:1 24:1 27:1 31:1 38:1 41:1 43:1 53:1 56:1 60:1 63:1 64:1 69:1 72:1 73:1 81:1 90:1 96:1 98:1 100:1 105:1 108:1 110:1 117:1 118:1 123:1 126:1 128:1 135:1 138:1 141:1 144:1 147:1 149:1 151:1 159:1 161:1 163:1 167:1 169:1 173:1 176:1 180:1 
-0 0.1332892888415042 4:1 7:1 10:1 16:1 19:1 34:1 37:1 42:1 43:1 46:1 49:1 54:1 56:1 63:1 66:1 74:1 76:1 80:1 82:1 85:1 90:1 93:1 99:1 101:1 104:1 106:1 110:1 112:1 126:1 127:1 135:1 136:1 139:1 142:1 147:1 149:1 151:1 154:1 157:1 160:1 166:1 170:1 172:1 177:1 
-0 0.414069435092489 2:1 10:1 13:1 17:1 24:1 25:1 33:1 34:1 38:1 40:1 50:1 53:1 55:1 59:1 62:1 64:1 68:1 70:1 73:1 76:1 79:1 84:1 85:1 88:1 93:1 99:1 100:1 103:1 106:1 109:1 117:1 120:1 122:1 125:1 129:1 132:1 137:1 140:1 150:1 152:1 155:1 163:1 166:1 171:1 177:1 178:1 
-0 0.5919583086769747 5:1 7:1 15:1 17:1 19:1 30:1 31:1 34:1 38:1 41:1 43:1 46:1 49:1 52:1 56:1 62:1 64:1 69:1 72:1 74:1 77:1 81:1 85:1 88:1 93:1 96:1 97:1 100:1 103:1 108:1 111:1 113:1 126:1 127:1 130:1 135:1 138:1 141:1 144:1 146:1 148:1 153:1 159:1 162:1 166:1 169:1 173:1 
-0.1019895226202106 0.2114025659499622 1:1 7:1 11:1 14:1 21:1 25:1 30:1 36:1 44:1 46:1 57:1 60:1 62:1 64:1 75:1 76:1 81:1 90:1 99:1 100:1 104:1 110:1 123:1 126:1 128:1 131:1 133:1 136:1 142:1 150:1 153:1 155:1 159:1 169:1 175:1 
-0.3531133832228939 0 3:1 6:1 9:1 12:1 21:1 24:1 27:1 30:1 35:1 42:1 44:1 49:1 54:1 57:1 60:1 62:1 68:1 75:1 77:1 80:1 82:1 85:1 93:1 99:1 102:1 104:1 107:1 110:1 113:1 115:1 120:1 121:1 129:1 132:1 133:1 137:1 143:1 146:1 149:1 151:1 156:1 158:1 161:1 164:1 167:1 174:1 177:1 
-0 0.01619046120125245 3:1 4:1 7:1 10:1 15:1 16:1 19:1 22:1 27:1 28:1 33:1 34:1 37:1 40:1 45:1 46:1 49:1 52:1 57:1 58:1 61:1 64:1 69:1 70:1 73:1 76:1 81:1 82:1 85:1 88:1 93:1 94:1 97:1 100:1 105:1 106:1 109:1 112:1 117:1 118:1 121:1 124:1 129:1 130:1 133:1 136:1 141:1 142:1 145:1 148:1 153:1 154:1 157:1 160:1 165:1 166:1 169:1 172:1 177:1 178:1 
-0.06369782164343688 0.1178502620065238 6:1 7:1 11:1 13:1 20:1 23:1 25:1 29:1 32:1 35:1 37:1 42:1 43:1 48:1 50:1 55:1 58:1 65:1 67:1 71:1 74:1 76:1 80:1 83:1 85:1 93:1 95:1 102:1 105:1 106:1 109:1 112:1 115:1 118:1 123:1 124:1 128:1 130:1 134:1 136:1 141:1 144:1 150:1 151:1 154:1 159:1 161:1 168:1 169:1 174:1 175:1 178:1 
-0 0.1322584635671647 1:1 5:1 7:1 12:1 15:1 16:1 19:1 23:1 26:1 28:1 36:1 37:1 45:1 47:1 54:1 57:1 59:1 61:1 68:1 75:1 77:1 83:1 85:1 90:1 92:1 101:1 108:1 109:1 114:1 117:1 118:1 121:1 126:1 128:1 131:1 137:1 139:1 142:1 147:1 148:1 151:1 154:1 158:1 170:1 172:1 175:1 
-0.3203385924227364 0 3:1 6:1 10:1 13:1 18:1 19:1 24:1 25:1 28:1 31:1 37:1 42:1 48:1 57:1 58:1 73:1 78:1 81:1 84:1 85:1 90:1 91:1 94:1 100:1 103:1 107:1 113:1 115:1 120:1 122:1 124:1 127:1 138:1 141:1 142:1 149:1 156:1 159:1 163:1 171:1 177:1 
-0.06394752835182457 0 3:1 4:1 8:1 10:1 14:1 18:1 20:1 27:1 29:1 36:1 39:1 42:1 44:1 47:1 51:1 53:1 55:1 63:1 65:1 72:1 74:1 77:1 80:1 83:1 85:1 90:1 92:1 99:1 102:1 107:1 114:1 116:1 119:1 123:1 125:1 128:1 134:1 138:1 143:1 146:1 152:1 155:1 159:1 162:1 168:1 170:1 176:1 179:1 
-0.1290552734661515 0 2:1 4:1 8:1 15:1 18:1 19:1 24:1 30:1 32:1 38:1 40:1 44:1 46:1 51:1 56:1 62:1 65:1 72:1 75:1 78:1 79:1 84:1 85:1 90:1 93:1 94:1 99:1 101:1 103:1 107:1 110:1 112:1 116:1 119:1 122:1 125:1 127:1 132:1 133:1 137:1 139:1 148:1 152:1 159:1 162:1 169:1 175:1 180:1 
-0.1964048588415688 0 2:1 6:1 9:1 12:1 14:1 16:1 19:1 24:1 29:1 31:1 35:1 42:1 44:1 48:1 50:1 56:1 59:1 62:1 69:1 75:1 76:1 79:1 83:1 85:1 90:1 92:1 95:1 98:1 103:1 111:1 112:1 115:1 121:1 124:1 127:1 132:1 135:1 138:1 141:1 142:1 148:1 152:1 155:1 159:1 160:1 165:1 168:1 174:1 175:1 
-0.1716498709953466 0 2:1 4:1 7:1 21:1 23:1 26:1 29:1 32:1 34:1 39:1 40:1 43:1 50:1 58:1 62:1 65:1 69:1 72:1 74:1 79:1 83:1 85:1 92:1 99:1 102:1 106:1 110:1 112:1 115:1 118:1 123:1 126:1 129:1 131:1 133:1 136:1 139:1 147:1 148:1 153:1 156:1 159:1 160:1 164:1 167:1 173:1 178:1 
-0.1902567708632603 0 3:1 4:1 9:1 12:1 13:1 18:1 20:1 25:1 29:1 33:1 35:1 38:1 40:1 44:1 47:1 54:1 60:1 63:1 66:1 67:1 71:1 74:1 81:1 83:1 90:1 97:1 102:1 103:1 108:1 110:1 117:1 118:1 122:1 125:1 128:1 135:1 138:1 139:1 144:1 145:1 148:1 153:1 156:1 159:1 165:1 166:1 170:1 173:1 175:1 180:1 
-0.3360172333578774 0 3:1 4:1 7:1 12:1 15:1 17:1 27:1 28:1 33:1 36:1 38:1 41:1 48:1 51:1 52:1 57:1 69:1 70:1 75:1 76:1 80:1 83:1 85:1 90:1 92:1 95:1 102:1 105:1 107:1 110:1 112:1 115:1 119:1 121:1 127:1 130:1 134:1 136:1 139:1 144:1 145:1 149:1 152:1 158:1 160:1 167:1 173:1 
-0.02943021771943928 0 1:1 5:1 8:1 14:1 16:1 19:1 22:1 33:1 34:1 37:1 41:1 45:1 46:1 55:1 58:1 61:1 64:1 67:1 77:1 79:1 82:1 85:1 90:1 92:1 94:1 100:1 105:1 107:1 110:1 113:1 120:1 121:1 124:1 127:1 132:1 133:1 138:1 139:1 142:1 145:1 150:1 153:1 154:1 158:1 160:1 163:1 168:1 171:1 172:1 176:1 179:1 
-0.06003742874818206 0 3:1 5:1 8:1 12:1 14:1 23:1 26:1 32:1 34:1 41:1 44:1 51:1 54:1 56:1 58:1 62:1 64:1 68:1 74:1 80:1 89:1 91:1 95:1 97:1 102:1 104:1 107:1 111:1 112:1 115:1 120:1 121:1 124:1 129:1 132:1 134:1 137:1 139:1 144:1 153:1 157:1 165:1 168:1 169:1 173:1 176:1 180:1 
-0.1426773905320685 0 1:1 18:1 33:1 35:1 53:1 60:1 61:1 65:1 71:1 74:1 76:1 81:1 87:1 90:1 93:1 96:1 98:1 100:1 103:1 108:1 109:1 125:1 128:1 148:1 154:1 158:1 160:1 164:1 166:1 172:1 175:1 
-0 0.2044187279695662 6:1 7:1 11:1 13:1 16:1 19:1 22:1 26:1 29:1 31:1 34:1 39:1 40:1 47:1 57:1 60:1 63:1 66:1 74:1 84:1 87:1 90:1 93:1 94:1 97:1 100:1 104:1 111:1 112:1 116:1 118:1 126:1 128:1 135:1 136:1 147:1 150:1 168:1 172:1 176:1 178:1 
-0 0.1578004708025336 1:1 4:1 14:1 16:1 21:1 24:1 26:1 29:1 36:1 41:1 44:1 52:1 57:1 58:1 61:1 69:1 71:1 76:1 80:1 82:1 87:1 90:1 93:1 97:1 101:1 103:1 108:1 110:1 113:1 116:1 118:1 132:1 133:1 138:1 140:1 146:1 149:1 156:1 160:1 166:1 171:1 172:1 178:1 
-0 0.3269990043390378 3:1 4:1 8:1 10:1 13:1 16:1 30:1 36:1 38:1 43:1 47:1 50:1 53:1 60:1 63:1 68:1 76:1 80:1 83:1 90:1 93:1 96:1 97:1 101:1 103:1 107:1 110:1 117:1 120:1 123:1 126:1 127:1 131:1 133:1 137:1 144:1 145:1 148:1 152:1 159:1 162:1 168:1 170:1 177:1 178:1 
-0.5199373442714736 0 3:1 4:1 9:1 12:1 18:1 21:1 24:1 26:1 30:1 33:1 35:1 37:1 42:1 44:1 48:1 53:1 57:1 59:1 62:1 66:1 69:1 71:1 80:1 83:1 85:1 90:1 91:1 95:1 97:1 101:1 104:1 106:1 109:1 117:1 120:1 123:1 124:1 127:1 134:1 137:1 140:1 142:1 145:1 153:1 156:1 159:1 162:1 163:1 166:1 171:1 176:1 180:1 
-0.2195394592584558 0 3:1 4:1 9:1 11:1 17:1 19:1 40:1 43:1 46:1 49:1 52:1 59:1 62:1 64:1 67:1 81:1 85:1 89:1 91:1 100:1 105:1 106:1 110:1 115:1 118:1 121:1 125:1 129:1 135:1 136:1 139:1 142:1 151:1 158:1 164:1 172:1 
-0.08947721742821703 0 3:1 5:1 7:1 24:1 27:1 28:1 39:1 50:1 62:1 93:1 96:1 114:1 132:1 134:1 150:1 168:1 
-0 0.08181850814390175 2:1 8:1 15:1 16:1 23:1 29:1 31:1 34:1 39:1 42:1 43:1 46:1 51:1 52:1 55:1 58:1 63:1 64:1 67:1 71:1 73:1 78:1 79:1 84:1 86:1 93:1 95:1 97:1 102:1 105:1 111:1 112:1 117:1 118:1 121:1 126:1 132:1 138:1 140:1 144:1 146:1 149:1 155:1 157:1 160:1 163:1 170:1 172:1 176:1 179:1 
-0 0.4007210237689298 6:1 12:1 18:1 20:1 23:1 25:1 28:1 32:1 35:1 38:1 40:1 45:1 46:1 51:1 52:1 55:1 60:1 61:1 64:1 67:1 75:1 78:1 81:1 89:1 93:1 96:1 99:1 100:1 105:1 109:1 113:1 115:1 122:1 124:1 127:1 131:1 137:1 150:1 153:1 154:1 159:1 160:1 168:1 169:1 174:1 176:1 
-0.1946177158122677 0 1:1 6:1 8:1 11:1 14:1 16:1 21:1 23:1 30:1 42:1 47:1 53:1 56:1 59:1 61:1 77:1 83:1 88:1 92:1 101:1 106:1 109:1 112:1 115:1 121:1 125:1 127:1 140:1 149:1 151:1 155:1 160:1 163:1 168:1 174:1 175:1 180:1 
-0.5940152931231211 0 2:1 5:1 7:1 10:1 14:1 19:1 24:1 39:1 40:1 55:1 59:1 61:1 69:1 71:1 77:1 79:1 85:1 90:1 93:1 95:1 102:1 103:1 106:1 111:1 114:1 117:1 118:1 122:1 132:1 134:1 137:1 147:1 152:1 158:1 160:1 165:1 166:1 174:1 175:1 180:1 
-0 0.1767332710979438 3:1 5:1 8:1 11:1 13:1 18:1 20:1 25:1 28:1 48:1 49:1 52:1 55:1 58:1 62:1 64:1 69:1 72:1 75:1 80:1 92:1 97:1 105:1 114:1 116:1 119:1 122:1 124:1 129:1 132:1 134:1 141:1 144:1 149:1 155:1 157:1 160:1 163:1 167:1 173:1 176:1 
-0.2122571202642065 0 9:1 11:1 13:1 18:1 20:1 22:1 25:1 28:1 33:1 34:1 41:1 51:1 54:1 55:1 58:1 61:1 69:1 71:1 81:1 82:1 85:1 90:1 91:1 95:1 98:1 100:1 104:1 106:1 109:1 114:1 117:1 119:1 126:1 127:1 130:1 133:1 136:1 141:1 147:1 149:1 162:1 164:1 171:1 174:1 175:1 180:1 
-0.008891097530929528 0 1:1 8:1 10:1 13:1 19:1 22:1 27:1 29:1 35:1 38:1 43:1 48:1 53:1 56:1 58:1 63:1 64:1 68:1 72:1 74:1 77:1 79:1 87:1 90:1 93:1 98:1 100:1 113:1 115:1 119:1 121:1 126:1 127:1 132:1 135:1 136:1 141:1 144:1 145:1 149:1 151:1 154:1 159:1 162:1 164:1 169:1 173:1 178:1 
-0 0.2614818721692225 2:1 4:1 9:1 11:1 13:1 18:1 20:1 26:1 28:1 33:1 35:1 38:1 44:1 47:1 50:1 53:1 56:1 59:1 63:1 65:1 72:1 75:1 78:1 81:1 82:1 87:1 89:1 93:1 94:1 97:1 100:1 105:1 116:1 126:1 129:1 134:1 140:1 142:1 147:1 149:1 158:1 160:1 173:1 176:1 180:1 
-0 0.3226902227494182 1:1 4:1 9:1 10:1 13:1 21:1 23:1 31:1 35:1 37:1 40:1 46:1 49:1 52:1 56:1 62:1 68:1 71:1 77:1 80:1 82:1 87:1 90:1 93:1 98:1 107:1 110:1 117:1 120:1 121:1 128:1 130:1 134:1 136:1 139:1 143:1 147:1 149:1 152:1 155:1 161:1 164:1 167:1 170:1 174:1 175:1 179:1 
-0.04771115295667432 0 1:1 12:1 15:1 21:1 24:1 26:1 28:1 33:1 34:1 37:1 42:1 43:1 48:1 51:1 52:1 55:1 60:1 61:1 74:1 81:1 82:1 85:1 90:1 91:1 96:1 102:1 104:1 106:1 111:1 113:1 120:1 122:1 125:1 132:1 133:1 136:1 140:1 143:1 147:1 148:1 153:1 155:1 158:1 161:1 168:1 170:1 173:1 177:1 178:1 
-0.1238276831237977 0 2:1 5:1 7:1 10:1 13:1 18:1 21:1 23:1 27:1 30:1 33:1 34:1 37:1 42:1 43:1 51:1 54:1 60:1 63:1 66:1 68:1 70:1 75:1 77:1 80:1 83:1 85:1 90:1 91:1 95:1 97:1 101:1 104:1 108:1 117:1 120:1 123:1 124:1 132:1 133:1 136:1 140:1 145:1 149:1 153:1 156:1 158:1 160:1 165:1 167:1 172:1 176:1 178:1 
-0.1293373962653734 0 1:1 6:1 9:1 11:1 13:1 17:1 20:1 26:1 32:1 35:1 39:1 42:1 45:1 47:1 49:1 53:1 56:1 59:1 62:1 65:1 67:1 70:1 77:1 81:1 83:1 85:1 92:1 101:1 110:1 112:1 117:1 119:1 123:1 124:1 128:1 130:1 137:1 140:1 142:1 146:1 159:1 162:1 165:1 166:1 169:1 173:1 175:1 
-0 0.06088912522572516 2:1 9:1 10:1 14:1 16:1 21:1 22:1 25:1 33:1 34:1 37:1 41:1 44:1 51:1 53:1 55:1 60:1 61:1 65:1 68:1 71:1 78:1 80:1 84:1 86:1 90:1 93:1 95:1 100:1 104:1 109:1 113:1 115:1 118:1 122:1 125:1 127:1 132:1 133:1 138:1 140:1 144:1 145:1 150:1 153:1 155:1 158:1 160:1 165:1 171:1 172:1 177:1 
-0.05534063516814663 0.00348760161675715 1:1 9:1 11:1 20:1 22:1 25:1 28:1 33:1 36:1 38:1 47:1 52:1 57:1 60:1 62:1 65:1 68:1 70:1 77:1 80:1 83:1 87:1 90:1 93:1 94:1 97:1 102:1 108:1 115:1 118:1 126:1 127:1 132:1 134:1 141:1 147:1 150:1 151:1 155:1 162:1 165:1 173:1 175:1 179:1 
-0.7727420884444842 0 1:1 4:1 11:1 14:1 26:1 38:1 40:1 45:1 47:1 54:1 57:1 58:1 63:1 69:1 74:1 77:1 83:1 85:1 90:1 93:1 94:1 99:1 101:1 104:1 106:1 111:1 113:1 116:1 119:1 122:1 124:1 128:1 131:1 134:1 142:1 147:1 148:1 151:1 154:1 157:1 162:1 163:1 171:1 
-0.02528445432952164 0 1:1 5:1 8:1 15:1 18:1 23:1 26:1 32:1 35:1 42:1 45:1 47:1 50:1 53:1 56:1 59:1 62:1 69:1 72:1 77:1 83:1 87:1 90:1 96:1 99:1 102:1 103:1 106:1 110:1 123:1 125:1 132:1 134:1 140:1 142:1 147:1 151:1 159:1 160:1 168:1 171:1 172:1 175:1 178:1 
-0.07714007715521842 0.2935215314440343 1:1 6:1 9:1 10:1 15:1 16:1 21:1 22:1 25:1 28:1 37:1 40:1 43:1 46:1 58:1 67:1 82:1 85:1 90:1 93:1 101:1 109:1 112:1 118:1 124:1 128:1 130:1 133:1 136:1 140:1 145:1 150:1 154:1 160:1 169:1 176:1 178:1 
-0.1705940719179692 0.05176057418093497 3:1 5:1 15:1 17:1 19:1 23:1 26:1 28:1 38:1 40:1 45:1 47:1 52:1 55:1 60:1 61:1 66:1 69:1 70:1 75:1 78:1 79:1 83:1 85:1 90:1 91:1 98:1 100:1 108:1 109:1 113:1 115:1 119:1 126:1 127:1 130:1 135:1 137:1 141:1 147:1 148:1 156:1 157:1 162:1 163:1 167:1 171:1 173:1 179:1 
-0 0.01028202527170534 6:1 7:1 13:1 18:1 23:1 25:1 28:1 34:1 38:1 41:1 43:1 48:1 51:1 54:1 55:1 59:1 62:1 64:1 69:1 72:1 73:1 76:1 81:1 84:1 89:1 93:1 99:1 100:1 104:1 107:1 109:1 114:1 119:1 122:1 129:1 132:1 133:1 138:1 141:1 143:1 146:1 149:1 152:1 154:1 159:1 162:1 164:1 171:1 175:1 179:1 
-0 0.345645178869647 3:1 8:1 10:1 14:1 16:1 19:1 26:1 32:1 39:1 40:1 50:1 53:1 63:1 65:1 67:1 72:1 73:1 81:1 84:1 85:1 93:1 97:1 102:1 108:1 109:1 112:1 120:1 122:1 134:1 137:1 139:1 144:1 145:1 150:1 156:1 159:1 160:1 163:1 168:1 176:1 179:1 
-0.1303591743306919 -0 2:1 5:1 7:1 12:1 14:1 17:1 23:1 29:1 35:1 37:1 45:1 47:1 63:1 66:1 68:1 71:1 73:1 78:1 79:1 83:1 85:1 90:1 93:1 97:1 100:1 105:1 108:1 111:1 113:1 116:1 118:1 122:1 125:1 128:1 131:1 133:1 138:1 141:1 143:1 148:1 156:1 159:1 162:1 163:1 168:1 169:1 174:1 
-0 -0.0154470727455789 5:1 7:1 10:1 15:1 18:1 23:1 26:1 33:1 36:1 39:1 42:1 43:1 46:1 50:1 53:1 56:1 59:1 61:1 64:1 69:1 70:1 75:1 81:1 82:1 90:1 93:1 99:1 100:1 105:1 108:1 111:1 114:1 116:1 119:1 124:1 127:1 130:1 135:1 136:1 139:1 143:1 145:1 148:1 152:1 158:1 161:1 167:1 169:1 180:1 
-0.2464477704687331 -0 3:1 5:1 7:1 11:1 16:1 20:1 23:1 25:1 29:1 32:1 35:1 41:1 43:1 47:1 50:1 53:1 56:1 65:1 68:1 74:1 76:1 79:1 83:1 85:1 90:1 93:1 97:1 102:1 108:1 111:1 114:1 117:1 118:1 125:1 132:1 135:1 138:1 141:1 147:1 150:1 153:1 156:1 159:1 162:1 164:1 166:1 171:1 177:1 180:1 
-0.1505502348681296 -0 1:1 5:1 8:1 10:1 13:1 18:1 19:1 22:1 27:1 30:1 33:1 34:1 41:1 46:1 53:1 55:1 59:1 62:1 68:1 75:1 79:1 83:1 85:1 90:1 93:1 97:1 100:1 105:1 106:1 109:1 112:1 115:1 118:1 127:1 131:1 133:1 139:1 144:1 145:1 153:1 154:1 157:1 162:1 163:1 170:1 177:1 178:1 
-0 -0.183281546498297 1:1 5:1 9:1 11:1 13:1 18:1 20:1 26:1 28:1 35:1 41:1 44:1 46:1 49:1 53:1 55:1 63:1 66:1 67:1 71:1 73:1 84:1 85:1 89:1 93:1 99:1 101:1 105:1 106:1 110:1 113:1 116:1 119:1 122:1 124:1 129:1 132:1 133:1 137:1 140:1 142:1 145:1 150:1 153:1 156:1 158:1 165:1 168:1 171:1 174:1 176:1 
-0 -0.0006770581818004182 3:1 4:1 9:1 12:1 18:1 19:1 22:1 27:1 30:1 31:1 35:1 39:1 44:1 47:1 56:1 59:1 62:1 65:1 67:1 72:1 75:1 76:1 81:1 83:1 86:1 90:1 93:1 99:1 100:1 105:1 106:1 109:1 114:1 116:1 120:1 122:1 124:1 129:1 134:1 138:1 141:1 144:1 147:1 150:1 152:1 154:1 158:1 162:1 165:1 168:1 171:1 172:1 180:1 
-0.03602753734709958 -0 2:1 4:1 8:1 15:1 16:1 20:1 22:1 26:1 30:1 33:1 39:1 42:1 43:1 48:1 54:1 56:1 59:1 63:1 65:1 74:1 79:1 83:1 85:1 90:1 93:1 99:1 100:1 105:1 106:1 111:1 113:1 120:1 123:1 126:1 129:1 131:1 136:1 141:1 144:1 147:1 150:1 156:1 159:1 162:1 165:1 168:1 171:1 173:1 180:1 
-0 -0.02205780546079878 3:1 6:1 8:1 13:1 17:1 20:1 23:1 27:1 28:1 33:1 35:1 38:1 41:1 45:1 50:1 52:1 56:1 59:1 62:1 69:1 70:1 75:1 76:1 84:1 87:1 88:1 93:1 97:1 100:1 105:1 108:1 109:1 114:1 117:1 120:1 123:1 126:1 127:1 135:1 138:1 141:1 142:1 147:1 150:1 155:1 157:1 165:1 170:1 176:1 
-0.147044211761144 -0 3:1 4:1 12:1 14:1 17:1 19:1 22:1 25:1 29:1 32:1 34:1 39:1 42:1 47:1 49:1 52:1 62:1 65:1 68:1 78:1 81:1 83:1 85:1 90:1 93:1 97:1 101:1 112:1 118:1 122:1 129:1 130:1 138:1 141:1 147:1 153:1 158:1 160:1 163:1 166:1 169:1 173:1 180:1 
-0.0160867350561888 -0 3:1 4:1 9:1 12:1 13:1 18:1 20:1 25:1 30:1 31:1 35:1 37:1 40:1 45:1 49:1 53:1 60:1 63:1 68:1 74:1 76:1 81:1 83:1 85:1 90:1 93:1 99:1 101:1 105:1 111:1 112:1 117:1 120:1 123:1 126:1 127:1 132:1 135:1 138:1 141:1 142:1 150:1 153:1 155:1 162:1 164:1 167:1 169:1 172:1 177:1 180:1 
-0.05852954409807425 -0.02712086664157833 1:1 4:1 7:1 11:1 18:1 21:1 27:1 34:1 37:1 40:1 43:1 52:1 56:1 58:1 63:1 72:1 77:1 81:1 83:1 85:1 90:1 93:1 97:1 100:1 103:1 109:1 113:1 115:1 119:1 121:1 126:1 127:1 130:1 133:1 138:1 139:1 142:1 148:1 151:1 157:1 160:1 167:1 174:1 176:1 178:1 
-0 -0.2796907835218537 5:1 7:1 10:1 15:1 18:1 23:1 26:1 33:1 36:1 39:1 42:1 43:1 46:1 50:1 53:1 56:1 59:1 61:1 64:1 69:1 70:1 75:1 81:1 82:1 90:1 93:1 99:1 100:1 105:1 108:1 111:1 114:1 116:1 119:1 124:1 127:1 130:1 135:1 136:1 139:1 143:1 145:1 148:1 152:1 158:1 161:1 167:1 169:1 180:1 
-0.1212618625393709 -0 2:1 4:1 7:1 11:1 14:1 21:1 24:1 26:1 29:1 31:1 39:1 42:1 45:1 47:1 51:1 57:1 58:1 61:1 65:1 68:1 74:1 76:1 80:1 83:1 85:1 90:1 93:1 99:1 100:1 105:1 107:1 110:1 116:1 120:1 122:1 126:1 128:1 131:1 134:1 137:1 141:1 144:1 147:1 148:1 151:1 156:1 158:1 161:1 165:1 167:1 170:1 173:1 176:1 180:1 
-0.2426110587630811 -0 1:1 9:1 10:1 14:1 17:1 19:1 24:1 27:1 29:1 33:1 36:1 39:1 42:1 43:1 48:1 49:1 53:1 55:1 60:1 62:1 65:1 68:1 71:1 78:1 81:1 83:1 85:1 90:1 93:1 99:1 102:1 105:1 106:1 111:1 114:1 116:1 120:1 121:1 126:1 129:1 131:1 133:1 138:1 140:1 142:1 146:1 149:1 153:1 156:1 158:1 164:1 168:1 173:1 175:1 179:1 
-0 -0.135225260107678 4:1 10:1 14:1 17:1 19:1 22:1 27:1 28:1 33:1 36:1 38:1 44:1 48:1 51:1 53:1 55:1 59:1 61:1 66:1 67:1 72:1 73:1 76:1 81:1 84:1 85:1 90:1 93:1 97:1 102:1 104:1 110:1 113:1 115:1 119:1 122:1 129:1 131:1 134:1 143:1 146:1 149:1 156:1 158:1 160:1 165:1 168:1 170:1 173:1 177:1 180:1 
-0.1215563424027915 -0 3:1 6:1 9:1 11:1 18:1 20:1 24:1 33:1 35:1 42:1 45:1 50:1 52:1 56:1 58:1 68:1 71:1 78:1 81:1 83:1 85:1 90:1 93:1 97:1 105:1 108:1 111:1 114:1 117:1 119:1 123:1 126:1 129:1 132:1 134:1 144:1 146:1 152:1 156:1 159:1 167:1 170:1 173:1 176:1 179:1 
-0.1657591448365449 -0 3:1 9:1 14:1 21:1 23:1 26:1 29:1 33:1 34:1 38:1 40:1 45:1 48:1 51:1 52:1 57:1 58:1 62:1 66:1 69:1 71:1 73:1 78:1 80:1 83:1 85:1 90:1 93:1 99:1 102:1 105:1 107:1 110:1 112:1 116:1 119:1 121:1 126:1 127:1 135:1 137:1 147:1 154:1 159:1 161:1 168:1 169:1 174:1 177:1 180:1 
-0 -0.1688807914350032 1:1 8:1 12:1 14:1 18:1 26:1 29:1 37:1 40:1 45:1 46:1 49:1 52:1 57:1 63:1 65:1 67:1 75:1 76:1 79:1 84:1 85:1 90:1 93:1 97:1 103:1 107:1 117:1 120:1 122:1 125:1 128:1 131:1 137:1 146:1 149:1 156:1 159:1 162:1 165:1 170:1 172:1 176:1 
-0 -0.4912515591738266 5:1 8:1 10:1 13:1 17:1 19:1 24:1 27:1 30:1 31:1 36:1 39:1 40:1 43:1 46:1 50:1 52:1 56:1 58:1 61:1 65:1 67:1 72:1 73:1 76:1 79:1 86:1 89:1 93:1 99:1 100:1 105:1 111:1 114:1 115:1 123:1 125:1 128:1 138:1 139:1 143:1 146:1 149:1 152:1 154:1 159:1 162:1 164:1 168:1 171:1 174:1 177:1 178:1 
-0.1124436617504734 -0.08936166912861039 3:1 4:1 11:1 14:1 17:1 20:1 24:1 27:1 29:1 32:1 39:1 41:1 44:1 51:1 54:1 57:1 59:1 62:1 69:1 72:1 75:1 77:1 80:1 90:1 93:1 99:1 102:1 105:1 117:1 120:1 135:1 138:1 149:1 152:1 161:1 167:1 174:1 179:1 
-0.03456154191672104 -0 8:1 13:1 17:1 26:1 28:1 33:1 36:1 38:1 40:1 45:1 51:1 56:1 60:1 66:1 69:1 72:1 74:1 76:1 83:1 85:1 90:1 93:1 99:1 100:1 105:1 111:1 112:1 117:1 122:1 124:1 127:1 132:1 135:1 137:1 139:1 144:1 150:1 153:1 156:1 159:1 160:1 165:1 168:1 172:1 177:1 179:1 
-0.3334166906258111 -0.2665207546878158 2:1 4:1 9:1 10:1 13:1 16:1 19:1 23:1 26:1 28:1 33:1 34:1 37:1 42:1 47:1 50:1 57:1 63:1 64:1 67:1 71:1 74:1 76:1 81:1 83:1 85:1 90:1 93:1 98:1 100:1 106:1 109:1 116:1 123:1 124:1 127:1 133:1 136:1 141:1 142:1 163:1 166:1 169:1 174:1 175:1 178:1 
-0.1222385300728974 -0.1001516652409777 1:1 5:1 8:1 10:1 17:1 20:1 22:1 27:1 28:1 31:1 39:1 40:1 44:1 46:1 53:1 55:1 63:1 70:1 81:1 83:1 85:1 90:1 93:1 97:1 101:1 104:1 106:1 110:1 113:1 118:1 122:1 125:1 132:1 135:1 137:1 140:1 143:1 149:1 156:1 159:1 161:1 167:1 170:1 179:1 
-0 -0.0902453577998056 6:1 9:1 15:1 18:1 24:1 27:1 35:1 42:1 47:1 51:1 52:1 59:1 63:1 68:1 78:1 81:1 82:1 85:1 90:1 93:1 97:1 100:1 103:1 106:1 111:1 117:1 120:1 123:1 124:1 132:1 135:1 138:1 139:1 144:1 145:1 148:1 159:1 162:1 165:1 168:1 169:1 174:1 
-0 -0.03407645496406563 8:1 13:1 21:1 22:1 27:1 28:1 31:1 34:1 38:1 42:1 48:1 51:1 53:1 55:1 66:1 72:1 74:1 78:1 80:1 82:1 85:1 90:1 93:1 99:1 102:1 105:1 107:1 110:1 113:1 116:1 120:1 122:1 126:1 129:1 132:1 133:1 137:1 141:1 144:1 147:1 150:1 152:1 154:1 159:1 161:1 167:1 170:1 174:1 177:1 180:1 
-0 -0.1500333095847193 2:1 5:1 15:1 17:1 23:1 26:1 33:1 35:1 38:1 42:1 44:1 51:1 54:1 56:1 59:1 69:1 71:1 78:1 80:1 86:1 89:1 93:1 99:1 100:1 105:1 117:1 118:1 123:1 124:1 128:1 132:1 134:1 137:1 140:1 144:1 147:1 150:1 151:1 154:1 159:1 162:1 164:1 166:1 171:1 174:1 177:1 180:1 
-0 -0.1897463253439201 3:1 6:1 7:1 10:1 15:1 16:1 21:1 24:1 26:1 33:1 36:1 37:1 42:1 45:1 47:1 51:1 52:1 55:1 60:1 62:1 65:1 75:1 78:1 81:1 83:1 85:1 90:1 93:1 97:1 100:1 103:1 107:1 109:1 120:1 131:1 137:1 141:1 142:1 150:1 152:1 154:1 162:1 165:1 168:1 169:1 172:1 178:1 
-0 -0.01917747252818423 1:1 6:1 9:1 11:1 18:1 20:1 24:1 27:1 29:1 31:1 36:1 39:1 40:1 43:1 46:1 49:1 53:1 55:1 63:1 65:1 67:1 71:1 80:1 84:1 85:1 90:1 93:1 97:1 100:1 105:1 107:1 111:1 114:1 117:1 119:1 122:1 124:1 129:1 132:1 135:1 136:1 141:1 147:1 150:1 153:1 156:1 157:1 162:1 165:1 166:1 169:1 173:1 176:1 178:1 
-0.03976676770033844 -0 1:1 9:1 12:1 17:1 23:1 25:1 28:1 31:1 36:1 39:1 40:1 45:1 46:1 50:1 53:1 60:1 63:1 66:1 68:1 71:1 74:1 80:1 83:1 85:1 90:1 93:1 97:1 101:1 108:1 114:1 116:1 123:1 125:1 127:1 132:1 133:1 137:1 140:1 143:1 146:1 148:1 152:1 155:1 158:1 164:1 166:1 171:1 173:1 180:1 
-0.03156382224775222 -0.01420366498642657 6:1 12:1 15:1 16:1 21:1 23:1 25:1 30:1 35:1 44:1 48:1 59:1 63:1 65:1 68:1 71:1 73:1 78:1 80:1 83:1 85:1 90:1 93:1 102:1 105:1 111:1 117:1 119:1 121:1 126:1 129:1 130:1 137:1 140:1 143:1 150:1 156:1 161:1 164:1 167:1 171:1 173:1 176:1 179:1 
-0.3366976943288224 -0 1:1 5:1 8:1 10:1 26:1 28:1 33:1 34:1 39:1 42:1 43:1 49:1 53:1 56:1 62:1 64:1 71:1 74:1 77:1 80:1 82:1 85:1 90:1 93:1 100:1 103:1 108:1 110:1 112:1 115:1 123:1 124:1 129:1 131:1 134:1 141:1 143:1 145:1 150:1 152:1 154:1 158:1 160:1 164:1 166:1 171:1 173:1 175:1 
-0 -0.1675961940815484 4:1 9:1 10:1 16:1 20:1 22:1 29:1 31:1 34:1 38:1 40:1 48:1 50:1 57:1 58:1 62:1 65:1 67:1 72:1 75:1 77:1 80:1 85:1 90:1 93:1 99:1 105:1 111:1 113:1 116:1 118:1 122:1 124:1 129:1 138:1 141:1 144:1 147:1 148:1 153:1 154:1 159:1 160:1 165:1 166:1 173:1 176:1 179:1 
-0 -0.2212987378526746 2:1 4:1 8:1 11:1 13:1 16:1 21:1 29:1 32:1 39:1 42:1 43:1 46:1 49:1 52:1 60:1 61:1 64:1 69:1 70:1 74:1 76:1 81:1 82:1 85:1 90:1 93:1 99:1 100:1 110:1 113:1 116:1 119:1 121:1 124:1 128:1 131:1 138:1 139:1 144:1 147:1 150:1 156:1 157:1 161:1 164:1 166:1 169:1 174:1 175:1 178:1 
-0.2418080809941444 -0.1548725431925203 8:1 11:1 13:1 17:1 20:1 25:1 29:1 35:1 37:1 42:1 44:1 46:1 50:1 56:1 59:1 62:1 69:1 72:1 74:1 80:1 83:1 85:1 90:1 93:1 99:1 100:1 103:1 108:1 110:1 113:1 115:1 119:1 131:1 134:1 140:1 152:1 154:1 161:1 163:1 168:1 173:1 175:1 
-0.02112909409758449 -0.03254658386727823 3:1 5:1 8:1 12:1 18:1 21:1 45:1 47:1 56:1 58:1 62:1 65:1 67:1 71:1 74:1 77:1 84:1 85:1 90:1 93:1 99:1 101:1 105:1 110:1 113:1 120:1 123:1 126:1 129:1 130:1 134:1 136:1 139:1 144:1 146:1 148:1 151:1 154:1 157:1 162:1 165:1 167:1 173:1 176:1 
-0.006584472269969477 -0.24577373695874 1:1 5:1 8:1 10:1 15:1 24:1 29:1 35:1 42:1 54:1 57:1 60:1 62:1 64:1 74:1 77:1 80:1 86:1 93:1 97:1 100:1 105:1 109:1 115:1 120:1 126:1 127:1 130:1 133:1 139:1 142:1 146:1 148:1 154:1 157:1 165:1 174:1 175:1 179:1 
-0 -0.3234727392263938 2:1 4:1 9:1 12:1 13:1 16:1 20:1 22:1 27:1 30:1 31:1 34:1 39:1 44:1 51:1 53:1 66:1 68:1 75:1 76:1 79:1 84:1 85:1 90:1 93:1 97:1 101:1 103:1 111:1 113:1 115:1 120:1 122:1 128:1 130:1 143:1 145:1 151:1 155:1 161:1 163:1 166:1 169:1 172:1 178:1 
-0.01718614052694315 -0 2:1 5:1 8:1 10:1 14:1 18:1 21:1 24:1 27:1 30:1 32:1 35:1 39:1 41:1 43:1 50:1 54:1 55:1 59:1 64:1 68:1 70:1 77:1 81:1 83:1 85:1 90:1 93:1 95:1 99:1 100:1 105:1 111:1 113:1 116:1 118:1 123:1 129:1 132:1 134:1 137:1 141:1 143:1 145:1 152:1 157:1 162:1 165:1 168:1 170:1 174:1 176:1 
-0.05673028162178669 -0 3:1 5:1 11:1 18:1 19:1 27:1 28:1 33:1 38:1 44:1 50:1 52:1 59:1 63:1 65:1 75:1 79:1 82:1 85:1 90:1 93:1 98:1 100:1 105:1 106:1 116:1 123:1 126:1 129:1 130:1 135:1 137:1 144:1 145:1 148:1 153:1 159:1 162:1 167:1 171:1 174:1 177:1 180:1 
-0 -0.6577645496801717 1:1 6:1 7:1 10:1 14:1 18:1 21:1 24:1 25:1 28:1 33:1 36:1 37:1 42:1 43:1 48:1 50:1 53:1 60:1 62:1 64:1 69:1 71:1 75:1 77:1 81:1 83:1 87:1 90:1 93:1 97:1 101:1 104:1 106:1 111:1 114:1 117:1 120:1 122:1 124:1 129:1 135:1 138:1 141:1 144:1 145:1 150:1 152:1 155:1 164:1 167:1 170:1 173:1 175:1 
-0 -0.3232430694254797 1:1 4:1 7:1 10:1 14:1 19:1 27:1 28:1 32:1 34:1 37:1 42:1 50:1 52:1 60:1 63:1 64:1 67:1 70:1 73:1 76:1 79:1 87:1 90:1 93:1 97:1 100:1 103:1 108:1 109:1 113:1 124:1 137:1 150:1 156:1 159:1 161:1 167:1 169:1 179:1 
-0.08940489740736193 -0 5:1 12:1 23:1 32:1 38:1 41:1 43:1 47:1 50:1 52:1 55:1 59:1 66:1 72:1 81:1 82:1 85:1 90:1 93:1 99:1 100:1 105:1 106:1 109:1 114:1 116:1 119:1 121:1 126:1 129:1 131:1 138:1 140:1 143:1 146:1 149:1 152:1 159:1 163:1 168:1 171:1 172:1 175:1 178:1 
-0.389996752651944 -0 6:1 9:1 11:1 13:1 18:1 19:1 23:1 27:1 30:1 33:1 36:1 42:1 47:1 50:1 57:1 59:1 61:1 65:1 67:1 71:1 74:1 77:1 79:1 83:1 85:1 90:1 93:1 99:1 100:1 104:1 107:1 109:1 114:1 117:1 119:1 128:1 130:1 138:1 143:1 146:1 149:1 151:1 156:1 161:1 164:1 167:1 169:1 174:1 175:1 
-0 -0.08512871352671612 3:1 4:1 8:1 11:1 17:1 21:1 27:1 36:1 39:1 40:1 44:1 47:1 51:1 52:1 55:1 65:1 69:1 71:1 73:1 76:1 81:1 83:1 90:1 93:1 97:1 105:1 116:1 131:1 133:1 136:1 141:1 142:1 145:1 151:1 154:1 157:1 162:1 166:1 169:1 172:1 
-0 -0.1552325047616233 2:1 9:1 10:1 16:1 27:1 29:1 36:1 37:1 41:1 43:1 54:1 55:1 58:1 61:1 65:1 67:1 76:1 79:1 82:1 85:1 90:1 93:1 97:1 100:1 103:1 108:1 109:1 112:1 125:1 128:1 133:1 146:1 153:1 156:1 159:1 160:1 163:1 166:1 171:1 
-0.3185725200575578 -1 5:1 7:1 14:1 17:1 23:1 26:1 32:1 35:1 38:1 45:1 46:1 51:1 56:1 59:1 65:1 71:1 78:1 80:1 82:1 87:1 90:1 93:1 96:1 98:1 101:1 103:1 107:1 109:1 113:1 116:1 118:1 123:1 126:1 127:1 132:1 134:1 137:1 142:1 147:1 149:1 155:1 158:1 168:1 173:1 176:1 
-0.4475132469514374 -0.01990259542125453 6:1 9:1 12:1 14:1 17:1 20:1 27:1 28:1 33:1 34:1 38:1 41:1 48:1 56:1 62:1 65:1 68:1 71:1 73:1 77:1 80:1 83:1 85:1 90:1 93:1 99:1 101:1 103:1 108:1 111:1 112:1 117:1 119:1 123:1 126:1 129:1 130:1 134:1 136:1 141:1 144:1 147:1 149:1 151:1 155:1 161:1 163:1 168:1 170:1 176:1 178:1 
-0 -0.08737724630771035 2:1 5:1 8:1 11:1 13:1 17:1 21:1 22:1 25:1 30:1 36:1 45:1 48:1 49:1 55:1 61:1 64:1 69:1 71:1 74:1 76:1 81:1 82:1 86:1 93:1 97:1 100:1 105:1 111:1 112:1 115:1 124:1 128:1 153:1 158:1 160:1 163:1 170:1 172:1 
-0 -0.01808949491517786 3:1 4:1 9:1 12:1 18:1 19:1 22:1 27:1 30:1 31:1 35:1 39:1 44:1 47:1 56:1 59:1 62:1 65:1 67:1 72:1 75:1 76:1 81:1 83:1 86:1 90:1 93:1 99:1 100:1 105:1 106:1 109:1 114:1 116:1 120:1 122:1 124:1 129:1 134:1 138:1 141:1 144:1 147:1 150:1 152:1 154:1 158:1 162:1 165:1 168:1 171:1 172:1 180:1 
-0.01611656469689105 -0 3:1 9:1 14:1 17:1 19:1 22:1 26:1 30:1 32:1 34:1 39:1 40:1 44:1 47:1 54:1 55:1 63:1 66:1 67:1 80:1 82:1 85:1 90:1 93:1 97:1 102:1 105:1 108:1 110:1 113:1 115:1 120:1 123:1 124:1 127:1 130:1 135:1 137:1 141:1 144:1 147:1 153:1 155:1 157:1 162:1 167:1 174:1 177:1 180:1 
-0.06617705903052901 -0.3586423618895475 3:1 9:1 11:1 18:1 20:1 33:1 36:1 39:1 40:1 45:1 55:1 58:1 61:1 70:1 74:1 83:1 85:1 90:1 93:1 97:1 100:1 104:1 106:1 109:1 112:1 115:1 119:1 121:1 131:1 133:1 138:1 139:1 143:1 145:1 148:1 153:1 155:1 158:1 165:1 166:1 169:1 175:1 179:1 
-0 -0.001809133974223054 5:1 7:1 15:1 16:1 20:1 22:1 25:1 33:1 34:1 37:1 42:1 43:1 48:1 49:1 53:1 55:1 75:1 76:1 79:1 82:1 85:1 88:1 93:1 97:1 100:1 105:1 109:1 112:1 119:1 121:1 126:1 127:1 135:1 145:1 151:1 156:1 164:1 166:1 169:1 172:1 175:1 
-0.07938645310648189 -0 2:1 4:1 9:1 11:1 13:1 18:1 21:1 22:1 26:1 28:1 35:1 37:1 40:1 45:1 53:1 63:1 65:1 68:1 72:1 80:1 82:1 85:1 90:1 93:1 101:1 105:1 106:1 110:1 113:1 117:1 120:1 134:1 137:1 143:1 145:1 152:1 155:1 157:1 162:1 169:1 174:1 175:1 180:1 
-0.3506396739918121 -0.06886376359017138 3:1 5:1 12:1 13:1 19:1 22:1 25:1 30:1 32:1 39:1 41:1 44:1 51:1 53:1 56:1 63:1 72:1 74:1 77:1 79:1 82:1 85:1 90:1 93:1 97:1 106:1 114:1 116:1 118:1 121:1 124:1 127:1 132:1 133:1 136:1 142:1 147:1 148:1 151:1 154:1 157:1 160:1 163:1 166:1 171:1 172:1 177:1 
-0.1247045588352606 -0 3:1 6:1 8:1 11:1 15:1 17:1 19:1 22:1 25:1 31:1 35:1 38:1 40:1 43:1 48:1 54:1 57:1 58:1 62:1 65:1 72:1 77:1 80:1 82:1 85:1 90:1 93:1 99:1 100:1 105:1 111:1 114:1 115:1 120:1 123:1 126:1 129:1 131:1 140:1 145:1 150:1 153:1 156:1 157:1 160:1 165:1 168:1 169:1 172:1 176:1 178:1 
-0.05696221588214064 -1 3:1 4:1 11:1 13:1 16:1 19:1 22:1 25:1 28:1 32:1 35:1 37:1 40:1 46:1 49:1 52:1 57:1 58:1 66:1 70:1 77:1 83:1 88:1 92:1 94:1 97:1 101:1 105:1 108:1 110:1 117:1 120:1 126:1 129:1 130:1 135:1 141:1 144:1 148:1 153:1 154:1 159:1 165:1 168:1 169:1 172:1 175:1 180:1 
-0.07644267900081349 -0 2:1 5:1 17:1 23:1 26:1 31:1 35:1 38:1 41:1 43:1 47:1 54:1 57:1 60:1 63:1 65:1 72:1 73:1 78:1 81:1 83:1 85:1 90:1 93:1 99:1 100:1 105:1 111:1 112:1 116:1 119:1 121:1 128:1 131:1 134:1 137:1 139:1 143:1 146:1 149:1 155:1 157:1 162:1 163:1 168:1 171:1 173:1 176:1 
-0.06952522121663084 -0.1985524914352099 2:1 4:1 9:1 12:1 15:1 16:1 20:1 26:1 28:1 33:1 36:1 38:1 40:1 45:1 46:1 49:1 59:1 61:1 64:1 71:1 77:1 80:1 84:1 85:1 90:1 93:1 97:1 102:1 103:1 116:1 119:1 125:1 129:1 132:1 133:1 138:1 143:1 148:1 167:1 170:1 173:1 175:1 179:1 
-0 -0.1720795284856461 8:1 10:1 13:1 18:1 19:1 23:1 26:1 28:1 39:1 40:1 45:1 48:1 49:1 53:1 56:1 63:1 64:1 69:1 72:1 73:1 76:1 80:1 82:1 85:1 90:1 93:1 99:1 102:1 105:1 111:1 112:1 115:1 123:1 126:1 129:1 131:1 133:1 138:1 140:1 142:1 147:1 148:1 151:1 156:1 159:1 161:1 163:1 167:1 170:1 172:1 
-0.1410820522334885 -0 3:1 6:1 8:1 13:1 17:1 19:1 24:1 26:1 32:1 38:1 41:1 44:1 51:1 54:1 57:1 59:1 61:1 68:1 70:1 77:1 80:1 83:1 85:1 90:1 93:1 97:1 100:1 108:1 109:1 114:1 117:1 119:1 125:1 128:1 131:1 134:1 137:1 139:1 144:1 146:1 153:1 155:1 158:1 161:1 164:1 169:1 173:1 175:1 180:1 
-0.2054937720098332 -0 1:1 11:1 14:1 26:1 28:1 31:1 35:1 41:1 46:1 50:1 53:1 55:1 58:1 62:1 64:1 67:1 72:1 76:1 80:1 83:1 85:1 90:1 93:1 98:1 105:1 107:1 117:1 120:1 123:1 132:1 134:1 137:1 139:1 144:1 147:1 148:1 152:1 154:1 159:1 160:1 165:1 168:1 169:1 172:1 177:1 178:1 
-0.1357707641189618 -0 5:1 8:1 12:1 14:1 16:1 23:1 25:1 29:1 36:1 37:1 41:1 43:1 46:1 50:1 52:1 60:1 68:1 75:1 81:1 83:1 90:1 93:1 95:1 97:1 100:1 105:1 110:1 117:1 123:1 125:1 127:1 132:1 135:1 138:1 140:1 144:1 147:1 150:1 152:1 159:1 160:1 165:1 168:1 171:1 172:1 175:1 179:1 
-0 -0.2988163093101253 2:1 9:1 12:1 18:1 20:1 22:1 27:1 30:1 31:1 34:1 42:1 45:1 47:1 54:1 57:1 59:1 61:1 64:1 67:1 72:1 74:1 76:1 80:1 83:1 85:1 90:1 93:1 99:1 100:1 108:1 111:1 114:1 117:1 120:1 122:1 129:1 132:1 138:1 141:1 144:1 150:1 156:1 159:1 162:1 163:1 168:1 171:1 173:1 175:1 179:1 
-0.1976672664766693 -0 1:1 5:1 7:1 12:1 13:1 18:1 21:1 22:1 27:1 30:1 32:1 34:1 38:1 41:1 44:1 47:1 54:1 55:1 58:1 63:1 65:1 71:1 77:1 80:1 82:1 85:1 90:1 93:1 99:1 100:1 105:1 106:1 113:1 115:1 119:1 122:1 125:1 132:1 133:1 137:1 141:1 142:1 146:1 149:1 159:1 168:1 170:1 172:1 176:1 179:1 
-0.002107002291815532 -0 3:1 5:1 8:1 11:1 13:1 21:1 29:1 34:1 38:1 41:1 43:1 47:1 50:1 60:1 63:1 65:1 68:1 70:1 74:1 83:1 85:1 90:1 93:1 99:1 100:1 105:1 111:1 114:1 115:1 120:1 123:1 126:1 128:1 132:1 135:1 138:1 140:1 142:1 146:1 149:1 152:1 155:1 158:1 160:1 170:1 173:1 175:1 
-0 -0.07681360189362775 2:1 9:1 12:1 13:1 21:1 22:1 27:1 29:1 36:1 37:1 40:1 45:1 46:1 49:1 54:1 57:1 58:1 63:1 66:1 72:1 75:1 77:1 79:1 82:1 90:1 93:1 99:1 100:1 105:1 108:1 111:1 112:1 115:1 119:1 126:1 128:1 135:1 138:1 141:1 143:1 146:1 148:1 156:1 159:1 160:1 165:1 168:1 169:1 174:1 177:1 180:1 
-0 -0.001827969007367327 6:1 9:1 12:1 15:1 18:1 24:1 29:1 36:1 39:1 42:1 44:1 49:1 53:1 55:1 60:1 61:1 64:1 69:1 75:1 76:1 83:1 85:1 90:1 93:1 97:1 100:1 108:1 110:1 112:1 116:1 118:1 128:1 131:1 138:1 139:1 147:1 156:1 158:1 161:1 163:1 168:1 171:1 172:1 175:1 
-0 -0.01497501327853957 3:1 6:1 8:1 14:1 16:1 23:1 25:1 30:1 32:1 34:1 42:1 45:1 47:1 50:1 55:1 59:1 63:1 66:1 67:1 71:1 73:1 78:1 79:1 86:1 90:1 93:1 99:1 101:1 105:1 107:1 110:1 112:1 115:1 120:1 122:1 125:1 128:1 131:1 135:1 138:1 141:1 143:1 146:1 152:1 156:1 159:1 162:1 163:1 168:1 171:1 174:1 175:1 178:1 
-0 -0.08205915313331778 1:1 9:1 10:1 15:1 20:1 23:1 25:1 28:1 33:1 34:1 37:1 42:1 44:1 50:1 53:1 63:1 68:1 70:1 75:1 78:1 80:1 90:1 93:1 97:1 105:1 108:1 111:1 113:1 120:1 123:1 124:1 129:1 131:1 134:1 136:1 141:1 144:1 146:1 148:1 153:1 154:1 157:1 162:1 165:1 168:1 171:1 174:1 176:1 
-0.05898811103256989 -0 3:1 6:1 9:1 11:1 13:1 17:1 19:1 24:1 30:1 32:1 35:1 37:1 41:1 47:1 49:1 54:1 60:1 62:1 65:1 72:1 77:1 79:1 82:1 85:1 88:1 93:1 97:1 105:1 111:1 113:1 120:1 121:1 126:1 129:1 131:1 138:1 141:1 142:1 145:1 150:1 153:1 159:1 162:1 168:1 170:1 172:1 180:1 
-0.103348326490376 -0 2:1 8:1 12:1 14:1 18:1 23:1 27:1 29:1 31:1 45:1 48:1 50:1 53:1 57:1 59:1 62:1 68:1 71:1 74:1 79:1 83:1 86:1 90:1 93:1 99:1 100:1 105:1 113:1 119:1 125:1 128:1 130:1 135:1 138:1 139:1 144:1 146:1 149:1 152:1 159:1 162:1 165:1 169:1 173:1 
-0 -0.326816656790877 2:1 9:1 10:1 15:1 18:1 19:1 29:1 32:1 39:1 47:1 50:1 57:1 61:1 65:1 67:1 73:1 76:1 79:1 82:1 85:1 93:1 97:1 100:1 105:1 112:1 115:1 118:1 127:1 135:1 136:1 146:1 148:1 153:1 157:1 160:1 163:1 166:1 174:1 175:1 
-0 -0.02801620921060724 2:1 4:1 12:1 13:1 17:1 20:1 33:1 34:1 38:1 41:1 47:1 49:1 53:1 56:1 58:1 61:1 66:1 67:1 74:1 76:1 80:1 82:1 85:1 88:1 93:1 97:1 105:1 108:1 111:1 114:1 123:1 126:1 128:1 131:1 136:1 141:1 143:1 146:1 149:1 159:1 160:1 164:1 167:1 170:1 172:1 177:1 
-0 -0.0723775285998047 6:1 8:1 15:1 16:1 20:1 23:1 33:1 36:1 38:1 41:1 45:1 51:1 53:1 59:1 68:1 71:1 78:1 79:1 83:1 87:1 90:1 93:1 97:1 102:1 105:1 111:1 116:1 119:1 122:1 125:1 130:1 133:1 137:1 140:1 145:1 150:1 153:1 154:1 159:1 161:1 164:1 166:1 169:1 173:1 176:1 178:1 
-0 -0.04227828687985641 2:1 8:1 12:1 15:1 16:1 24:1 26:1 28:1 33:1 34:1 39:1 40:1 47:1 51:1 54:1 56:1 58:1 66:1 71:1 73:1 77:1 80:1 90:1 93:1 99:1 105:1 110:1 113:1 120:1 123:1 124:1 129:1 131:1 134:1 137:1 144:1 146:1 150:1 152:1 157:1 161:1 164:1 166:1 176:1 178:1 
-0 -0.3607839094825213 2:1 5:1 8:1 15:1 16:1 20:1 23:1 29:1 31:1 36:1 38:1 43:1 47:1 49:1 56:1 60:1 66:1 68:1 72:1 73:1 78:1 80:1 85:1 90:1 93:1 97:1 101:1 103:1 107:1 111:1 114:1 117:1 119:1 126:1 128:1 131:1 134:1 136:1 144:1 147:1 150:1 153:1 159:1 162:1 168:1 170:1 177:1 180:1 
-0 -0.02510616400652857 6:1 13:1 17:1 20:1 26:1 28:1 32:1 35:1 44:1 48:1 51:1 52:1 57:1 58:1 62:1 64:1 67:1 72:1 73:1 80:1 82:1 85:1 90:1 93:1 99:1 101:1 104:1 110:1 112:1 116:1 118:1 123:1 125:1 128:1 131:1 134:1 140:1 142:1 147:1 150:1 152:1 155:1 158:1 160:1 164:1 167:1 170:1 173:1 176:1 178:1 
-0.2261239141451734 -0 2:1 5:1 7:1 10:1 18:1 21:1 22:1 25:1 30:1 32:1 34:1 39:1 41:1 48:1 51:1 53:1 62:1 64:1 68:1 75:1 77:1 83:1 85:1 90:1 93:1 97:1 100:1 104:1 106:1 109:1 121:1 124:1 127:1 132:1 136:1 139:1 143:1 145:1 154:1 157:1 161:1 169:1 180:1 
-0.1775553006972999 -0 2:1 9:1 10:1 15:1 17:1 21:1 27:1 30:1 32:1 37:1 41:1 47:1 50:1 59:1 63:1 69:1 70:1 74:1 77:1 79:1 83:1 85:1 90:1 93:1 99:1 101:1 105:1 107:1 111:1 114:1 116:1 120:1 122:1 125:1 128:1 131:1 138:1 140:1 142:1 146:1 149:1 152:1 156:1 159:1 162:1 164:1 168:1 171:1 172:1 177:1 180:1 
-0 -0.1540456615901904 4:1 9:1 11:1 17:1 20:1 23:1 28:1 36:1 38:1 41:1 43:1 46:1 51:1 54:1 57:1 63:1 66:1 68:1 70:1 73:1 76:1 79:1 90:1 93:1 97:1 105:1 112:1 121:1 124:1 129:1 132:1 135:1 138:1 142:1 146:1 148:1 154:1 170:1 173:1 175:1 178:1 
-0.1765498969051023 -0.2776410570975098 3:1 6:1 10:1 14:1 19:1 22:1 25:1 30:1 32:1 34:1 44:1 46:1 54:1 57:1 58:1 63:1 66:1 68:1 74:1 83:1 85:1 90:1 93:1 97:1 108:1 110:1 112:1 117:1 125:1 132:1 136:1 141:1 144:1 146:1 148:1 158:1 160:1 166:1 170:1 178:1 
-0.2856010913135417 -0.1857502694346493 3:1 5:1 8:1 12:1 18:1 21:1 45:1 47:1 56:1 58:1 62:1 65:1 67:1 71:1 74:1 77:1 84:1 85:1 90:1 93:1 99:1 101:1 105:1 110:1 113:1 120:1 123:1 126:1 129:1 130:1 134:1 136:1 139:1 144:1 146:1 148:1 151:1 154:1 157:1 162:1 165:1 167:1 173:1 176:1 
-0.005156967967157413 -0 3:1 6:1 7:1 11:1 13:1 18:1 20:1 26:1 28:1 32:1 35:1 40:1 45:1 51:1 54:1 56:1 58:1 61:1 69:1 72:1 74:1 80:1 83:1 85:1 90:1 93:1 97:1 100:1 105:1 107:1 111:1 113:1 116:1 119:1 122:1 127:1 130:1 133:1 136:1 143:1 146:1 149:1 162:1 165:1 168:1 170:1 172:1 176:1 178:1 
-0.1310456834641932 -0 2:1 5:1 10:1 18:1 21:1 24:1 25:1 33:1 35:1 38:1 40:1 44:1 47:1 56:1 58:1 63:1 65:1 68:1 74:1 81:1 83:1 85:1 90:1 93:1 97:1 102:1 105:1 113:1 116:1 123:1 128:1 135:1 138:1 141:1 143:1 152:1 159:1 162:1 165:1 167:1 169:1 174:1 
-0.09647696292074716 -0 8:1 10:1 15:1 18:1 19:1 27:1 33:1 41:1 48:1 51:1 54:1 56:1 59:1 61:1 64:1 69:1 73:1 77:1 79:1 83:1 85:1 90:1 93:1 99:1 100:1 105:1 107:1 109:1 113:1 116:1 120:1 123:1 126:1 127:1 130:1 135:1 138:1 139:1 153:1 155:1 158:1 161:1 164:1 166:1 171:1 174:1 175:1 178:1 
-0.1285553998056501 -0 3:1 6:1 8:1 11:1 14:1 16:1 23:1 26:1 28:1 33:1 36:1 38:1 43:1 46:1 53:1 55:1 59:1 61:1 65:1 69:1 72:1 75:1 77:1 79:1 83:1 85:1 90:1 93:1 97:1 100:1 104:1 107:1 109:1 118:1 122:1 124:1 128:1 131:1 134:1 137:1 143:1 145:1 149:1 152:1 155:1 158:1 161:1 168:1 171:1 174:1 176:1 179:1 
-0 -0.2707667658869105 3:1 6:1 8:1 15:1 17:1 20:1 24:1 27:1 28:1 33:1 35:1 38:1 41:1 44:1 50:1 52:1 60:1 62:1 69:1 70:1 75:1 76:1 84:1 87:1 88:1 93:1 97:1 100:1 105:1 108:1 109:1 114:1 117:1 120:1 121:1 126:1 127:1 135:1 138:1 139:1 144:1 147:1 149:1 151:1 158:1 160:1 168:1 173:1 180:1 
-0 -0.2647530931907264 2:1 4:1 9:1 12:1 14:1 21:1 24:1 27:1 30:1 32:1 34:1 39:1 41:1 43:1 50:1 54:1 55:1 58:1 62:1 65:1 67:1 72:1 73:1 78:1 81:1 82:1 87:1 93:1 97:1 101:1 105:1 107:1 110:1 117:1 120:1 123:1 125:1 128:1 130:1 135:1 136:1 144:1 147:1 153:1 157:1 162:1 164:1 171:1 174:1 177:1 178:1 
-0 -0.00481674362143781 3:1 4:1 9:1 12:1 20:1 23:1 32:1 34:1 38:1 45:1 51:1 53:1 57:1 63:1 65:1 72:1 73:1 77:1 80:1 82:1 90:1 93:1 97:1 100:1 105:1 112:1 117:1 119:1 134:1 141:1 148:1 152:1 154:1 157:1 162:1 165:1 169:1 174:1 
-0 -0.09580790952035967 1:1 4:1 9:1 12:1 13:1 16:1 19:1 35:1 38:1 40:1 43:1 46:1 49:1 57:1 63:1 66:1 67:1 75:1 76:1 80:1 82:1 86:1 88:1 93:1 97:1 100:1 105:1 108:1 110:1 113:1 115:1 119:1 122:1 124:1 132:1 135:1 138:1 143:1 146:1 148:1 153:1 154:1 159:1 162:1 163:1 171:1 172:1 177:1 180:1 
-0 -0.06310744401907985 6:1 13:1 17:1 20:1 26:1 28:1 32:1 35:1 44:1 48:1 51:1 52:1 57:1 58:1 62:1 64:1 67:1 72:1 73:1 80:1 82:1 85:1 90:1 93:1 99:1 101:1 104:1 110:1 112:1 116:1 118:1 123:1 125:1 128:1 131:1 134:1 140:1 142:1 147:1 150:1 152:1 155:1 158:1 160:1 164:1 167:1 170:1 173:1 176:1 178:1 
-0 -0.01855977576895811 5:1 20:1 24:1 32:1 35:1 45:1 48:1 50:1 54:1 55:1 60:1 63:1 65:1 81:1 82:1 90:1 93:1 97:1 100:1 105:1 108:1 110:1 119:1 121:1 126:1 127:1 130:1 135:1 138:1 150:1 152:1 154:1 159:1 162:1 163:1 176:1 
-0.08499561654479917 -0 2:1 11:1 15:1 18:1 21:1 22:1 27:1 36:1 37:1 44:1 50:1 55:1 58:1 66:1 68:1 77:1 84:1 85:1 93:1 97:1 102:1 105:1 111:1 113:1 119:1 126:1 129:1 140:1 143:1 145:1 149:1 151:1 165:1 168:1 170:1 172:1 180:1 
-0.177452204250892 -0 1:1 8:1 20:1 24:1 26:1 35:1 37:1 41:1 44:1 47:1 49:1 54:1 57:1 59:1 66:1 69:1 77:1 79:1 84:1 85:1 90:1 93:1 97:1 100:1 105:1 106:1 111:1 114:1 117:1 118:1 121:1 126:1 129:1 131:1 141:1 142:1 147:1 148:1 153:1 156:1 157:1 161:1 164:1 171:1 174:1 
-0.05185782104834299 -0 3:1 6:1 8:1 17:1 20:1 23:1 27:1 33:1 35:1 37:1 40:1 44:1 47:1 49:1 54:1 66:1 69:1 72:1 74:1 76:1 83:1 85:1 90:1 93:1 99:1 101:1 105:1 107:1 110:1 114:1 117:1 120:1 122:1 126:1 129:1 130:1 135:1 137:1 141:1 144:1 147:1 148:1 152:1 156:1 159:1 162:1 163:1 167:1 171:1 174:1 177:1 180:1 
-0 -0.4681022803546154 3:1 12:1 13:1 16:1 21:1 25:1 29:1 34:1 37:1 40:1 45:1 46:1 49:1 53:1 55:1 58:1 62:1 64:1 67:1 72:1 78:1 83:1 86:1 88:1 93:1 97:1 100:1 105:1 117:1 131:1 133:1 139:1 147:1 153:1 154:1 160:1 168:1 176:1 179:1 
-0 -0.2927311499535765 1:1 6:1 7:1 10:1 14:1 21:1 24:1 25:1 30:1 33:1 34:1 37:1 41:1 44:1 51:1 52:1 59:1 63:1 65:1 69:1 72:1 78:1 80:1 87:1 90:1 93:1 99:1 102:1 105:1 109:1 113:1 116:1 118:1 122:1 128:1 134:1 137:1 140:1 143:1 150:1 155:1 158:1 162:1 163:1 167:1 170:1 174:1 176:1 180:1 
-0.3509787859256752 -0.1726376315242541 2:1 4:1 11:1 14:1 17:1 20:1 23:1 25:1 29:1 31:1 34:1 39:1 42:1 44:1 47:1 49:1 52:1 56:1 60:1 69:1 70:1 74:1 80:1 83:1 85:1 90:1 93:1 99:1 105:1 107:1 110:1 117:1 119:1 122:1 125:1 131:1 134:1 137:1 139:1 144:1 150:1 151:1 155:1 157:1 164:1 169:1 174:1 176:1 179:1 
-0 -0.2224529841431717 2:1 8:1 13:1 16:1 23:1 25:1 30:1 32:1 35:1 38:1 44:1 51:1 54:1 56:1 59:1 62:1 64:1 69:1 72:1 74:1 76:1 81:1 86:1 88:1 93:1 97:1 100:1 105:1 111:1 116:1 122:1 125:1 127:1 130:1 133:1 137:1 140:1 146:1 158:1 161:1 166:1 169:1 179:1 
-0.03184772939468915 -0 3:1 6:1 9:1 12:1 13:1 16:1 29:1 32:1 36:1 39:1 41:1 43:1 47:1 49:1 53:1 56:1 58:1 63:1 65:1 71:1 74:1 80:1 90:1 93:1 97:1 100:1 105:1 108:1 110:1 113:1 115:1 119:1 122:1 125:1 128:1 130:1 134:1 137:1 140:1 143:1 148:1 152:1 155:1 158:1 161:1 165:1 168:1 171:1 172:1 176:1 179:1 
-0 -0.1694702399020108 2:1 4:1 8:1 14:1 16:1 21:1 25:1 33:1 38:1 45:1 47:1 49:1 54:1 55:1 63:1 67:1 71:1 74:1 77:1 80:1 90:1 93:1 97:1 100:1 105:1 106:1 112:1 115:1 121:1 124:1 127:1 141:1 142:1 145:1 149:1 152:1 162:1 177:1 178:1 
-0 -0.286955750699409 1:1 6:1 7:1 11:1 13:1 20:1 24:1 26:1 29:1 32:1 34:1 38:1 41:1 43:1 47:1 50:1 52:1 57:1 59:1 61:1 66:1 68:1 72:1 73:1 77:1 83:1 90:1 93:1 97:1 100:1 105:1 107:1 111:1 112:1 115:1 120:1 122:1 126:1 128:1 132:1 134:1 137:1 140:1 142:1 147:1 150:1 152:1 155:1 162:1 167:1 169:1 172:1 175:1 178:1 
-0 -0.1444603087402866 3:1 6:1 7:1 12:1 15:1 17:1 19:1 24:1 27:1 28:1 31:1 39:1 41:1 43:1 48:1 50:1 52:1 59:1 62:1 65:1 72:1 77:1 84:1 90:1 93:1 97:1 102:1 105:1 107:1 114:1 117:1 120:1 123:1 126:1 128:1 130:1 135:1 141:1 144:1 147:1 150:1 152:1 156:1 157:1 161:1 164:1 167:1 169:1 177:1 178:1 
-0.06387225667817599 -0 1:1 5:1 7:1 12:1 18:1 19:1 23:1 28:1 41:1 43:1 46:1 51:1 53:1 56:1 58:1 74:1 77:1 79:1 83:1 85:1 90:1 93:1 99:1 100:1 105:1 106:1 109:1 112:1 117:1 118:1 125:1 127:1 132:1 133:1 138:1 141:1 143:1 145:1 150:1 154:1 158:1 161:1 170:1 173:1 176:1 
-0 -0.116346264147321 3:1 6:1 7:1 10:1 15:1 16:1 24:1 26:1 33:1 36:1 37:1 42:1 45:1 46:1 51:1 52:1 55:1 58:1 62:1 65:1 68:1 75:1 78:1 81:1 82:1 85:1 90:1 93:1 97:1 102:1 105:1 107:1 113:1 120:1 123:1 129:1 130:1 134:1 137:1 139:1 144:1 147:1 148:1 152:1 154:1 157:1 162:1 165:1 166:1 169:1 174:1 177:1 180:1 
-0.1853986574567659 -0.01651441639377424 8:1 20:1 22:1 25:1 35:1 38:1 40:1 47:1 53:1 61:1 66:1 80:1 83:1 85:1 93:1 97:1 100:1 105:1 109:1 119:1 121:1 126:1 136:1 140:1 142:1 154:1 162:1 171:1 173:1 175:1 180:1 
-0 -0.1412446765122808 6:1 7:1 10:1 15:1 16:1 19:1 24:1 25:1 29:1 31:1 36:1 39:1 42:1 43:1 48:1 49:1 53:1 55:1 65:1 67:1 75:1 76:1 79:1 83:1 85:1 88:1 93:1 97:1 100:1 105:1 108:1 109:1 116:1 119:1 121:1 126:1 136:1 139:1 142:1 147:1 150:1 154:1 159:1 160:1 168:1 170:1 172:1 175:1 178:1 
-0.005485067490699746 -0.5140723280304732 3:1 4:1 9:1 12:1 13:1 21:1 22:1 25:1 30:1 32:1 37:1 40:1 45:1 48:1 49:1 54:1 56:1 63:1 66:1 68:1 75:1 77:1 81:1 84:1 85:1 90:1 93:1 99:1 105:1 108:1 111:1 114:1 119:1 126:1 129:1 132:1 133:1 141:1 143:1 146:1 153:1 156:1 159:1 160:1 164:1 167:1 170:1 172:1 177:1 180:1 
-0 -0.07603555554221424 3:1 6:1 12:1 14:1 18:1 20:1 22:1 33:1 36:1 38:1 40:1 43:1 48:1 50:1 52:1 56:1 62:1 65:1 68:1 72:1 74:1 76:1 80:1 82:1 85:1 90:1 93:1 97:1 101:1 103:1 108:1 109:1 112:1 116:1 123:1 126:1 132:1 135:1 137:1 140:1 143:1 147:1 153:1 156:1 159:1 165:1 170:1 177:1 180:1 
-0 -0.05355329077380146 3:1 7:1 12:1 13:1 28:1 35:1 37:1 42:1 43:1 47:1 54:1 55:1 58:1 63:1 64:1 69:1 71:1 76:1 87:1 93:1 99:1 100:1 105:1 109:1 115:1 127:1 130:1 136:1 142:1 150:1 151:1 161:1 178:1 
-0 -0.06846115920854992 1:1 4:1 9:1 11:1 18:1 20:1 22:1 26:1 30:1 36:1 39:1 40:1 47:1 50:1 57:1 58:1 63:1 64:1 67:1 71:1 80:1 82:1 87:1 90:1 93:1 99:1 102:1 105:1 110:1 113:1 115:1 120:1 123:1 124:1 129:1 130:1 138:1 149:1 151:1 155:1 170:1 176:1 179:1 
-0.003224651530427232 -0 2:1 5:1 9:1 11:1 14:1 17:1 20:1 26:1 29:1 33:1 35:1 38:1 42:1 47:1 51:1 53:1 57:1 68:1 74:1 81:1 83:1 86:1 90:1 93:1 99:1 100:1 105:1 107:1 111:1 113:1 116:1 119:1 122:1 126:1 128:1 131:1 134:1 137:1 141:1 144:1 147:1 150:1 152:1 155:1 162:1 163:1 168:1 170:1 177:1 180:1 
-0.2542313847476522 -0 2:1 6:1 12:1 15:1 17:1 19:1 23:1 26:1 28:1 32:1 34:1 38:1 40:1 44:1 47:1 53:1 56:1 59:1 61:1 66:1 68:1 74:1 81:1 83:1 85:1 90:1 93:1 99:1 100:1 105:1 106:1 109:1 112:1 115:1 119:1 122:1 125:1 127:1 132:1 135:1 136:1 141:1 144:1 145:1 150:1 151:1 156:1 159:1 162:1 165:1 166:1 171:1 172:1 177:1 180:1 
-0.01789635289854004 -0 3:1 6:1 13:1 16:1 20:1 22:1 32:1 35:1 41:1 43:1 46:1 51:1 54:1 56:1 58:1 63:1 65:1 72:1 75:1 77:1 80:1 82:1 85:1 90:1 93:1 99:1 100:1 105:1 108:1 113:1 116:1 118:1 122:1 124:1 129:1 132:1 133:1 139:1 144:1 147:1 150:1 153:1 156:1 158:1 160:1 165:1 168:1 169:1 174:1 177:1 179:1 
-0 -0.2860361439913262 1:1 6:1 8:1 11:1 18:1 21:1 27:1 30:1 31:1 35:1 38:1 43:1 48:1 53:1 56:1 59:1 62:1 69:1 72:1 81:1 82:1 85:1 90:1 93:1 99:1 100:1 105:1 106:1 114:1 116:1 123:1 125:1 128:1 130:1 135:1 137:1 140:1 143:1 150:1 152:1 155:1 164:1 166:1 171:1 174:1 
-0.03672312398427748 -0.1923546748190153 3:1 4:1 8:1 12:1 13:1 19:1 22:1 27:1 30:1 31:1 36:1 37:1 41:1 44:1 51:1 53:1 66:1 68:1 71:1 75:1 76:1 81:1 84:1 85:1 90:1 93:1 97:1 101:1 106:1 110:1 112:1 117:1 125:1 131:1 140:1 142:1 157:1 160:1 166:1 174:1 179:1 
-0.11521510242851 -0 5:1 11:1 17:1 24:1 26:1 29:1 33:1 35:1 38:1 41:1 43:1 47:1 54:1 56:1 65:1 68:1 70:1 75:1 78:1 79:1 84:1 85:1 90:1 93:1 97:1 102:1 105:1 108:1 111:1 113:1 119:1 123:1 126:1 127:1 130:1 133:1 137:1 140:1 143:1 145:1 150:1 159:1 162:1 179:1 
-0.001219115810663142 -0 3:1 9:1 10:1 13:1 17:1 23:1 30:1 33:1 34:1 38:1 40:1 44:1 46:1 50:1 54:1 56:1 59:1 62:1 64:1 69:1 72:1 81:1 85:1 90:1 93:1 97:1 101:1 105:1 111:1 114:1 115:1 120:1 121:1 124:1 129:1 131:1 143:1 149:1 152:1 164:1 171:1 173:1 180:1 
-0.1930251160937699 -0.2157407003618877 3:1 6:1 7:1 11:1 15:1 16:1 19:1 24:1 33:1 36:1 42:1 45:1 51:1 52:1 57:1 60:1 62:1 65:1 68:1 75:1 78:1 81:1 83:1 85:1 90:1 93:1 102:1 105:1 109:1 116:1 118:1 121:1 126:1 129:1 136:1 140:1 142:1 145:1 150:1 153:1 155:1 157:1 162:1 165:1 175:1 178:1 
