svm_type c_svc
kernel_type polynomial
degree 3
gamma 0
coef0 0
nr_class 7
total_sv 768
rho 0 0 0 -1.#IND 0 0 0 0 -1.#IND 0 0 0 -1.#IND 0 0 -1.#IND 0 0 -1.#QNAN -1.#QNAN 0
label 1 2 3 4 0 5 6
nr_sv 128 128 128 128 0 128 128
SV
1 1 1 0 1 1 0:589 1:505 2:394 3:389 4:616 5:200 6:171 7:266 8:148 9:982 10:631 11:497 12:531 13:623 14:589 15:338 16:140 17:203 18:88 19:680 20:355 21:433 22:456 23:609 24:667 25:391 26:222 27:267 28:118 29:802 30:384 31:427 32:462 33:751 34:759 35:408 36:188 37:198 38:91 39:652 40:827 41:613 42:535 43:551 44:371 45:240 46:132 47:195 48:78 49:778 50:582 51:509 52:442 53:471 54:584 55:256 56:174 57:214 58:126 59:902 60:661 61:566 62:450 63:407 64:534 65:259 66:187 67:226 68:132 69:909 70:360 71:453 72:467 73:689 74:703 75:422 76:210 77:219 78:106 79:763 80:391 81:476 82:413 83:480 84:653 85:360 86:241 87:294 88:164 89:920 90:340 91:418 92:376 93:604 94:896 95:381 96:207 97:290 98:130 99:750 100:445 101:450 102:519 103:755 104:788 105:396 106:206 107:183 108:67 109:583 110:874 111:727 112:502 113:422 114:256 115:181 116:154 117:239 118:89 119:887 120:555 121:529 122:440 123:559 124:734 125:282 126:145 127:229 128:115 129:743 130:232 131:291 132:408 133:811 134:1175 135:466 136:195 137:175 138:74 139:565 140:217 141:228 142:405 143:876 144:1250 145:495 146:205 147:157 148:71 149:488 150:257 151:316 152:414 153:795 154:1009 155:482 156:220 157:164 158:85 159:650 160:220 161:287 162:440 163:850 164:1110 165:467 166:205 167:158 168:80 169:575 170:841 171:589 172:498 173:490 174:415 175:243 176:133 177:197 178:102 179:823 180:517 181:509 182:432 183:513 184:701 185:333 186:184 187:241 188:124 189:777 190:388 191:456 192:458 193:508 194:627 195:395 196:251 197:271 198:150 199:888 200:332 201:459 202:439 203:541 204:651 205:393 206:272 207:279 208:146 209:880 210:318 211:410 212:494 213:645 214:775 215:419 216:274 217:222 218:112 219:723 220:395 221:460 222:477 223:519 224:621 225:390 226:232 227:267 228:149 229:882 230:637 231:580 232:478 233:604 234:529 235:276 236:157 237:198 238:102 239:770 240:702 241:538 242:425 243:519 244:485 245:295 246:176 247:242 248:117 249:832 250:550 251:516 252:458 253:462 254:524 255:309 256:202 257:286 258:140 259:945 260:320 261:389 262:450 263:637 264:840 265:446 266:255 267:193 268:120 269:742 270:302 271:345 272:443 273:755 274:897 275:481 276:239 277:189 278:94 279:647 280:460 281:537 282:492 283:535 284:472 285:357 286:236 287:273 288:137 289:893 290:979 291:599 292:449 293:446 294:361 295:224 296:118 297:239 298:94 299:822 300:1027 301:642 302:507 303:424 304:247 305:173 306:98 307:228 308:83 309:902 310:685 311:523 312:493 313:420 314:531 315:300 316:164 317:266 318:129 319:881 320:318 321:387 322:411 323:682 324:901 325:418 326:220 327:184 328:130 329:741 330:298 331:354 332:431 333:809 334:952 335:422 336:198 337:193 338:90 339:645 340:516 341:570 342:462 343:455 344:506 345:295 346:254 347:286 348:158 349:890 350:1038 351:679 352:393 353:407 354:226 355:157 356:132 357:228 358:108 359:963 360:1038 361:674 362:537 363:450 364:332 365:248 366:153 367:223 368:96 369:864 370:797 371:594 372:504 373:577 374:456 375:316 376:213 377:231 378:130 379:862 380:449 381:506 382:513 383:588 384:609 385:413 386:253 387:255 388:150 389:944 390:507 391:503 392:496 393:541 394:572 395:355 396:245 397:294 398:160 399:1007 400:601 401:532 402:592 403:603 404:601 405:342 406:206 407:248 408:108 409:847 410:1029 411:703 412:501 413:403 414:249 415:202 416:173 417:237 418:105 
1 1 1 0 1 1 0:614 1:565 2:459 3:449 4:438 5:272 6:199 7:220 8:133 9:851 10:635 11:462 12:461 13:632 14:552 15:392 16:172 17:176 18:76 19:702 20:318 21:413 22:352 23:526 24:779 25:367 26:206 27:283 28:140 29:876 30:337 31:403 32:360 33:561 34:719 35:374 36:221 37:262 38:155 39:868 40:504 41:448 42:546 43:640 44:591 45:390 46:196 47:183 48:90 49:672 50:967 51:683 52:494 53:369 54:223 55:190 56:120 57:240 58:84 59:890 60:937 61:665 62:429 63:340 64:208 65:217 66:119 67:271 68:137 69:947 70:404 71:441 72:463 73:584 74:670 75:385 76:234 77:237 78:120 79:793 80:424 81:479 82:391 83:380 84:449 85:339 86:263 87:304 88:223 89:1079 90:410 91:463 92:420 93:379 94:450 95:310 96:274 97:336 98:211 99:1078 100:397 101:476 102:380 103:501 104:559 105:343 106:242 107:292 108:164 109:977 110:812 111:690 112:512 113:444 114:292 115:233 116:156 117:220 118:86 119:886 120:806 121:549 122:445 123:442 124:373 125:228 126:122 127:214 128:121 129:970 130:253 131:367 132:425 133:638 134:942 135:395 136:232 137:256 138:123 139:700 140:253 141:359 142:420 143:684 144:922 145:448 146:228 147:234 148:122 149:661 150:255 151:322 152:455 153:692 154:913 155:485 156:250 157:201 158:114 159:644 160:276 161:412 162:437 163:553 164:769 165:399 166:271 167:258 168:152 169:804 170:701 171:567 172:517 173:563 174:537 175:267 176:160 177:174 178:85 179:760 180:759 181:539 182:484 183:550 184:411 185:278 186:128 187:219 188:80 189:822 190:426 191:475 192:430 193:427 194:439 195:320 196:285 197:289 198:192 199:1048 200:414 201:468 202:411 203:420 204:408 205:349 206:275 207:315 208:188 209:1083 210:376 211:475 212:449 213:450 214:455 215:377 216:299 217:274 218:189 219:987 220:460 221:469 222:414 223:360 224:392 225:290 226:270 227:322 228:216 229:1138 230:736 231:546 232:436 233:578 234:567 235:325 236:141 237:182 238:75 239:745 240:895 241:678 242:479 243:439 244:308 245:194 246:117 247:199 248:94 249:867 250:453 251:482 252:423 253:389 254:483 255:340 256:263 257:263 258:188 259:1047 260:330 261:443 262:456 263:479 264:607 265:404 266:297 267:274 268:164 269:877 270:359 271:419 272:474 273:533 274:610 275:404 276:278 277:255 278:151 279:848 280:504 281:550 282:451 283:335 284:276 285:302 286:271 287:331 288:197 289:1114 290:862 291:544 292:468 293:529 294:457 295:274 296:149 297:179 298:91 299:778 300:1031 301:662 302:486 303:388 304:206 305:173 306:144 307:187 308:111 309:882 310:587 311:496 312:461 313:488 314:491 315:347 316:202 317:229 318:132 319:898 320:286 321:328 322:386 323:667 324:986 325:428 326:200 327:200 328:122 329:728 330:342 331:336 332:394 333:703 334:879 335:382 336:241 337:213 338:123 339:718 340:480 341:510 342:467 343:532 344:478 345:325 346:203 347:272 348:149 349:915 350:1052 351:679 352:445 353:342 354:280 355:195 356:128 357:237 358:102 359:871 360:1029 361:594 362:436 363:409 364:305 365:213 366:117 367:219 368:81 369:797 370:497 371:471 372:429 373:572 374:558 375:374 376:196 377:223 378:124 379:816 380:358 381:416 382:479 383:491 384:589 385:397 386:260 387:264 388:133 389:873 390:382 391:458 392:477 393:518 394:518 395:391 396:235 397:234 398:136 399:911 400:450 401:495 402:495 403:637 404:554 405:336 406:210 407:216 408:120 409:747 410:1040 411:610 412:466 413:365 414:209 415:195 416:131 417:216 418:97 
1 1 1 0 1 1 0:682 1:576 2:502 3:458 4:463 5:279 6:193 7:237 8:116 9:886 10:630 11:539 12:530 13:572 14:498 15:329 16:188 17:240 18:111 19:816 20:426 21:483 22:447 23:597 24:714 25:372 26:202 27:267 28:113 29:832 30:371 31:451 32:437 33:609 34:681 35:407 36:238 37:280 38:137 39:842 40:489 41:506 42:503 43:573 44:525 45:376 46:225 47:244 48:131 49:881 50:736 51:575 52:474 53:449 54:361 55:262 56:177 57:242 58:141 59:975 60:863 61:719 62:460 63:430 64:260 65:231 66:164 67:261 68:120 69:956 70:390 71:461 72:563 73:604 74:620 75:413 76:254 77:275 78:123 79:823 80:411 81:468 82:426 83:465 84:526 85:368 86:304 87:311 88:172 89:1075 90:400 91:523 92:434 93:410 94:511 95:407 96:281 97:323 98:179 99:1058 100:408 101:434 102:485 103:493 104:586 105:396 106:308 107:301 108:165 109:950 110:641 111:630 112:560 113:467 114:399 115:310 116:185 117:270 118:114 119:888 120:383 121:370 122:342 123:645 124:1092 125:372 126:188 127:210 128:109 129:753 130:264 131:337 132:390 133:715 134:1040 135:445 136:250 137:213 138:124 139:748 140:269 141:331 142:401 143:806 144:1051 145:498 146:207 147:184 148:86 149:693 150:306 151:391 152:502 153:687 154:814 155:456 156:295 157:205 158:117 159:753 160:308 161:333 162:368 163:690 164:1118 165:436 166:196 167:240 168:105 169:732 170:527 171:437 172:505 173:657 174:738 175:325 176:175 177:192 178:119 179:789 180:507 181:473 182:442 183:513 184:767 185:313 186:204 187:248 188:146 189:851 190:453 191:472 192:418 193:459 194:482 195:381 196:294 197:329 198:190 199:1048 200:367 201:451 202:445 203:523 204:603 205:428 206:301 207:274 208:176 209:958 210:358 211:417 212:472 213:609 214:620 215:447 216:285 217:269 218:153 219:896 220:386 221:435 222:451 223:520 224:657 225:413 226:298 227:271 228:174 229:921 230:581 231:535 232:433 233:510 234:588 235:309 236:189 237:263 238:133 239:923 240:672 241:555 242:457 243:419 244:499 245:269 246:169 247:302 248:141 249:981 250:453 251:468 252:481 253:418 254:447 255:381 256:291 257:337 258:184 259:1066 260:290 261:325 262:438 263:796 264:931 265:543 266:239 267:180 268:117 269:667 270:292 271:360 272:465 273:728 274:898 275:527 276:242 277:187 278:113 279:714 280:429 281:513 282:449 283:451 284:437 285:349 286:274 287:303 288:187 289:1134 290:688 291:590 292:454 293:515 294:507 295:283 296:185 297:256 298:123 299:863 300:826 301:594 302:443 303:406 304:517 305:220 306:171 307:249 308:123 309:915 310:454 311:506 312:423 313:403 314:435 315:386 316:276 317:304 318:202 319:1137 320:264 321:279 322:398 323:727 324:1044 325:468 326:253 327:215 328:133 329:745 330:273 331:354 332:403 333:783 334:960 335:433 336:259 337:220 338:120 339:721 340:466 341:497 342:418 343:375 344:499 345:363 346:274 347:312 348:189 349:1133 350:884 351:576 352:499 353:412 354:442 355:230 356:162 357:236 358:127 359:896 360:1015 361:692 362:518 363:432 364:245 365:215 366:174 367:258 368:122 369:1009 370:543 371:575 372:466 373:624 374:602 375:459 376:245 377:251 378:126 379:854 380:406 381:490 382:497 383:498 384:559 385:469 386:310 387:314 388:175 389:1027 390:407 391:463 392:472 393:561 394:568 395:471 396:299 397:295 398:176 399:1033 400:636 401:521 402:508 403:577 404:564 405:394 406:236 407:233 408:141 409:935 410:929 411:699 412:548 413:401 414:246 415:211 416:180 417:290 418:130 
1 1 1 0 1 1 0:781 1:558 2:507 3:422 4:313 5:263 6:158 7:234 8:115 9:909 10:627 11:528 12:526 13:531 14:418 15:333 16:188 17:198 18:116 19:855 20:340 21:461 22:482 23:578 24:612 25:385 26:268 27:234 28:136 29:824 30:312 31:430 32:434 33:521 34:598 35:402 36:285 37:263 38:169 39:906 40:466 41:447 42:491 43:562 44:566 45:370 46:215 47:217 48:129 49:857 50:728 51:604 52:548 53:445 54:342 55:257 56:165 57:226 58:103 59:842 60:791 61:603 62:507 63:447 64:279 65:207 66:182 67:255 68:120 69:940 70:351 71:451 72:476 73:578 74:561 75:428 76:274 77:264 78:150 79:859 80:445 81:542 82:351 83:325 84:374 85:297 86:267 87:418 88:247 89:1126 90:386 91:495 92:401 93:376 94:434 95:332 96:292 97:396 98:211 99:1069 100:385 101:420 102:426 103:567 104:684 105:363 106:258 107:281 108:121 109:887 110:836 111:634 112:522 113:394 114:293 115:238 116:169 117:248 118:111 119:886 120:725 121:589 122:438 123:460 124:439 125:297 126:136 127:257 128:116 129:874 130:263 131:367 132:368 133:659 134:987 135:395 136:240 137:231 138:119 139:763 140:284 141:398 142:430 143:614 144:849 145:432 146:257 147:253 148:124 149:751 150:299 151:403 152:452 153:631 154:852 155:462 156:242 157:226 158:117 159:708 160:286 161:344 162:406 163:694 164:1005 165:358 166:227 167:216 168:116 169:740 170:720 171:535 172:454 173:485 174:496 175:274 176:152 177:244 178:128 179:843 180:567 181:458 182:436 183:588 184:659 185:321 186:176 187:214 188:124 189:788 190:430 191:495 192:428 193:402 194:497 195:375 196:281 197:314 198:175 199:995 200:414 201:445 202:421 203:455 204:529 205:356 206:264 207:305 208:171 209:1032 210:387 211:468 212:460 213:432 214:497 215:375 216:293 217:281 218:163 219:1036 220:437 221:499 222:443 223:413 224:441 225:362 226:262 227:322 228:167 229:1046 230:626 231:460 232:434 233:579 234:616 235:328 236:164 237:236 238:100 239:788 240:807 241:619 242:489 243:385 244:317 245:221 246:163 247:248 248:138 249:944 250:446 251:473 252:439 253:458 254:577 255:336 256:272 257:257 258:170 259:964 260:300 261:355 262:429 263:673 264:812 265:480 266:250 267:236 268:111 269:746 270:239 271:344 272:496 273:788 274:805 275:539 276:268 277:183 278:104 279:626 280:454 281:462 282:448 283:445 284:538 285:359 286:268 287:297 288:156 289:965 290:871 291:641 292:551 293:411 294:297 295:224 296:144 297:213 298:99 299:880 300:827 301:624 302:479 303:420 304:251 305:223 306:156 307:269 308:119 309:963 310:564 311:485 312:401 313:463 314:576 315:276 316:205 317:247 318:149 319:1026 320:280 321:328 322:436 323:670 324:861 325:454 326:248 327:244 328:131 329:740 330:261 331:312 332:426 333:759 334:1000 335:482 336:214 337:181 338:117 339:640 340:561 341:504 342:408 343:390 344:514 345:291 346:250 347:286 348:159 349:1029 350:921 351:656 352:522 353:368 354:241 355:180 356:145 357:239 358:118 359:941 360:919 361:665 362:523 363:402 364:248 365:259 366:169 367:270 368:144 369:1016 370:642 371:543 372:543 373:640 374:546 375:367 376:210 377:231 378:116 379:842 380:420 381:501 382:475 383:546 384:604 385:399 386:258 387:272 388:172 389:1033 390:427 391:476 392:506 393:615 394:643 395:385 396:248 397:282 398:153 399:945 400:670 401:538 402:532 403:563 404:528 405:325 406:231 407:243 408:120 409:930 410:995 411:686 412:507 413:359 414:233 415:205 416:142 417:304 418:131 
1 1 1 0 1 1 0:368 1:477 2:419 3:474 4:564 5:310 6:244 7:267 8:172 9:965 10:372 11:451 12:426 13:603 14:740 15:387 16:249 17:222 18:103 19:767 20:389 21:486 22:425 23:517 24:594 25:429 26:268 27:250 28:127 29:835 30:396 31:508 32:423 33:479 34:504 35:343 36:267 37:319 38:154 39:927 40:376 41:463 42:434 43:587 44:633 45:414 46:248 47:241 48:110 49:814 50:397 51:425 52:397 53:537 54:651 55:337 56:221 57:255 58:163 59:877 60:477 61:467 62:396 63:499 64:723 65:300 66:179 67:295 68:141 69:854 70:429 71:432 72:482 73:561 74:554 75:376 76:301 77:251 78:134 79:872 80:556 81:561 82:389 83:329 84:326 85:293 86:244 87:365 88:200 89:1129 90:524 91:574 92:389 93:370 94:313 95:278 96:262 97:352 98:213 99:1117 100:431 101:508 102:463 103:480 104:511 105:340 106:257 107:310 108:150 109:942 110:459 111:427 112:393 113:608 114:749 115:364 116:176 117:223 118:133 119:799 120:386 121:402 122:339 123:716 124:1035 125:359 126:157 127:219 128:105 129:613 130:325 131:400 132:419 133:628 134:810 135:467 136:252 137:223 138:120 139:748 140:258 141:331 142:414 143:704 144:1039 145:475 146:212 147:197 148:105 149:657 150:284 151:373 152:436 153:690 154:911 155:453 156:212 157:215 158:118 159:700 160:371 161:395 162:418 163:564 164:765 165:390 166:248 167:245 168:133 169:863 170:316 171:347 172:362 173:720 174:1023 175:439 176:192 177:197 178:89 179:646 180:391 181:419 182:342 183:713 184:914 185:397 186:153 187:209 188:118 189:675 190:376 191:454 192:463 193:516 194:531 195:407 196:254 197:275 198:153 199:963 200:415 201:483 202:378 203:428 204:521 205:357 206:270 207:301 208:185 209:1054 210:399 211:449 212:462 213:490 214:544 215:367 216:264 217:284 218:155 219:978 220:471 221:499 222:408 223:384 224:372 225:311 226:264 227:300 228:216 229:1167 230:332 231:387 232:343 233:607 234:952 235:424 236:201 237:256 238:93 239:736 240:411 241:428 242:363 243:630 244:827 245:362 246:160 247:252 248:130 249:768 250:485 251:523 252:404 253:389 254:506 255:300 256:251 257:284 258:184 259:1066 260:422 261:464 262:430 263:437 264:495 265:360 266:266 267:288 268:196 269:1034 270:372 271:422 272:480 273:537 274:593 275:474 276:276 277:250 278:141 279:847 280:525 281:553 282:383 283:304 284:291 285:263 286:267 287:305 288:255 289:1246 290:384 291:402 292:367 293:684 294:908 295:343 296:159 297:247 298:113 299:724 300:407 301:420 302:302 303:574 304:841 305:309 306:165 307:287 308:146 309:880 310:387 311:433 312:343 313:568 314:896 315:284 316:188 317:260 318:144 319:889 320:372 321:402 322:425 323:580 324:763 325:445 326:227 327:252 328:113 329:813 330:281 331:361 332:400 333:647 334:988 335:449 336:240 337:229 338:105 339:692 340:530 341:534 342:409 343:378 344:476 345:272 346:196 347:317 348:182 349:1098 350:412 351:411 352:392 353:602 354:752 355:374 356:202 357:240 358:135 359:811 360:379 361:403 362:357 363:688 364:1009 365:364 366:201 367:296 368:130 369:788 370:355 371:397 372:454 373:860 374:994 375:451 376:202 377:231 378:99 379:637 380:454 381:488 382:491 383:510 384:561 385:385 386:246 387:295 388:175 389:1075 390:398 391:430 392:487 393:651 394:735 395:408 396:274 397:240 398:138 399:919 400:523 401:509 402:463 403:543 404:755 405:338 406:197 407:250 408:143 409:959 410:363 411:459 412:346 413:555 414:954 415:328 416:205 417:340 418:168 
1 1 1 0 1 1 0:493 1:474 2:418 3:529 4:680 5:378 6:199 7:210 8:121 9:829 10:395 11:408 12:468 13:584 14:690 15:371 16:240 17:243 18:123 19:870 20:393 21:449 22:369 23:520 24:673 25:337 26:235 27:302 28:145 29:969 30:420 31:469 32:418 33:445 34:467 35:351 36:278 37:303 38:181 39:1060 40:370 41:443 42:406 43:515 44:678 45:385 46:246 47:255 48:158 49:936 50:386 51:459 52:427 53:513 54:770 55:341 56:221 57:235 58:154 59:947 60:612 61:515 62:512 63:559 64:697 65:281 66:169 67:164 68:99 69:794 70:404 71:477 72:396 73:489 74:682 75:391 76:229 77:290 78:146 79:960 80:419 81:481 82:400 83:460 84:505 85:344 86:274 87:365 88:180 89:1036 90:449 91:457 92:389 93:457 94:475 95:327 96:271 97:324 98:193 99:1122 100:409 101:507 102:409 103:453 104:560 105:343 106:243 107:304 108:188 109:1048 110:398 111:469 112:484 113:634 114:889 115:385 116:210 117:205 118:104 119:748 120:692 121:559 122:505 123:538 124:591 125:274 126:146 127:212 128:85 129:800 130:284 131:344 132:420 133:636 134:960 135:425 136:224 137:242 138:140 139:789 140:262 141:366 142:447 143:650 144:991 145:485 146:256 147:216 148:113 149:678 150:286 151:409 152:467 153:674 154:837 155:452 156:258 157:224 158:106 159:751 160:314 161:376 162:402 163:651 164:871 165:397 166:216 167:285 168:144 169:808 170:542 171:451 172:433 173:661 174:864 175:386 176:172 177:203 178:90 179:724 180:521 181:495 182:446 183:613 184:716 185:328 186:182 187:206 188:117 189:778 190:465 191:513 192:445 193:383 194:416 195:378 196:284 197:314 198:182 199:1084 200:367 201:435 202:415 203:505 204:647 205:390 206:260 207:292 208:173 209:980 210:358 211:438 212:457 213:499 214:589 215:435 216:293 217:265 218:148 219:982 220:427 221:472 222:429 223:440 224:495 225:383 226:299 227:296 228:201 229:1022 230:377 231:358 232:381 233:801 234:1070 235:479 236:166 237:161 238:99 239:634 240:464 241:444 242:427 243:663 244:733 245:374 246:229 247:220 248:102 249:746 250:524 251:579 252:352 253:322 254:303 255:317 256:270 257:387 258:208 259:1202 260:352 261:436 262:439 263:561 264:699 265:452 266:261 267:224 268:159 269:881 270:334 271:414 272:368 273:575 274:859 275:425 276:243 277:246 278:148 279:852 280:510 281:532 282:428 283:341 284:342 285:293 286:257 287:352 288:216 289:1193 290:431 291:422 292:421 293:582 294:957 295:348 296:213 297:237 298:118 299:797 300:592 301:556 302:444 303:469 304:628 305:286 306:193 307:209 308:122 309:903 310:483 311:505 312:395 313:414 314:386 315:321 316:259 317:327 318:210 319:1164 320:511 321:428 322:417 323:629 324:884 325:380 326:171 327:213 328:89 329:742 330:509 331:484 332:438 333:574 334:737 335:314 336:207 337:241 338:119 339:841 340:473 341:496 342:403 343:392 344:457 345:305 346:291 347:313 348:215 349:1119 350:815 351:596 352:490 353:460 354:539 355:287 356:159 357:222 358:105 359:853 360:743 361:640 362:504 363:395 364:317 365:225 366:159 367:269 368:122 369:957 370:439 371:516 372:451 373:462 374:573 375:352 376:265 377:261 378:153 379:920 380:396 381:417 382:442 383:487 384:567 385:403 386:279 387:251 388:167 389:983 390:402 391:447 392:417 393:522 394:594 395:397 396:253 397:235 398:159 399:966 400:448 401:456 402:431 403:556 404:697 405:360 406:223 407:241 408:126 409:854 410:976 411:660 412:499 413:350 414:201 415:254 416:140 417:254 418:142 
1 1 1 0 1 1 0:419 1:451 2:395 3:432 4:680 5:294 6:210 7:243 8:142 9:934 10:474 11:457 12:536 13:625 14:637 15:340 16:175 17:173 18:111 19:732 20:453 21:428 22:462 23:666 24:688 25:379 26:209 27:209 28:83 29:683 30:332 31:415 32:488 33:647 34:665 35:425 36:273 37:210 38:116 39:689 40:419 41:458 42:462 43:624 44:691 45:342 46:198 47:170 48:112 49:784 50:441 51:506 52:416 53:469 54:694 55:343 56:206 57:262 58:150 59:1013 60:567 61:493 62:453 63:472 64:605 65:313 66:202 67:232 68:122 69:811 70:410 71:413 72:434 73:679 74:798 75:367 76:208 77:190 78:107 79:725 80:432 81:488 82:400 83:424 84:418 85:316 86:269 87:327 88:199 89:1058 90:423 91:476 92:405 93:420 94:428 95:335 96:286 97:328 98:186 99:1044 100:384 101:438 102:458 103:529 104:591 105:373 106:272 107:240 108:133 109:913 110:449 111:493 112:448 113:548 114:724 115:377 116:227 117:237 118:139 119:933 120:672 121:531 122:463 123:545 124:622 125:284 126:123 127:188 128:101 129:741 130:335 131:343 132:425 133:718 134:1096 135:398 136:161 137:165 138:96 139:594 140:211 141:338 142:426 143:728 144:1037 145:492 146:210 147:204 148:97 149:588 150:264 151:358 152:434 153:665 154:839 155:473 156:234 157:228 158:113 159:723 160:247 161:347 162:435 163:624 164:1085 165:430 166:233 167:214 168:101 169:615 170:578 171:506 172:469 173:632 174:828 175:346 176:144 177:180 178:91 179:801 180:530 181:452 182:442 183:574 184:860 185:322 186:145 187:189 188:90 189:666 190:366 191:405 192:424 193:569 194:674 195:377 196:268 197:269 198:127 199:852 200:373 201:506 202:436 203:452 204:487 205:398 206:267 207:290 208:159 209:963 210:357 211:460 212:475 213:515 214:516 215:364 216:274 217:268 218:158 219:944 220:447 221:503 222:441 223:382 224:397 225:354 226:297 227:308 228:178 229:1024 230:513 231:429 232:518 233:708 234:879 235:382 236:193 237:193 238:83 239:677 240:743 241:598 242:410 243:439 244:427 245:287 246:161 247:253 248:89 249:863 250:456 251:447 252:430 253:454 254:610 255:342 256:244 257:254 258:149 259:945 260:294 261:387 262:415 263:587 264:804 265:467 266:257 267:230 268:113 269:777 270:316 271:383 272:397 273:588 274:779 275:494 276:259 277:208 278:119 279:788 280:450 281:477 282:426 283:421 284:450 285:309 286:280 287:305 288:170 289:1043 290:714 291:583 292:524 293:534 294:532 295:283 296:167 297:253 298:102 299:883 300:596 301:551 302:514 303:526 304:533 305:255 306:165 307:209 308:99 309:822 310:579 311:488 312:448 313:393 314:563 315:249 316:214 317:274 318:144 319:979 320:273 321:320 322:400 323:710 324:908 325:463 326:260 327:212 328:115 329:670 330:258 331:332 332:392 333:763 334:914 335:440 336:229 337:195 338:110 339:698 340:592 341:498 342:410 343:345 344:545 345:286 346:226 347:318 348:147 349:964 350:877 351:685 352:543 353:474 354:352 355:211 356:195 357:214 358:111 359:913 360:672 361:609 362:494 363:547 364:456 365:281 366:184 367:248 368:118 369:871 370:758 371:588 372:501 373:500 374:510 375:296 376:169 377:210 378:106 379:906 380:378 381:473 382:527 383:571 384:571 385:442 386:317 387:256 388:143 389:866 390:403 391:472 392:457 393:558 394:574 395:368 396:286 397:265 398:181 399:980 400:698 401:564 402:522 403:579 404:509 405:312 406:169 407:226 408:129 409:836 410:837 411:703 412:550 413:539 414:413 415:288 416:173 417:230 418:106 
1 1 1 0 1 1 0:347 1:375 2:436 3:644 4:721 5:372 6:185 7:242 8:122 9:756 10:381 11:531 12:474 13:540 14:576 15:377 16:225 17:240 18:116 19:800 20:333 21:457 22:424 23:474 24:618 25:353 26:254 27:322 28:128 29:897 30:333 31:437 32:437 33:558 34:586 35:405 36:277 37:251 38:142 39:834 40:353 41:424 42:444 43:628 44:691 45:397 46:211 47:215 48:133 49:764 50:406 51:445 52:453 53:565 54:753 55:385 56:210 57:257 58:116 59:850 60:586 61:542 62:419 63:490 64:444 65:267 66:190 67:250 68:135 69:947 70:373 71:457 72:496 73:554 74:626 75:444 76:213 77:244 78:131 79:793 80:503 81:504 82:452 83:339 84:313 85:285 86:260 87:344 88:219 89:1112 90:479 91:591 92:424 93:315 94:290 95:263 96:273 97:354 98:224 99:1118 100:384 101:456 102:415 103:528 104:616 105:321 106:252 107:249 108:139 109:971 110:482 111:583 112:472 113:556 114:586 115:310 116:220 117:282 118:131 119:892 120:656 121:552 122:460 123:429 124:356 125:272 126:209 127:263 128:124 129:949 130:246 131:346 132:380 133:764 134:1028 135:443 136:210 137:189 138:91 139:634 140:275 141:338 142:455 143:745 144:868 145:436 146:253 147:189 148:110 149:662 150:283 151:347 152:415 153:715 154:875 155:466 156:237 157:191 158:114 159:688 160:280 161:326 162:394 163:734 164:1048 165:423 166:242 167:174 168:89 169:621 170:532 171:514 172:505 173:643 174:625 175:346 176:182 177:247 178:94 179:826 180:521 181:492 182:498 183:566 184:592 185:287 186:184 187:217 188:110 189:803 190:356 191:421 192:439 193:584 194:677 195:425 196:241 197:256 198:128 199:804 200:346 201:423 202:472 203:557 204:565 205:427 206:274 207:245 208:143 209:879 210:329 211:438 212:450 213:548 214:617 215:437 216:288 217:232 218:139 219:853 220:375 221:457 222:435 223:510 224:576 225:425 226:290 227:242 228:155 229:866 230:496 231:501 232:521 233:621 234:625 235:317 236:210 237:209 238:120 239:894 240:581 241:509 242:482 243:496 244:427 245:294 246:171 247:259 248:129 249:922 250:410 251:449 252:434 253:545 254:666 255:364 256:239 257:240 258:150 259:834 260:294 261:381 262:414 263:664 264:924 265:479 266:243 267:190 268:95 269:647 270:273 271:360 272:431 273:695 274:945 275:488 276:216 277:171 278:95 279:657 280:429 281:466 282:464 283:472 284:479 285:371 286:251 287:279 288:160 289:960 290:568 291:530 292:486 293:682 294:650 295:339 296:161 297:239 298:96 299:763 300:623 301:580 302:478 303:485 304:429 305:287 306:169 307:209 308:132 309:878 310:476 311:479 312:481 313:505 314:589 315:327 316:231 317:264 318:121 319:858 320:288 321:371 322:388 323:641 324:893 325:447 326:219 327:216 328:113 329:755 330:277 331:351 332:397 333:706 334:963 335:454 336:216 337:180 338:106 339:681 340:473 341:516 342:438 343:484 344:570 345:305 346:194 347:268 348:156 349:927 350:768 351:628 352:518 353:491 354:362 355:261 356:185 357:251 358:114 359:936 360:528 361:554 362:511 363:588 364:538 365:293 366:181 367:247 368:120 369:850 370:471 371:521 372:410 373:615 374:692 375:346 376:190 377:244 378:133 379:851 380:433 381:474 382:513 383:579 384:567 385:369 386:223 387:261 388:124 389:930 390:490 391:515 392:520 393:525 394:499 395:351 396:236 397:266 398:124 399:947 400:534 401:539 402:482 403:549 404:494 405:325 406:214 407:273 408:130 409:933 410:889 411:613 412:593 413:471 414:336 415:281 416:177 417:259 418:112 
1 1 1 0 1 1 0:351 1:398 2:422 3:623 4:717 5:350 6:220 7:225 8:121 9:773 10:340 11:409 12:443 13:600 14:704 15:421 16:215 17:232 18:123 19:773 20:393 21:446 22:410 23:466 24:621 25:339 26:247 27:262 28:155 29:921 30:411 31:466 32:401 33:457 34:587 35:368 36:226 37:267 38:159 39:918 40:321 41:387 42:409 43:743 44:830 45:401 46:228 47:185 48:93 49:663 50:396 51:424 52:430 53:560 54:700 55:374 56:242 57:197 58:135 59:802 60:387 61:423 62:422 63:680 64:827 65:423 66:179 67:184 68:92 69:653 70:473 71:539 72:452 73:392 74:364 75:325 76:260 77:316 78:174 79:1036 80:479 81:502 82:450 83:371 84:415 85:320 86:262 87:290 88:179 89:1063 90:440 91:488 92:406 93:430 94:489 95:368 96:262 97:276 98:161 99:1011 100:437 101:492 102:416 103:462 104:535 105:329 106:255 107:281 108:149 109:975 110:447 111:450 112:493 113:549 114:630 115:355 116:221 117:230 118:109 119:847 120:474 121:449 122:440 123:628 124:650 125:404 126:198 127:198 128:100 129:729 130:287 131:307 132:402 133:675 134:1028 135:437 136:208 137:221 138:105 139:661 140:266 141:347 142:428 143:717 144:959 145:459 146:239 147:196 148:105 149:615 150:275 151:328 152:444 153:700 154:915 155:461 156:235 157:205 158:98 159:670 160:328 161:379 162:371 163:549 164:867 165:383 166:237 167:250 168:131 169:836 170:400 171:394 172:451 173:652 174:894 175:380 176:190 177:207 178:95 179:668 180:303 181:361 182:397 183:724 184:971 185:409 186:205 187:173 188:95 189:632 190:443 191:488 192:447 193:444 194:473 195:377 196:259 197:284 198:157 199:959 200:411 201:444 202:460 203:475 204:522 205:393 206:286 207:267 208:156 209:917 210:388 211:465 212:449 213:489 214:503 215:359 216:271 217:284 218:155 219:968 220:448 221:529 222:398 223:416 224:440 225:315 226:249 227:314 228:189 229:1033 230:282 231:366 232:444 233:685 234:903 235:492 236:222 237:185 238:89 239:663 240:406 241:491 242:393 243:595 244:859 245:343 246:175 247:209 248:103 249:696 250:477 251:549 252:452 253:364 254:365 255:329 256:255 257:315 258:169 259:1056 260:318 261:405 262:442 263:575 264:820 265:487 266:240 267:205 268:112 269:727 270:383 271:383 272:419 273:557 274:730 275:436 276:240 277:234 278:132 279:817 280:482 281:536 282:421 283:398 284:326 285:341 286:245 287:316 288:186 289:1080 290:368 291:369 292:426 293:621 294:867 295:412 296:220 297:206 298:118 299:724 300:458 301:505 302:440 303:551 304:646 305:355 306:180 307:257 308:122 309:756 310:423 311:489 312:445 313:454 314:593 315:364 316:260 317:256 318:139 319:908 320:275 321:352 322:400 323:715 324:981 325:473 326:238 327:184 328:101 329:612 330:267 331:337 332:386 333:693 334:997 335:469 336:223 337:179 338:106 339:674 340:473 341:537 342:436 343:393 344:389 345:293 346:274 347:299 348:186 349:1051 350:525 351:511 352:479 353:514 354:625 355:324 356:174 357:233 358:120 359:826 360:443 361:467 362:413 363:587 364:620 365:358 366:194 367:217 368:127 369:774 370:425 371:420 372:444 373:643 374:721 375:388 376:190 377:219 378:97 379:713 380:366 381:428 382:478 383:586 384:587 385:405 386:235 387:226 388:129 389:820 390:407 391:447 392:460 393:568 394:543 395:351 396:202 397:256 398:134 399:892 400:422 401:453 402:440 403:556 404:563 405:372 406:216 407:225 408:127 409:886 410:652 411:551 412:491 413:511 414:456 415:271 416:189 417:228 418:96 
1 1 1 0 1 1 0:514 1:442 2:373 3:400 4:601 5:310 6:173 7:239 8:142 9:877 10:478 11:477 12:445 13:468 14:491 15:271 16:197 17:235 18:135 19:933 20:527 21:526 22:433 23:522 24:452 25:276 26:178 27:241 28:135 29:840 30:551 31:546 32:506 33:493 34:414 35:253 36:193 37:256 38:115 39:803 40:655 41:587 42:500 43:428 44:341 45:263 46:174 47:234 48:103 49:845 50:432 51:483 52:368 53:417 54:601 55:296 56:189 57:260 58:146 59:938 60:419 61:450 62:416 63:614 64:736 65:317 66:183 67:189 68:112 69:704 70:319 71:416 72:454 73:583 74:724 75:393 76:237 77:222 78:120 79:732 80:423 81:391 82:508 83:604 84:636 85:400 86:216 87:193 88:93 89:736 90:426 91:433 92:437 93:628 94:810 95:345 96:154 97:190 98:86 99:691 100:634 101:506 102:434 103:486 104:699 105:299 106:156 107:196 108:79 109:711 110:540 111:399 112:419 113:519 114:713 115:290 116:168 117:251 118:116 119:785 120:446 121:415 122:416 123:657 124:759 125:352 126:162 127:173 128:96 129:664 130:264 131:309 132:339 133:599 134:1026 135:429 136:183 137:220 138:128 139:703 140:228 141:312 142:398 143:651 144:1017 145:481 146:230 147:210 148:87 149:586 150:186 151:260 152:350 153:756 154:1120 155:468 156:214 157:187 158:82 159:577 160:259 161:318 162:339 163:621 164:1000 165:444 166:222 167:195 168:94 169:708 170:566 171:443 172:414 173:582 174:791 175:298 176:171 177:199 178:100 179:636 180:437 181:419 182:426 183:606 184:730 185:368 186:180 187:163 188:97 189:714 190:354 191:430 192:423 193:465 194:549 195:385 196:267 197:278 198:163 199:886 200:343 201:411 202:427 203:462 204:521 205:396 206:283 207:277 208:152 209:928 210:347 211:408 212:427 213:500 214:530 215:418 216:296 217:273 218:149 219:852 220:400 221:439 222:438 223:446 224:494 225:366 226:286 227:250 228:169 229:912 230:358 231:404 232:380 233:731 234:884 235:405 236:161 237:213 238:85 239:579 240:538 241:467 242:452 243:562 244:589 245:293 246:170 247:196 248:107 249:766 250:400 251:460 252:429 253:426 254:406 255:339 256:252 257:290 258:155 259:1043 260:338 261:416 262:384 263:508 264:664 265:427 266:250 267:234 268:141 269:838 270:336 271:377 272:418 273:515 274:682 275:406 276:236 277:261 278:130 279:839 280:459 281:484 282:397 283:396 284:379 285:318 286:277 287:308 288:167 289:1015 290:442 291:414 292:416 293:659 294:791 295:367 296:166 297:215 298:89 299:641 300:646 301:516 302:411 303:582 304:411 305:272 306:161 307:236 308:111 309:794 310:474 311:480 312:408 313:415 314:552 315:320 316:278 317:275 318:131 319:867 320:371 321:424 322:413 323:560 324:646 325:420 326:212 327:217 328:127 329:810 330:355 331:400 332:407 333:619 334:766 335:392 336:212 337:209 338:98 339:742 340:490 341:482 342:411 343:363 344:501 345:277 346:208 347:286 348:179 349:1003 350:592 351:522 352:462 353:546 354:447 355:270 356:166 357:254 358:117 359:824 360:562 361:501 362:486 363:553 364:502 365:296 366:160 367:243 368:92 369:745 370:636 371:530 372:442 373:493 374:536 375:289 376:181 377:223 378:110 379:760 380:344 381:386 382:400 383:582 384:662 385:390 386:266 387:196 388:136 389:838 390:302 391:389 392:415 393:592 394:697 395:385 396:267 397:228 398:127 399:798 400:575 401:519 402:465 403:461 404:505 405:297 406:161 407:238 408:133 409:846 410:608 411:526 412:422 413:524 414:427 415:293 416:177 417:231 418:135 
1 1 1 0 1 1 0:340 1:422 2:398 3:598 4:777 5:330 6:213 7:231 8:116 9:775 10:319 11:414 12:439 13:452 14:637 15:369 16:293 17:294 18:152 19:891 20:298 21:380 22:372 23:564 24:793 25:366 26:242 27:237 28:139 29:869 30:308 31:423 32:442 33:506 34:652 35:378 36:306 37:279 38:136 39:830 40:363 41:435 42:449 43:479 44:576 45:334 46:258 47:281 48:149 49:936 50:322 51:419 52:394 53:576 54:689 55:444 56:268 57:240 58:152 59:876 60:433 61:510 62:440 63:486 64:539 65:365 66:207 67:260 68:134 69:896 70:334 71:415 72:452 73:565 74:719 75:347 76:229 77:262 78:139 79:869 80:434 81:440 82:406 83:427 84:602 85:320 86:240 87:324 88:177 89:961 90:374 91:457 92:387 93:465 94:560 95:374 96:266 97:311 98:170 99:967 100:295 101:409 102:419 103:607 104:756 105:428 106:247 107:254 108:130 109:786 110:537 111:559 112:476 113:494 114:531 115:326 116:206 117:271 118:124 119:929 120:464 121:428 122:446 123:667 124:719 125:366 126:177 127:199 128:102 129:702 130:261 131:358 132:480 133:633 134:828 135:438 136:264 137:223 138:119 139:727 140:260 141:372 142:466 143:614 144:811 145:420 146:267 147:234 148:132 149:755 150:290 151:331 152:463 153:584 154:825 155:425 156:267 157:233 158:129 159:784 160:288 161:325 162:455 163:636 164:897 165:403 166:234 167:236 168:120 169:737 170:650 171:594 172:485 173:505 174:574 175:298 176:166 177:218 178:117 179:846 180:411 181:405 182:434 183:672 184:866 185:373 186:161 187:179 188:84 189:685 190:398 191:489 192:444 193:469 194:511 195:373 196:239 197:274 198:168 199:966 200:354 201:469 202:400 203:516 204:594 205:407 206:256 207:250 208:164 209:921 210:372 211:495 212:451 213:476 214:516 215:404 216:285 217:291 218:152 219:889 220:386 221:489 222:461 223:460 224:495 225:380 226:277 227:279 228:154 229:950 230:593 231:464 232:516 233:665 234:646 235:349 236:191 237:206 238:101 239:722 240:577 241:465 242:455 243:621 244:738 245:344 246:144 247:183 248:86 249:657 250:456 251:543 252:461 253:363 254:362 255:309 256:252 257:316 258:184 259:1085 260:352 261:428 262:426 263:511 264:602 265:423 266:271 267:262 268:157 269:899 270:302 271:400 272:476 273:616 274:713 275:451 276:272 277:217 278:116 279:768 280:489 281:559 282:443 283:355 284:332 285:290 286:258 287:322 288:184 289:1099 290:570 291:475 292:504 293:616 294:684 295:317 296:206 297:226 298:100 299:755 300:500 301:461 302:504 303:570 304:732 305:338 306:151 307:202 308:111 309:701 310:447 311:491 312:440 313:487 314:615 315:313 316:231 317:270 318:132 319:905 320:310 321:316 322:390 323:651 324:984 325:416 326:188 327:217 328:109 329:750 330:253 331:317 332:393 333:693 334:1077 335:463 336:211 337:179 338:102 339:643 340:508 341:513 342:456 343:385 344:512 345:281 346:186 347:305 348:173 349:1012 350:688 351:569 352:563 353:553 354:448 355:325 356:203 357:199 358:99 359:806 360:463 361:439 362:406 363:694 364:737 365:365 366:180 367:226 368:101 369:729 370:537 371:493 372:452 373:569 374:633 375:304 376:182 377:244 378:117 379:871 380:417 381:441 382:482 383:539 384:537 385:397 386:293 387:268 388:150 389:878 390:419 391:492 392:455 393:547 394:547 395:359 396:292 397:256 398:129 399:906 400:518 401:566 402:490 403:497 404:478 405:316 406:218 407:265 408:132 409:922 410:693 411:542 412:570 413:573 414:468 415:334 416:206 417:184 418:127 
1 1 1 0 1 1 0:506 1:516 2:482 3:556 4:486 5:324 6:191 7:196 8:110 9:833 10:334 11:406 12:461 13:624 14:667 15:422 16:234 17:216 18:106 19:790 20:497 21:504 22:453 23:427 24:426 25:311 26:238 27:274 28:145 29:985 30:459 31:469 32:435 33:406 34:408 35:318 36:252 37:298 38:164 39:1051 40:309 41:365 42:413 43:617 44:648 45:419 46:228 47:231 48:134 49:896 50:472 51:541 52:400 53:433 54:458 55:284 56:215 57:267 58:150 59:1100 60:699 61:572 62:493 63:472 64:377 65:245 66:178 67:255 68:104 69:875 70:367 71:409 72:442 73:611 74:745 75:404 76:239 77:218 78:118 79:778 80:533 81:546 82:437 83:343 84:316 85:284 86:270 87:304 88:186 89:1112 90:533 91:563 92:468 93:359 94:281 95:316 96:245 97:327 98:177 99:1062 100:411 101:473 102:440 103:455 104:494 105:338 106:271 107:286 108:160 109:1003 110:568 111:550 112:524 113:514 114:512 115:281 116:190 117:232 118:121 119:900 120:780 121:624 122:535 123:467 124:337 125:229 126:151 127:216 128:93 129:838 130:218 131:334 132:364 133:724 134:1086 135:430 136:205 137:186 138:104 139:680 140:227 141:317 142:345 143:690 144:1085 145:480 146:227 147:191 148:103 149:666 150:280 151:339 152:449 153:642 154:899 155:480 156:259 157:201 158:98 159:684 160:273 161:372 162:354 163:609 164:988 165:432 166:208 167:211 168:122 169:762 170:645 171:542 172:483 173:566 174:585 175:287 176:163 177:226 178:97 179:798 180:512 181:511 182:524 183:619 184:564 185:335 186:196 187:192 188:100 189:717 190:401 191:448 192:438 193:520 194:568 195:384 196:260 197:268 198:144 199:900 200:415 201:453 202:453 203:456 204:538 205:344 206:285 207:269 208:186 209:932 210:357 211:468 212:432 213:488 214:516 215:386 216:270 217:262 218:160 219:992 220:397 221:485 222:440 223:487 224:529 225:361 226:261 227:286 228:155 229:930 230:738 231:495 232:502 233:579 234:541 235:323 236:157 237:227 238:76 239:754 240:448 241:440 242:536 243:619 244:742 245:340 246:185 247:171 248:99 249:690 250:416 251:486 252:429 253:454 254:518 255:353 256:262 257:275 258:160 259:978 260:376 261:436 262:389 263:489 264:655 265:402 266:271 267:257 268:150 269:906 270:362 271:400 272:415 273:579 274:709 275:440 276:268 277:248 278:121 279:789 280:463 281:513 282:372 283:363 284:349 285:357 286:286 287:289 288:208 289:1131 290:552 291:486 292:512 293:634 294:647 295:307 296:177 297:240 298:96 299:741 300:761 301:522 302:536 303:506 304:363 305:275 306:155 307:229 308:94 309:829 310:534 311:566 312:363 313:384 314:538 315:284 316:215 317:297 318:177 319:973 320:331 321:374 322:347 323:616 324:876 325:455 326:205 327:222 328:137 329:768 330:277 331:314 332:416 333:682 334:1028 335:474 336:196 337:199 338:102 339:643 340:483 341:505 342:429 343:358 344:534 345:299 346:210 347:286 348:182 349:1045 350:722 351:579 352:526 353:420 354:366 355:283 356:200 357:236 358:116 359:944 360:609 361:561 362:563 363:511 364:421 365:295 366:148 367:220 368:99 369:843 370:550 371:431 372:434 373:573 374:564 375:333 376:204 377:237 378:124 379:881 380:378 381:453 382:448 383:527 384:478 385:436 386:280 387:255 388:157 389:919 390:412 391:491 392:474 393:453 394:433 395:396 396:275 397:285 398:155 399:957 400:528 401:461 402:454 403:562 404:566 405:331 406:202 407:246 408:130 409:851 410:703 411:625 412:547 413:485 414:356 415:289 416:175 417:255 418:102 
1 1 1 0 1 1 0:533 1:510 2:487 3:532 4:475 5:283 6:211 7:265 8:134 9:901 10:524 11:513 12:523 13:646 14:552 15:327 16:224 17:217 18:107 19:759 20:420 21:440 22:465 23:622 24:732 25:366 26:237 27:242 28:119 29:749 30:436 31:446 32:508 33:636 34:659 35:395 36:199 37:243 38:110 39:760 40:639 41:568 42:490 43:499 44:438 45:288 46:195 47:247 48:121 49:907 50:849 51:643 52:539 53:448 54:297 55:269 56:170 57:239 58:103 59:957 60:761 61:611 62:519 63:505 64:349 65:260 66:166 67:199 68:106 69:926 70:371 71:427 72:419 73:613 74:743 75:388 76:225 77:246 78:149 79:883 80:398 81:435 82:367 83:494 84:775 85:345 86:237 87:314 88:159 89:940 90:411 91:486 92:358 93:477 94:583 95:350 96:219 97:349 98:195 99:1036 100:368 101:429 102:465 103:630 104:786 105:405 106:216 107:230 108:119 109:816 110:816 111:654 112:550 113:520 114:327 115:281 116:170 117:246 118:116 119:908 120:788 121:608 122:512 123:515 124:431 125:275 126:138 127:199 128:95 129:841 130:276 131:329 132:375 133:657 134:1156 135:436 136:224 137:207 138:107 139:697 140:275 141:355 142:399 143:689 144:990 145:501 146:211 147:204 148:109 149:731 150:277 151:366 152:407 153:737 154:976 155:472 156:222 157:192 158:128 159:687 160:274 161:336 162:431 163:709 164:1070 165:429 166:188 167:224 168:101 169:702 170:814 171:607 172:587 173:620 174:500 175:300 176:145 177:203 178:83 179:729 180:504 181:439 182:478 183:715 184:798 185:365 186:171 187:183 188:86 189:663 190:424 191:478 192:443 193:532 194:558 195:395 196:269 197:231 198:167 199:967 200:433 201:511 202:450 203:418 204:541 205:319 206:247 207:323 208:183 209:1039 210:415 211:458 212:448 213:505 214:547 215:416 216:255 217:258 218:170 219:992 220:418 221:467 222:457 223:505 224:591 225:387 226:257 227:264 228:168 229:950 230:656 231:492 232:507 233:723 234:780 235:370 236:161 237:200 238:73 239:626 240:654 241:534 242:506 243:533 244:568 245:318 246:161 247:209 248:110 249:809 250:456 251:484 252:430 253:386 254:519 255:314 256:284 257:261 258:199 259:1131 260:343 261:364 262:448 263:606 264:746 265:431 266:287 267:276 268:115 269:848 270:295 271:396 272:437 273:673 274:843 275:432 276:273 277:219 278:117 279:779 280:477 281:484 282:457 283:471 284:512 285:351 286:245 287:283 288:182 289:1002 290:770 291:544 292:559 293:594 294:667 295:265 296:161 297:200 298:91 299:737 300:872 301:618 302:556 303:450 304:286 305:224 306:147 307:216 308:96 309:937 310:633 311:538 312:456 313:369 314:507 315:282 316:206 317:293 318:156 319:1024 320:344 321:378 322:382 323:678 324:1031 325:403 326:212 327:227 328:99 329:710 330:313 331:318 332:428 333:802 334:1111 335:483 336:192 337:154 338:91 339:572 340:635 341:546 342:424 343:458 344:507 345:311 346:205 347:260 348:148 349:970 350:868 351:683 352:560 353:486 354:315 355:272 356:160 357:218 358:117 359:909 360:890 361:660 362:520 363:434 364:342 365:257 366:112 367:236 368:111 369:840 370:725 371:507 372:418 373:544 374:499 375:307 376:175 377:251 378:125 379:913 380:409 381:444 382:459 383:524 384:547 385:356 386:244 387:297 388:187 389:997 390:391 391:442 392:464 393:580 394:588 395:387 396:260 397:248 398:158 399:946 400:642 401:539 402:438 403:628 404:571 405:330 406:181 407:217 408:104 409:814 410:806 411:662 412:520 413:467 414:396 415:228 416:146 417:234 418:125 
1 1 1 0 1 1 0:524 1:469 2:383 3:388 4:632 5:274 6:165 7:229 8:161 9:975 10:406 11:397 12:375 13:651 14:917 15:355 16:181 17:203 18:73 19:702 20:464 21:505 22:391 23:487 24:512 25:300 26:253 27:312 28:141 29:895 30:320 31:367 32:411 33:642 34:875 35:437 36:191 37:225 38:100 39:692 40:524 41:436 42:420 43:656 44:705 45:377 46:161 47:194 48:83 49:704 50:705 51:598 52:450 53:426 54:533 55:242 56:171 57:246 58:154 59:915 60:795 61:569 62:455 63:408 64:473 65:249 66:163 67:225 68:110 69:823 70:387 71:441 72:403 73:570 74:766 75:360 76:244 77:241 78:126 79:793 80:355 81:407 82:407 83:515 84:727 85:415 86:228 87:270 88:162 89:845 90:334 91:322 92:372 93:615 94:887 95:425 96:261 97:228 98:123 99:764 100:323 101:418 102:428 103:636 104:837 105:420 106:237 107:246 108:97 109:689 110:854 111:653 112:425 113:488 114:456 115:239 116:132 117:239 118:127 119:901 120:934 121:639 122:455 123:428 124:379 125:213 126:105 127:218 128:85 129:814 130:259 131:347 132:357 133:589 134:1042 135:431 136:222 137:231 138:126 139:727 140:244 141:290 142:423 143:715 144:1029 145:485 146:252 147:196 148:89 149:608 150:243 151:337 152:428 153:707 154:952 155:467 156:246 157:183 158:103 159:665 160:227 161:350 162:350 163:638 164:1141 165:399 166:222 167:226 168:102 169:676 170:800 171:573 172:493 173:556 174:462 175:262 176:154 177:250 178:104 179:860 180:706 181:512 182:454 183:608 184:580 185:296 186:137 187:195 188:95 189:687 190:415 191:465 192:433 193:479 194:489 195:382 196:300 197:261 198:150 199:957 200:353 201:407 202:462 203:570 204:643 205:421 206:260 207:253 208:134 209:828 210:332 211:436 212:430 213:537 214:602 215:436 216:267 217:271 218:131 219:889 220:410 221:492 222:419 223:486 224:514 225:372 226:255 227:275 228:165 229:943 230:622 231:526 232:479 233:736 234:632 235:357 236:163 237:177 238:96 239:726 240:713 241:537 242:417 243:505 244:545 245:289 246:175 247:191 248:93 249:805 250:483 251:505 252:428 253:363 254:432 255:313 256:247 257:324 258:192 259:1044 260:345 261:441 262:404 263:524 264:718 265:417 266:234 267:263 268:123 269:862 270:338 271:402 272:401 273:527 274:739 275:446 276:279 277:242 278:119 279:838 280:503 281:537 282:398 283:300 284:291 285:245 286:285 287:340 288:214 289:1218 290:511 291:450 292:479 293:626 294:871 295:369 296:184 297:213 298:90 299:721 300:639 301:447 302:439 303:536 304:667 305:303 306:168 307:212 308:113 309:746 310:512 311:518 312:432 313:403 314:524 315:275 316:220 317:293 318:161 319:993 320:345 321:389 322:398 323:568 324:816 325:404 326:239 327:233 328:143 329:796 330:305 331:334 332:398 333:683 334:978 335:451 336:216 337:211 338:110 339:645 340:481 341:554 342:400 343:328 344:454 345:228 346:267 347:311 348:189 349:1119 350:358 351:396 352:433 353:665 354:982 355:374 356:235 357:225 358:111 359:735 360:412 361:430 362:430 363:591 364:656 365:433 366:238 367:247 368:130 369:843 370:459 371:428 372:452 373:616 374:667 375:453 376:213 377:245 378:134 379:806 380:401 381:527 382:441 383:496 384:524 385:398 386:278 387:298 388:136 389:974 390:398 391:442 392:463 393:532 394:625 395:424 396:251 397:273 398:145 399:920 400:430 401:456 402:401 403:586 404:651 405:394 406:222 407:269 408:138 409:926 410:389 411:445 412:465 413:594 414:727 415:444 416:302 417:238 418:148 
1 1 1 0 1 1 0:878 1:658 2:441 3:384 4:398 5:223 6:118 7:203 8:114 9:783 10:660 11:524 12:494 13:540 14:544 15:328 16:174 17:208 18:84 19:704 20:377 21:431 22:428 23:528 24:605 25:378 26:240 27:300 28:130 29:843 30:494 31:491 32:440 33:671 34:680 35:351 36:163 37:204 38:89 39:677 40:704 41:586 42:541 43:551 44:456 45:257 46:126 47:219 48:90 49:730 50:760 51:555 52:503 53:442 54:419 55:242 56:118 57:235 58:101 59:885 60:939 61:599 62:486 63:388 64:309 65:231 66:130 67:234 68:108 69:846 70:348 71:425 72:362 73:571 74:746 75:413 76:227 77:257 78:139 79:843 80:366 81:482 82:369 83:425 84:601 85:299 86:261 87:350 88:182 89:996 90:397 91:462 92:356 93:422 94:616 95:342 96:245 97:343 98:200 99:948 100:391 101:444 102:416 103:536 104:683 105:395 106:258 107:232 108:136 109:840 110:908 111:644 112:511 113:441 114:297 115:235 116:133 117:214 118:91 119:857 120:599 121:494 122:367 123:589 124:650 125:336 126:130 127:204 128:115 129:786 130:294 131:368 132:404 133:576 134:846 135:398 136:221 137:250 138:140 139:834 140:300 141:339 142:399 143:644 144:923 145:389 146:255 147:202 148:125 149:755 150:269 151:346 152:423 153:724 154:916 155:443 156:224 157:211 158:103 159:672 160:283 161:372 162:363 163:625 164:963 165:387 166:231 167:220 168:122 169:765 170:771 171:557 172:516 173:523 174:481 175:276 176:117 177:236 178:87 179:767 180:578 181:426 182:395 183:608 184:756 185:339 186:149 187:193 188:110 189:716 190:411 191:449 192:458 193:451 194:466 195:315 196:289 197:303 198:160 199:1029 200:368 201:463 202:409 203:470 204:536 205:381 206:280 207:291 208:164 209:969 210:387 211:468 212:400 213:488 214:502 215:370 216:306 217:253 218:172 219:985 220:393 221:447 222:444 223:475 224:520 225:382 226:273 227:282 228:156 229:959 230:877 231:534 232:455 233:474 234:509 235:247 236:116 237:200 238:91 239:828 240:892 241:602 242:446 243:389 244:376 245:209 246:127 247:256 248:108 249:865 250:473 251:496 252:465 253:355 254:400 255:336 256:215 257:319 258:171 259:1101 260:302 261:418 262:465 263:593 264:685 265:459 266:283 267:230 268:118 269:778 270:315 271:368 272:432 273:641 274:726 275:473 276:253 277:221 278:127 279:775 280:484 281:537 282:408 283:375 284:457 285:288 286:252 287:305 288:178 289:1047 290:1133 291:610 292:446 293:438 294:296 295:194 296:113 297:207 298:76 299:818 300:1041 301:671 302:498 303:402 304:222 305:212 306:123 307:206 308:84 309:811 310:604 311:519 312:448 313:424 314:524 315:261 316:209 317:262 318:138 319:942 320:307 321:378 322:417 323:694 324:880 325:410 326:256 327:203 328:103 329:683 330:303 331:357 332:443 333:684 334:873 335:412 336:208 337:207 338:114 339:730 340:656 341:502 342:400 343:478 344:483 345:282 346:177 347:279 348:138 349:936 350:1218 351:637 352:514 353:434 354:213 355:172 356:115 357:205 358:73 359:750 360:930 361:649 362:462 363:358 364:202 365:203 366:138 367:213 368:89 369:956 370:488 371:480 372:413 373:544 374:593 375:309 376:221 377:226 378:118 379:868 380:464 381:464 382:425 383:454 384:435 385:302 386:193 387:323 388:161 389:1039 390:475 391:514 392:422 393:457 394:392 395:307 396:243 397:297 398:146 399:1007 400:537 401:468 402:472 403:543 404:526 405:321 406:204 407:230 408:120 409:839 410:988 411:670 412:502 413:422 414:201 415:185 416:125 417:251 418:84 
1 1 1 0 1 1 0:811 1:616 2:500 3:393 4:264 5:214 6:173 7:231 8:105 9:893 10:507 11:491 12:393 13:534 14:653 15:369 16:214 17:203 18:113 19:783 20:419 21:557 22:388 23:384 24:416 25:321 26:281 27:298 28:172 29:1024 30:426 31:498 32:414 33:433 34:481 35:335 36:280 37:317 38:150 39:926 40:375 41:451 42:411 43:565 44:691 45:366 46:221 47:229 48:139 49:812 50:716 51:573 52:489 53:499 54:447 55:263 56:170 57:276 58:134 59:933 60:830 61:553 62:492 63:441 64:369 65:247 66:150 67:248 68:118 69:822 70:415 71:493 72:427 73:415 74:547 75:325 76:218 77:286 78:182 79:1023 80:526 81:523 82:382 83:351 84:345 85:282 86:219 87:358 88:195 89:1150 90:506 91:548 92:387 93:344 94:309 95:284 96:223 97:379 98:182 99:1169 100:422 101:433 102:470 103:435 104:576 105:373 106:232 107:255 108:165 109:970 110:912 111:658 112:496 113:486 114:334 115:251 116:143 117:230 118:117 119:948 120:694 121:544 122:493 123:505 124:524 125:279 126:135 127:214 128:87 129:795 130:291 131:357 132:371 133:618 134:948 135:400 136:211 137:223 138:132 139:780 140:256 141:363 142:426 143:657 144:960 145:460 146:228 147:193 148:116 149:672 150:260 151:333 152:365 153:661 154:929 155:468 156:241 157:214 158:119 159:741 160:316 161:385 162:347 163:591 164:849 165:465 166:238 167:231 168:127 169:782 170:809 171:589 172:506 173:537 174:485 175:263 176:142 177:272 178:100 179:872 180:491 181:470 182:439 183:612 184:691 185:362 186:173 187:208 188:103 189:721 190:453 191:510 192:410 193:389 194:377 195:344 196:263 197:300 198:172 199:1113 200:384 201:431 202:444 203:508 204:573 205:409 206:267 207:266 208:148 209:901 210:371 211:472 212:422 213:478 214:533 215:397 216:284 217:240 218:171 219:963 220:475 221:513 222:434 223:345 224:382 225:307 226:259 227:330 228:181 229:1105 230:548 231:507 232:465 233:647 234:604 235:352 236:202 237:230 238:118 239:902 240:737 241:507 242:474 243:507 244:531 245:230 246:178 247:212 248:104 249:790 250:505 251:503 252:418 253:365 254:335 255:279 256:262 257:320 258:207 259:1137 260:312 261:384 262:400 263:544 264:809 265:449 266:267 267:222 268:115 269:829 270:321 271:401 272:380 273:577 274:777 275:437 276:252 277:219 278:141 279:826 280:434 281:495 282:446 283:401 284:409 285:332 286:252 287:298 288:175 289:1089 290:723 291:596 292:514 293:499 294:444 295:296 296:151 297:292 298:132 299:928 300:734 301:546 302:463 303:430 304:368 305:208 306:166 307:281 308:135 309:939 310:466 311:486 312:425 313:386 314:492 315:276 316:249 317:291 318:194 319:1066 320:270 321:324 322:405 323:674 324:978 325:451 326:219 327:208 328:108 329:694 330:295 331:318 332:390 333:684 334:933 335:452 336:223 337:241 338:126 339:669 340:463 341:515 342:428 343:345 344:411 345:285 346:270 347:317 348:194 349:1103 350:694 351:601 352:489 353:502 354:523 355:242 356:163 357:291 358:118 359:952 360:500 361:510 362:384 363:462 364:605 365:341 366:234 367:274 368:165 369:1005 370:476 371:500 372:425 373:402 374:599 375:331 376:243 377:322 378:167 379:1079 380:449 381:474 382:505 383:486 384:485 385:359 386:280 387:297 388:174 389:1035 390:427 391:525 392:396 393:444 394:544 395:348 396:284 397:312 398:172 399:1092 400:508 401:524 402:446 403:416 404:492 405:306 406:268 407:327 408:182 409:1075 410:526 411:549 412:406 413:470 414:616 415:313 416:236 417:314 418:168 
1 1 1 0 1 1 0:410 1:479 2:364 3:407 4:430 5:290 6:241 7:320 8:175 9:1084 10:665 11:545 12:530 13:513 14:429 15:314 16:193 17:208 18:101 19:762 20:389 21:460 22:456 23:553 24:672 25:373 26:226 27:227 28:110 29:794 30:433 31:418 32:500 33:619 34:729 35:389 36:208 37:202 38:80 39:682 40:776 41:588 42:547 43:461 44:327 45:245 46:142 47:233 48:92 49:849 50:527 51:511 52:376 53:380 54:543 55:263 56:215 57:261 58:164 59:1080 60:503 61:498 62:376 63:389 64:533 65:290 66:205 67:314 68:168 69:994 70:400 71:428 72:501 73:517 74:662 75:377 76:231 77:241 78:126 79:848 80:448 81:502 82:392 83:448 84:505 85:314 86:261 87:279 88:168 89:1014 90:447 91:474 92:405 93:461 94:464 95:356 96:258 97:275 98:177 99:1014 100:339 101:385 102:443 103:657 104:959 105:380 106:190 107:173 108:88 109:717 110:589 111:500 112:436 113:482 114:623 115:309 116:197 117:217 118:150 119:889 120:602 121:451 122:376 123:461 124:613 125:282 126:187 127:237 128:147 129:914 130:280 131:309 132:358 133:696 134:1127 135:404 136:205 137:209 138:95 139:648 140:263 141:320 142:438 143:704 144:985 145:486 146:213 147:198 148:96 149:628 150:214 151:296 152:395 153:802 154:1153 155:458 156:188 157:200 158:83 159:542 160:219 161:291 162:336 163:699 164:1232 165:426 166:189 167:192 168:96 169:651 170:699 171:547 172:501 173:590 174:574 175:285 176:137 177:203 178:95 179:761 180:371 181:400 182:347 183:475 184:899 185:295 186:198 187:250 188:146 189:889 190:346 191:442 192:429 193:639 194:683 195:423 196:267 197:214 198:113 199:775 200:349 201:399 202:458 203:613 204:665 205:423 206:249 207:247 208:124 209:804 210:330 211:412 212:418 213:573 214:675 215:433 216:268 217:244 218:142 219:836 220:450 221:531 222:417 223:436 224:444 225:345 226:246 227:300 228:160 229:1002 230:318 231:317 232:385 233:755 234:1198 235:376 236:181 237:155 238:93 239:614 240:473 241:472 242:363 243:392 244:646 245:311 246:203 247:279 248:154 249:977 250:335 251:447 252:418 253:520 254:709 255:386 256:249 257:279 258:140 259:848 260:246 261:342 262:356 263:688 264:1041 265:546 266:249 267:170 268:87 269:606 270:261 271:326 272:395 273:706 274:1005 275:519 276:210 277:182 278:93 279:634 280:430 281:484 282:470 283:464 284:454 285:364 286:269 287:297 288:152 289:947 290:258 291:348 292:390 293:675 294:1160 295:395 296:217 297:208 298:102 299:639 300:663 301:536 302:486 303:440 304:516 305:302 306:182 307:199 308:118 309:828 310:481 311:468 312:439 313:469 314:648 315:362 316:227 317:242 318:142 319:853 320:208 321:301 322:388 323:791 324:1100 325:491 326:233 327:164 328:91 329:564 330:237 331:313 332:407 333:756 334:1084 335:462 336:231 337:191 338:93 339:557 340:366 341:453 342:420 343:527 344:649 345:372 346:279 347:239 348:146 349:880 350:729 351:551 352:477 353:495 354:501 355:280 356:172 357:234 358:96 359:857 360:554 361:576 362:355 363:326 364:284 365:238 366:224 367:365 368:190 369:1158 370:456 371:496 372:400 373:396 374:477 375:339 376:268 377:307 378:173 379:1019 380:380 381:434 382:459 383:531 384:532 385:411 386:290 387:259 388:141 389:894 390:391 391:410 392:466 393:518 394:616 395:402 396:266 397:227 398:150 399:885 400:443 401:511 402:433 403:452 404:496 405:353 406:210 407:303 408:159 409:971 410:559 411:550 412:381 413:344 414:394 415:220 416:222 417:314 418:205 
1 1 1 0 1 1 0:332 1:381 2:298 3:415 4:956 5:225 6:170 7:210 8:125 9:832 10:239 11:339 12:348 13:548 14:918 15:349 16:191 17:201 18:116 19:753 20:234 21:350 22:413 23:700 24:806 25:411 26:230 27:192 28:107 29:559 30:266 31:349 32:410 33:523 34:748 35:325 36:213 37:222 38:121 39:825 40:339 41:381 42:379 43:450 44:579 45:335 46:207 47:204 48:120 49:1008 50:349 51:414 52:304 53:433 54:911 55:290 56:161 57:196 58:147 59:913 60:432 61:454 62:364 63:444 64:806 65:277 66:139 67:203 68:101 69:792 70:369 71:398 72:483 73:719 74:717 75:358 76:193 77:164 78:76 79:594 80:206 81:251 82:358 83:613 84:1106 85:492 86:238 87:164 88:89 89:554 90:245 91:313 92:385 93:600 94:835 95:469 96:258 97:167 98:98 99:701 100:334 101:393 102:407 103:602 104:845 105:358 106:195 107:173 108:84 109:680 110:436 111:404 112:448 113:570 114:698 115:322 116:182 117:212 118:104 119:813 120:529 121:460 122:461 123:516 124:491 125:298 126:153 127:184 128:119 129:801 130:177 131:253 132:320 133:757 134:1137 135:474 136:225 137:151 138:76 139:501 140:252 141:323 142:397 143:602 144:879 145:442 146:244 147:192 148:101 149:639 150:233 151:286 152:354 153:596 154:1024 155:461 156:222 157:207 158:82 159:606 160:242 161:316 162:392 163:595 164:906 165:453 166:253 167:198 168:84 169:632 170:367 171:378 172:336 173:569 174:1029 175:286 176:150 177:187 178:117 179:770 180:557 181:466 182:412 183:520 184:603 185:276 186:144 187:189 188:94 189:751 190:378 191:412 192:482 193:513 194:678 195:454 196:228 197:175 198:89 199:662 200:353 201:380 202:497 203:562 204:613 205:404 206:237 207:205 208:115 209:705 210:371 211:405 212:474 213:539 214:570 215:406 216:231 217:218 218:122 219:735 220:430 221:480 222:465 223:460 224:446 225:361 226:250 227:208 228:131 229:840 230:383 231:377 232:317 233:558 234:984 235:321 236:133 237:239 238:119 239:758 240:469 241:416 242:399 243:624 244:672 245:321 246:168 247:186 248:87 249:670 250:409 251:465 252:421 253:427 254:564 255:327 256:218 257:240 258:142 259:858 260:311 261:375 262:426 263:600 264:774 265:466 266:194 267:193 268:97 269:635 270:326 271:408 272:397 273:578 274:806 275:443 276:211 277:195 278:93 279:614 280:455 281:536 282:427 283:405 284:333 285:302 286:221 287:272 288:143 289:977 290:475 291:442 292:381 293:551 294:756 295:308 296:159 297:253 298:108 299:756 300:439 301:416 302:384 303:499 304:728 305:307 306:160 307:181 308:99 309:799 310:389 311:462 312:396 313:446 314:658 315:327 316:203 317:223 318:131 319:836 320:299 321:349 322:408 323:611 324:926 325:420 326:211 327:180 328:72 329:595 330:280 331:358 332:401 333:602 334:933 335:402 336:173 337:185 338:90 339:647 340:504 341:487 342:426 343:369 344:455 345:270 346:216 347:253 348:161 349:930 350:407 351:463 352:404 353:528 354:778 355:395 356:177 357:181 358:94 359:762 360:688 361:626 362:453 363:315 364:290 365:237 366:161 367:297 368:142 369:1007 370:512 371:487 372:450 373:474 374:596 375:339 376:188 377:235 378:136 379:861 380:422 381:466 382:490 383:488 384:530 385:367 386:274 387:256 388:149 389:836 390:401 391:465 392:448 393:516 394:620 395:371 396:259 397:232 398:131 399:835 400:546 401:521 402:452 403:447 404:460 405:362 406:204 407:253 408:135 409:898 410:725 411:632 412:489 413:375 414:251 415:254 416:194 417:278 418:142 
1 1 1 0 1 1 0:481 1:478 2:381 3:350 4:532 5:254 6:188 7:276 8:170 9:961 10:276 11:359 12:300 13:549 14:812 15:347 16:190 17:230 18:138 19:929 20:299 21:448 22:371 23:445 24:704 25:334 26:241 27:269 28:140 29:879 30:369 31:403 32:415 33:415 34:612 35:302 36:243 37:267 38:164 39:940 40:322 41:390 42:352 43:487 44:713 45:362 46:204 47:256 48:162 49:882 50:538 51:570 52:402 53:324 54:419 55:255 56:222 57:289 58:179 59:1109 60:459 61:396 62:400 63:516 64:696 65:308 66:179 67:218 68:125 69:843 70:399 71:433 72:402 73:481 74:532 75:339 76:223 77:275 78:171 79:945 80:368 81:432 82:415 83:457 84:575 85:310 86:231 87:320 88:164 89:928 90:424 91:463 92:365 93:441 94:456 95:320 96:238 97:347 98:168 99:978 100:358 101:468 102:434 103:470 104:581 105:340 106:244 107:242 108:150 109:913 110:455 111:508 112:398 113:433 114:600 115:318 116:202 117:283 118:168 119:1015 120:351 121:437 122:400 123:540 124:792 125:361 126:175 127:215 128:117 129:752 130:304 131:368 132:392 133:582 134:931 135:361 136:209 137:228 138:112 139:713 140:232 141:355 142:413 143:619 144:903 145:434 146:230 147:258 148:96 149:660 150:259 151:364 152:392 153:626 154:838 155:452 156:245 157:188 158:122 159:714 160:302 161:371 162:394 163:539 164:852 165:405 166:208 167:218 168:122 169:789 170:438 171:498 172:407 173:512 174:629 175:354 176:224 177:263 178:139 179:916 180:296 181:306 182:303 183:662 184:1152 185:402 186:180 187:158 188:106 189:575 190:361 191:430 192:434 193:515 194:534 195:396 196:226 197:257 198:151 199:896 200:318 201:394 202:392 203:524 204:702 205:399 206:234 207:268 208:142 209:827 210:324 211:381 212:443 213:525 214:604 215:424 216:271 217:239 218:145 219:844 220:384 221:456 222:400 223:437 224:482 225:358 226:268 227:291 228:159 229:965 230:459 231:479 232:347 233:523 234:657 235:343 236:195 237:288 238:153 239:936 240:370 241:433 242:363 243:615 244:775 245:347 246:190 247:220 248:103 249:724 250:386 251:430 252:427 253:521 254:572 255:379 256:245 257:250 258:149 259:841 260:373 261:389 262:415 263:431 264:598 265:406 266:271 267:256 268:152 269:909 270:310 271:392 272:418 273:570 274:696 275:422 276:261 277:209 278:124 279:798 280:411 281:469 282:413 283:427 284:449 285:307 286:264 287:289 288:169 289:1002 290:448 291:460 292:401 293:507 294:796 295:338 296:191 297:273 298:146 299:820 300:424 301:440 302:424 303:508 304:651 305:355 306:201 307:220 308:114 309:803 310:481 311:466 312:432 313:501 314:558 315:310 316:201 317:244 318:131 319:876 320:364 321:414 322:398 323:530 324:697 325:366 326:216 327:235 328:149 329:831 330:338 331:390 332:366 333:602 334:864 335:386 336:207 337:204 338:105 339:738 340:480 341:501 342:428 343:423 344:551 345:282 346:225 347:256 348:119 349:935 350:390 351:393 352:352 353:641 354:882 355:373 356:204 357:224 358:135 359:786 360:401 361:515 362:472 363:582 364:664 365:335 366:236 367:205 368:123 369:814 370:531 371:478 372:451 373:548 374:635 375:308 376:201 377:240 378:123 379:895 380:403 381:437 382:458 383:611 384:661 385:424 386:252 387:213 388:124 389:827 390:372 391:433 392:492 393:670 394:694 395:449 396:234 397:209 398:118 399:739 400:431 401:448 402:448 403:585 404:641 405:368 406:218 407:241 408:111 409:919 410:376 411:400 412:368 413:709 414:1048 415:393 416:183 417:214 418:131 
1 1 1 0 1 1 0:399 1:459 2:435 3:454 4:532 5:308 6:195 7:274 8:155 9:989 10:349 11:431 12:464 13:623 14:758 15:379 16:213 17:204 18:98 19:741 20:391 21:448 22:424 23:475 24:537 25:332 26:260 27:276 28:156 29:961 30:386 31:438 32:432 33:502 34:628 35:373 36:225 37:281 38:147 39:848 40:588 41:548 42:482 43:547 44:606 45:286 46:163 47:199 48:92 49:749 50:523 51:509 52:407 53:456 54:733 55:290 56:168 57:240 58:157 59:1017 60:658 61:611 62:432 63:391 64:384 65:270 66:187 67:234 68:132 69:971 70:371 71:432 72:471 73:530 74:641 75:401 76:252 77:245 78:146 79:842 80:462 81:535 82:419 83:380 84:355 85:262 86:253 87:353 88:219 89:1093 90:459 91:509 92:422 93:398 94:365 95:315 96:231 97:340 98:191 99:1101 100:359 101:469 102:421 103:571 104:715 105:431 106:228 107:240 108:119 109:778 110:623 111:513 112:475 113:501 114:678 115:314 116:179 117:220 118:123 119:949 120:673 121:534 122:426 123:527 124:555 125:259 126:152 127:214 128:104 129:826 130:287 131:376 132:415 133:621 134:956 135:399 136:241 137:201 138:109 139:726 140:283 141:346 142:462 143:758 144:910 145:468 146:203 147:190 148:99 149:612 150:303 151:361 152:483 153:691 154:835 155:457 156:265 157:187 158:91 159:658 160:315 161:374 162:388 163:663 164:870 165:403 166:226 167:242 168:116 169:734 170:544 171:467 172:487 173:719 174:852 175:343 176:175 177:192 178:101 179:695 180:609 181:532 182:501 183:488 184:507 185:286 186:166 187:228 188:107 189:846 190:389 191:470 192:413 193:483 194:617 195:344 196:263 197:239 198:185 199:928 200:368 201:447 202:437 203:501 204:611 205:447 206:270 207:238 208:148 209:864 210:365 211:416 212:451 213:515 214:650 215:416 216:265 217:252 218:136 219:865 220:444 221:462 222:393 223:395 224:548 225:354 226:245 227:259 228:196 229:1035 230:666 231:534 232:526 233:568 234:566 235:337 236:158 237:244 238:107 239:869 240:630 241:645 242:509 243:501 244:392 245:242 246:163 247:234 248:110 249:844 250:538 251:509 252:437 253:355 254:507 255:273 256:212 257:320 258:183 259:997 260:309 261:392 262:469 263:562 264:739 265:444 266:251 267:231 268:132 269:802 270:311 271:392 272:422 273:569 274:774 275:467 276:270 277:217 278:125 279:784 280:525 281:523 282:396 283:366 284:467 285:288 286:180 287:315 288:183 289:1088 290:525 291:529 292:470 293:538 294:729 295:313 296:182 297:239 298:115 299:935 300:514 301:439 302:474 303:545 304:649 305:301 306:179 307:239 308:113 309:817 310:628 311:505 312:435 313:414 314:551 315:276 316:198 317:235 318:135 319:954 320:308 321:369 322:412 323:660 324:846 325:425 326:262 327:209 328:125 329:715 330:228 331:294 332:418 333:817 334:1108 335:464 336:230 337:145 338:91 339:536 340:500 341:516 342:402 343:440 344:599 345:273 346:193 347:260 348:145 349:1003 350:584 351:566 352:386 353:427 354:527 355:280 356:227 357:294 358:163 359:1121 360:278 361:332 362:465 363:665 364:933 365:497 366:288 367:194 368:120 369:708 370:426 371:432 372:481 373:724 374:811 375:426 376:198 377:209 378:106 379:731 380:481 381:540 382:473 383:457 384:469 385:319 386:222 387:323 388:182 389:1078 390:462 391:477 392:480 393:552 394:547 395:329 396:255 397:269 398:151 399:1022 400:496 401:536 402:478 403:552 404:552 405:363 406:228 407:257 408:150 409:932 410:392 411:398 412:497 413:645 414:965 415:486 416:263 417:248 418:133 
1 1 1 0 1 1 0:494 1:483 2:407 3:409 4:633 5:286 6:199 7:260 8:142 9:1018 10:338 11:403 12:431 13:612 14:813 15:446 16:240 17:229 18:103 19:777 20:537 21:535 22:499 23:436 24:403 25:334 26:218 27:274 28:169 29:987 30:388 31:435 32:412 33:575 34:923 35:391 36:220 37:226 38:90 39:732 40:336 41:410 42:367 43:552 44:743 45:364 46:202 47:228 48:161 49:1029 50:471 51:473 52:418 53:412 54:645 55:315 56:213 57:290 58:157 59:1059 60:380 61:397 62:362 63:571 64:1060 65:304 66:181 67:236 68:128 69:783 70:453 71:471 72:409 73:551 74:750 75:374 76:226 77:228 78:134 79:868 80:551 81:483 82:461 83:428 84:438 85:331 86:257 87:283 88:160 89:1072 90:533 91:541 92:488 93:468 94:432 95:335 96:272 97:274 98:150 99:971 100:423 101:445 102:439 103:535 104:778 105:369 106:194 107:276 108:111 109:894 110:412 111:438 112:374 113:481 114:1020 115:312 116:182 117:268 118:149 119:890 120:375 121:350 122:408 123:734 124:1034 125:396 126:174 127:177 128:105 129:649 130:267 131:336 132:443 133:631 134:955 135:486 136:236 137:243 138:109 139:758 140:302 141:371 142:419 143:612 144:913 145:462 146:263 147:244 148:112 149:766 150:297 151:389 152:414 153:655 154:835 155:457 156:279 157:239 158:127 159:772 160:260 161:336 162:392 163:632 164:1047 165:405 166:242 167:238 168:119 169:793 170:366 171:387 172:370 173:793 174:1197 175:407 176:148 177:168 178:84 179:606 180:316 181:316 182:410 183:908 184:1162 185:449 186:150 187:152 188:65 189:474 190:381 191:505 192:443 193:554 194:575 195:444 196:272 197:245 198:128 199:917 200:374 201:466 202:498 203:518 204:623 205:459 206:264 207:246 208:122 209:894 210:392 211:450 212:518 213:530 214:570 215:441 216:272 217:256 218:149 219:886 220:423 221:446 222:459 223:521 224:566 225:418 226:298 227:261 228:161 229:911 230:399 231:428 232:433 233:764 234:951 235:390 236:210 237:190 238:83 239:678 240:337 241:341 242:448 243:767 244:1055 245:377 246:196 247:196 248:81 249:604 250:422 251:494 252:473 253:476 254:489 255:364 256:273 257:289 258:171 259:1013 260:355 261:394 262:458 263:613 264:776 265:434 266:248 267:238 268:127 269:821 270:322 271:401 272:509 273:560 274:832 275:484 276:232 277:215 278:121 279:788 280:491 281:521 282:445 283:396 284:362 285:326 286:263 287:296 288:209 289:1155 290:387 291:418 292:399 293:704 294:985 295:401 296:195 297:192 298:91 299:754 300:388 301:441 302:426 303:698 304:804 305:398 306:186 307:203 308:112 309:746 310:484 311:511 312:403 313:475 314:694 315:332 316:227 317:261 318:157 319:920 320:297 321:352 322:425 323:749 324:916 325:508 326:215 327:198 328:111 329:693 330:314 331:364 332:426 333:794 334:926 335:493 336:221 337:178 338:104 339:644 340:469 341:558 342:437 343:408 344:456 345:333 346:280 347:315 348:176 349:1032 350:722 351:571 352:504 353:509 354:661 355:243 356:152 357:224 358:129 359:811 360:550 361:485 362:537 363:591 364:534 365:313 366:195 367:235 368:120 369:771 370:523 371:466 372:473 373:495 374:626 375:319 376:215 377:258 378:130 379:887 380:432 381:471 382:444 383:492 384:498 385:360 386:261 387:289 388:168 389:977 390:386 391:431 392:483 393:550 394:624 395:382 396:276 397:243 398:139 399:878 400:461 401:486 402:429 403:505 404:545 405:369 406:222 407:294 408:144 409:937 410:797 411:714 412:479 413:470 414:318 415:245 416:153 417:249 418:114 
1 1 1 0 1 1 0:426 1:425 2:374 3:393 4:636 5:293 6:233 7:266 8:147 9:1007 10:337 11:494 12:280 13:426 14:762 15:289 16:219 17:377 18:140 19:936 20:323 21:406 22:377 23:572 24:722 25:390 26:248 27:286 28:128 29:808 30:326 31:421 32:323 33:473 34:755 35:320 36:202 37:329 38:164 39:947 40:417 41:453 42:247 43:321 44:560 45:198 46:221 47:337 48:189 49:1317 50:324 51:440 52:335 53:413 54:752 55:332 56:221 57:299 58:156 59:1048 60:387 61:389 62:376 63:551 64:705 65:365 66:210 67:244 68:153 69:890 70:361 71:476 72:380 73:428 74:520 75:369 76:291 77:303 78:153 79:1050 80:382 81:431 82:373 83:510 84:670 85:379 86:223 87:318 88:171 89:874 90:353 91:417 92:399 93:521 94:623 95:396 96:247 97:285 98:160 99:930 100:369 101:464 102:413 103:468 104:603 105:349 106:243 107:275 108:146 109:1001 110:368 111:434 112:322 113:439 114:759 115:303 116:198 117:278 118:176 119:1115 120:332 121:403 122:393 123:712 124:794 125:371 126:187 127:241 128:108 129:729 130:267 131:351 132:384 133:628 134:923 135:442 136:255 137:227 138:137 139:717 140:261 141:351 142:402 143:666 144:872 145:478 146:272 147:213 148:110 149:706 150:291 151:342 152:408 153:661 154:858 155:461 156:229 157:210 158:119 159:752 160:296 161:371 162:357 163:614 164:864 165:419 166:256 167:251 168:128 169:775 170:307 171:409 172:434 173:636 174:827 175:385 176:239 177:234 178:125 179:796 180:334 181:387 182:496 183:671 184:768 185:398 186:191 187:221 188:107 189:697 190:383 191:422 192:455 193:495 194:577 195:411 196:279 197:268 198:153 199:888 200:355 201:458 202:402 203:445 204:599 205:405 206:248 207:301 208:165 209:953 210:367 211:457 212:389 213:440 214:554 215:362 216:317 217:282 218:164 219:999 220:381 221:436 222:423 223:443 224:603 225:399 226:268 227:262 228:173 229:943 230:404 231:448 232:429 233:655 234:767 235:355 236:243 237:209 238:128 239:754 240:470 241:463 242:474 243:598 244:636 245:346 246:186 247:229 248:120 249:748 250:381 251:462 252:437 253:478 254:594 255:345 256:248 257:266 258:155 259:965 260:295 261:423 262:445 263:575 264:668 265:466 266:267 267:245 268:132 269:815 270:286 271:397 272:462 273:628 274:708 275:438 276:283 277:221 278:137 279:771 280:432 281:465 282:435 283:422 284:462 285:368 286:279 287:284 288:166 289:1018 290:570 291:478 292:466 293:580 294:571 295:337 296:186 297:256 298:115 299:833 300:575 301:488 302:446 303:516 304:428 305:311 306:198 307:261 308:140 309:907 310:496 311:538 312:418 313:454 314:584 315:299 316:215 317:265 318:150 319:912 320:264 321:372 322:376 323:557 324:859 325:432 326:284 327:229 328:132 329:826 330:268 331:308 332:379 333:665 334:949 335:448 336:261 337:240 338:117 339:696 340:474 341:480 342:435 343:415 344:528 345:300 346:272 347:269 348:174 349:984 350:587 351:522 352:559 353:554 354:487 355:320 356:178 357:265 358:114 359:806 360:635 361:602 362:534 363:476 364:358 365:303 366:153 367:255 368:86 369:868 370:458 371:460 372:410 373:561 374:754 375:336 376:176 377:238 378:133 379:805 380:423 381:458 382:457 383:450 384:452 385:341 386:264 387:289 388:171 389:1026 390:424 391:446 392:428 393:481 394:531 395:307 396:278 397:281 398:167 399:988 400:445 401:516 402:424 403:440 404:533 405:299 406:240 407:258 408:166 409:1010 410:629 411:541 412:499 413:556 414:520 415:323 416:185 417:222 418:107 
1 1 1 0 1 1 0:861 1:687 2:456 3:381 4:290 5:220 6:145 7:215 8:100 9:905 10:763 11:583 12:513 13:500 14:338 15:284 16:151 17:217 18:109 19:862 20:411 21:398 22:518 23:624 24:761 25:404 26:196 27:192 28:109 29:707 30:640 31:516 32:437 33:488 34:558 35:283 36:176 37:230 38:114 39:878 40:871 41:654 42:496 43:391 44:236 45:249 46:143 47:241 48:127 49:912 50:718 51:559 52:461 53:523 54:542 55:288 56:164 57:187 58:89 59:789 60:1012 61:655 62:503 63:367 64:284 65:207 66:124 67:228 68:78 69:873 70:544 71:471 72:468 73:562 74:742 75:388 76:193 77:182 78:103 79:739 80:473 81:523 82:427 83:388 84:433 85:323 86:268 87:333 88:177 89:1047 90:364 91:454 92:422 93:565 94:635 95:410 96:245 97:285 98:135 99:877 100:463 101:493 102:400 103:596 104:884 105:340 106:167 107:204 108:98 109:747 110:950 111:592 112:422 113:433 114:490 115:226 116:129 117:206 118:101 119:843 120:645 121:479 122:431 123:545 124:744 125:248 126:183 127:180 128:107 129:769 130:275 131:310 132:424 133:688 134:1071 135:453 136:218 137:200 138:101 139:652 140:221 141:300 142:376 143:791 144:1193 145:472 146:204 147:175 148:88 149:572 150:224 151:312 152:408 153:779 154:1063 155:509 156:228 157:198 158:89 159:582 160:278 161:325 162:399 163:721 164:1006 165:452 166:225 167:207 168:97 169:682 170:621 171:471 172:497 173:527 174:691 175:296 176:158 177:223 178:107 179:801 180:386 181:401 182:430 183:564 184:791 185:324 186:207 187:240 188:126 189:862 190:367 191:457 192:449 193:545 194:652 195:408 196:255 197:269 198:134 199:856 200:365 201:439 202:476 203:558 204:611 205:428 206:283 207:243 208:132 209:857 210:414 211:471 212:429 213:489 214:505 215:341 216:282 217:281 218:172 219:1008 220:438 221:482 222:432 223:490 224:505 225:366 226:282 227:280 228:149 229:968 230:452 231:453 232:404 233:519 234:660 235:357 236:211 237:274 238:145 239:917 240:575 241:523 242:348 243:411 244:404 245:293 246:215 247:310 248:166 249:1086 250:484 251:491 252:375 253:402 254:456 255:329 256:272 257:321 258:175 259:1087 260:317 261:403 262:461 263:581 264:745 265:477 266:264 267:230 268:122 269:792 270:303 271:391 272:439 273:590 274:881 275:463 276:264 277:209 278:106 279:746 280:557 281:505 282:395 283:315 284:350 285:305 286:238 287:326 288:199 289:1202 290:578 291:562 292:421 293:358 294:362 295:265 296:220 297:326 298:183 299:1117 300:621 301:596 302:442 303:294 304:237 305:233 306:222 307:326 308:187 309:1173 310:466 311:524 312:416 313:421 314:463 315:313 316:252 317:299 318:179 319:1059 320:299 321:396 322:418 323:643 324:856 325:469 326:227 327:229 328:112 329:743 330:241 331:341 332:430 333:814 334:1016 335:464 336:218 337:177 338:83 339:608 340:482 341:527 342:427 343:387 344:501 345:264 346:223 347:286 348:187 349:1108 350:617 351:576 352:449 353:323 354:265 355:253 356:214 357:290 358:209 359:1196 360:671 361:580 362:479 363:388 364:333 365:284 366:253 367:333 368:183 369:1182 370:538 371:629 372:452 373:417 374:433 375:287 376:263 377:360 378:214 379:1159 380:490 381:537 382:474 383:581 384:560 385:344 386:236 387:321 388:158 389:1051 390:461 391:558 392:498 393:587 394:536 395:398 396:257 397:269 398:156 399:1032 400:563 401:595 402:451 403:473 404:448 405:305 406:239 407:342 408:189 409:1147 410:676 411:676 412:457 413:369 414:300 415:264 416:269 417:299 418:205 
1 1 1 0 1 1 0:383 1:447 2:336 3:435 4:687 5:307 6:249 7:277 8:173 9:1098 10:300 11:394 12:359 13:567 14:1011 15:409 16:207 17:240 18:119 19:847 20:323 21:398 22:369 23:623 24:949 25:389 26:220 27:265 28:133 29:784 30:362 31:402 32:422 33:569 34:784 35:388 36:280 37:299 38:123 39:824 40:348 41:422 42:320 43:553 44:814 45:313 46:211 47:246 48:147 49:1079 50:369 51:392 52:429 53:547 54:638 55:416 56:216 57:262 58:156 59:967 60:332 61:427 62:342 63:483 64:941 65:328 66:204 67:267 68:152 69:988 70:385 71:456 72:429 73:583 74:857 75:378 76:230 77:223 78:138 79:847 80:467 81:503 82:406 83:480 84:495 85:350 86:288 87:345 88:164 89:1028 90:423 91:447 92:473 93:535 94:574 95:360 96:269 97:288 98:167 99:990 100:379 101:423 102:462 103:571 104:749 105:442 106:241 107:244 108:126 109:889 110:429 111:453 112:459 113:535 114:728 115:338 116:229 117:239 118:129 119:925 120:392 121:470 122:348 123:639 124:967 125:326 126:166 127:261 128:135 129:760 130:264 131:308 132:431 133:747 134:1111 135:508 136:249 137:182 138:90 139:636 140:266 141:309 142:453 143:785 144:965 145:515 146:246 147:212 148:105 149:670 150:280 151:372 152:488 153:681 154:889 155:458 156:261 157:218 158:132 159:747 160:300 161:353 162:443 163:714 164:931 165:450 166:263 167:234 168:111 169:727 170:480 171:458 172:455 173:682 174:772 175:392 176:180 177:190 178:90 179:765 180:564 181:527 182:459 183:624 184:613 185:339 186:183 187:245 188:105 189:805 190:389 191:450 192:478 193:555 194:707 195:438 196:226 197:273 198:145 199:865 200:346 201:405 202:485 203:637 204:667 205:495 206:301 207:250 208:122 209:818 210:344 211:425 212:462 213:606 214:759 215:446 216:268 217:246 218:127 219:843 220:456 221:497 222:451 223:486 224:474 225:330 226:255 227:338 228:185 229:1054 230:267 231:341 232:389 233:695 234:1227 235:447 236:196 237:186 238:104 239:612 240:517 241:544 242:433 243:591 244:670 245:307 246:168 247:279 248:135 249:820 250:428 251:465 252:475 253:533 254:619 255:386 256:245 257:278 258:157 259:940 260:274 261:330 262:463 263:677 264:1030 265:527 266:222 267:193 268:118 269:692 270:268 271:312 272:447 273:731 274:1103 275:511 276:234 277:188 278:88 279:644 280:445 281:490 282:481 283:414 284:538 285:361 286:285 287:304 288:166 289:1042 290:329 291:370 292:427 293:656 294:1032 295:376 296:223 297:243 298:100 299:708 300:477 301:490 302:366 303:607 304:717 305:295 306:194 307:299 308:119 309:900 310:519 311:495 312:432 313:463 314:624 315:333 316:234 317:271 318:156 319:999 320:255 321:340 322:432 323:777 324:1125 325:467 326:228 327:194 328:91 329:617 330:283 331:313 332:411 333:823 334:1156 335:448 336:211 337:205 338:97 339:579 340:453 341:473 342:449 343:464 344:545 345:368 346:239 347:305 348:188 349:1042 350:356 351:432 352:361 353:635 354:960 355:362 356:209 357:283 358:119 359:747 360:583 361:531 362:443 363:555 364:677 365:297 366:214 367:310 368:151 369:919 370:515 371:565 372:516 373:667 374:591 375:366 376:213 377:259 378:134 379:919 380:398 381:510 382:543 383:597 384:606 385:433 386:291 387:254 388:168 389:945 390:432 391:462 392:528 393:604 394:545 395:429 396:277 397:297 398:182 399:989 400:508 401:515 402:506 403:582 404:598 405:330 406:226 407:287 408:190 409:1003 410:468 411:576 412:467 413:564 414:672 415:367 416:240 417:277 418:155 
1 1 1 0 1 1 0:333 1:372 2:338 3:485 4:699 5:307 6:220 7:252 8:142 9:982 10:306 11:377 12:405 13:500 14:662 15:377 16:226 17:261 18:127 19:948 20:316 21:411 22:395 23:568 24:626 25:388 26:267 27:221 28:138 29:859 30:351 31:417 32:378 33:455 34:643 35:302 36:257 37:319 38:146 39:921 40:288 41:395 42:292 43:471 44:854 45:378 46:203 47:267 48:136 49:905 50:318 51:376 52:370 53:489 54:652 55:389 56:229 57:233 58:120 59:954 60:408 61:460 62:394 63:548 64:674 65:325 66:209 67:219 68:130 69:833 70:349 71:409 72:420 73:547 74:601 75:394 76:243 77:263 78:140 79:894 80:381 81:471 82:359 83:481 84:513 85:354 86:239 87:309 88:192 89:961 90:402 91:449 92:421 93:453 94:484 95:350 96:240 97:321 98:192 99:948 100:417 101:458 102:417 103:509 104:507 105:368 106:253 107:255 108:147 109:929 110:377 111:488 112:421 113:546 114:627 115:317 116:184 117:238 118:125 119:877 120:379 121:437 122:442 123:672 124:713 125:353 126:185 127:224 128:109 129:686 130:252 131:342 132:418 133:708 134:954 135:423 136:211 137:242 138:90 139:620 140:252 141:318 142:461 143:732 144:965 145:459 146:226 147:168 148:89 149:590 150:319 151:359 152:423 153:676 154:766 155:434 156:214 157:201 158:106 159:762 160:288 161:377 162:445 163:674 164:795 165:428 166:221 167:217 168:103 169:712 170:375 171:398 172:374 173:664 174:775 175:377 176:185 177:225 178:115 179:712 180:341 181:406 182:336 183:617 184:797 185:407 186:207 187:231 188:121 189:737 190:427 191:487 192:428 193:370 194:393 195:305 196:265 197:304 198:194 199:1087 200:383 201:445 202:433 203:474 204:492 205:374 206:283 207:294 208:164 209:918 210:374 211:455 212:432 213:528 214:462 215:402 216:278 217:269 218:156 219:904 220:434 221:510 222:403 223:419 224:378 225:344 226:263 227:294 228:185 229:1030 230:341 231:451 232:363 233:610 234:745 235:372 236:192 237:275 238:122 239:729 240:299 241:372 242:359 243:600 244:814 245:367 246:229 247:252 248:143 249:765 250:465 251:485 252:424 253:431 254:440 255:290 256:247 257:278 258:191 259:1009 260:320 261:401 262:447 263:552 264:638 265:441 266:285 267:209 268:140 269:827 270:322 271:410 272:417 273:587 274:670 275:444 276:229 277:232 278:115 279:834 280:476 281:550 282:436 283:343 284:327 285:281 286:231 287:305 288:200 289:1111 290:389 291:449 292:366 293:494 294:744 295:340 296:188 297:295 298:141 299:794 300:287 301:372 302:403 303:583 304:794 305:418 306:222 307:222 308:132 309:767 310:402 311:447 312:472 313:516 314:561 315:369 316:238 317:258 318:145 319:852 320:270 321:299 322:414 323:754 324:920 325:420 326:210 327:180 328:107 329:686 330:279 331:323 332:382 333:717 334:1006 335:413 336:226 337:177 338:111 339:626 340:430 341:493 342:434 343:440 344:559 345:322 346:241 347:273 348:136 349:932 350:331 351:369 352:419 353:633 354:738 355:406 356:201 357:227 358:138 359:738 360:279 361:384 362:492 363:693 364:880 365:497 366:260 367:228 368:109 369:728 370:477 371:477 372:521 373:647 374:668 375:386 376:229 377:235 378:117 379:858 380:464 381:498 382:489 383:558 384:556 385:373 386:274 387:295 388:139 389:969 390:514 391:479 392:497 393:626 394:534 395:370 396:261 397:246 398:147 399:941 400:566 401:581 402:486 403:523 404:484 405:323 406:209 407:290 408:142 409:1011 410:368 411:417 412:483 413:708 414:745 415:461 416:226 417:220 418:108 
1 1 1 0 1 1 0:345 1:392 2:345 3:419 4:837 5:264 6:200 7:239 8:136 9:894 10:304 11:445 12:376 13:485 14:682 15:317 16:184 17:263 18:134 19:940 20:305 21:419 22:350 23:568 24:715 25:430 26:182 27:285 28:125 29:751 30:241 31:360 32:332 33:709 34:1014 35:401 36:167 37:215 38:101 39:590 40:341 41:357 42:339 43:522 44:807 45:328 46:185 47:212 48:128 49:911 50:344 51:373 52:376 53:483 54:840 55:282 56:199 57:242 58:160 59:890 60:300 61:384 62:295 63:656 64:927 65:340 66:181 67:233 68:117 69:707 70:338 71:396 72:415 73:603 74:790 75:428 76:237 77:196 78:105 79:692 80:407 81:465 82:408 83:486 84:488 85:354 86:237 87:303 88:147 89:905 90:388 91:458 92:401 93:520 94:517 95:329 96:244 97:293 98:160 99:890 100:361 101:395 102:468 103:694 104:822 105:419 106:196 107:171 108:95 109:579 110:376 111:441 112:367 113:569 114:800 115:369 116:183 117:266 118:140 119:749 120:255 121:338 122:378 123:703 124:987 125:422 126:178 127:190 128:91 129:598 130:241 131:320 132:419 133:639 134:1009 135:454 136:245 137:206 138:92 139:575 140:213 141:294 142:358 143:754 144:1074 145:467 146:196 147:191 148:92 149:561 150:247 151:314 152:443 153:701 154:908 155:478 156:220 157:175 158:97 159:617 160:246 161:361 162:380 163:718 164:886 165:436 166:242 167:201 168:107 169:623 170:239 171:293 172:331 173:791 174:1236 175:407 176:158 177:156 178:79 179:570 180:242 181:320 182:364 183:725 184:1092 185:445 186:166 187:187 188:84 189:515 190:418 191:496 192:436 193:420 194:441 195:345 196:260 197:298 198:151 199:935 200:380 201:402 202:431 203:521 204:577 205:370 206:283 207:245 208:146 209:845 210:352 211:430 212:444 213:461 214:566 215:394 216:238 217:272 218:148 219:895 220:436 221:485 222:446 223:415 224:424 225:326 226:276 227:282 228:166 229:944 230:290 231:363 232:350 233:700 234:1013 235:411 236:186 237:194 238:117 239:636 240:336 241:365 242:429 243:679 244:870 245:394 246:189 247:173 248:84 249:621 250:442 251:483 252:390 253:401 254:467 255:304 256:251 257:286 258:183 259:993 260:352 261:388 262:432 263:486 264:659 265:410 266:234 267:227 268:142 269:870 270:296 271:419 272:439 273:564 274:707 275:465 276:258 277:192 278:129 279:731 280:451 281:459 282:450 283:410 284:385 285:293 286:257 287:301 288:163 289:1031 290:304 291:382 292:273 293:652 294:1173 295:351 296:189 297:227 298:97 299:612 300:438 301:395 302:455 303:546 304:678 305:382 306:187 307:206 308:125 309:728 310:452 311:492 312:389 313:354 314:508 315:277 316:223 317:283 318:183 319:1039 320:266 321:340 322:425 323:653 324:923 325:413 326:229 327:200 328:95 329:656 330:293 331:313 332:428 333:726 334:806 335:456 336:196 337:190 338:107 339:685 340:433 341:465 342:343 343:388 344:582 345:299 346:241 347:272 348:157 349:1020 350:349 351:379 352:409 353:543 354:862 355:351 356:225 357:220 358:118 359:804 360:316 361:363 362:425 363:564 364:846 365:414 366:229 367:207 368:123 369:722 370:374 371:376 372:424 373:528 374:740 375:384 376:251 377:254 378:128 379:811 380:393 381:452 382:416 383:488 384:555 385:378 386:275 387:239 388:165 389:909 390:363 391:451 392:417 393:531 394:558 395:401 396:235 397:264 398:134 399:916 400:508 401:478 402:414 403:458 404:471 405:325 406:210 407:270 408:171 409:965 410:359 411:364 412:489 413:609 414:887 415:399 416:192 417:208 418:106 
1 1 1 0 1 1 0:295 1:342 2:307 3:530 4:775 5:392 6:240 7:256 8:121 9:942 10:294 11:353 12:298 13:491 14:992 15:356 16:201 17:240 18:140 19:895 20:450 21:519 22:374 23:343 24:392 25:282 26:267 27:306 28:211 29:1116 30:456 31:514 32:386 33:333 34:385 35:285 36:237 37:318 38:214 39:1132 40:317 41:413 42:323 43:488 44:663 45:348 46:245 47:266 48:168 49:1029 50:343 51:429 52:338 53:423 54:654 55:335 56:236 57:291 58:180 59:1151 60:258 61:316 62:273 63:553 64:1247 65:311 66:193 67:243 68:136 69:740 70:293 71:410 72:355 73:498 74:1009 75:345 76:216 77:236 78:140 79:829 80:435 81:476 82:399 83:429 84:450 85:319 86:271 87:320 88:196 89:1036 90:420 91:499 92:418 93:404 94:406 95:357 96:283 97:298 98:191 99:1055 100:364 101:397 102:429 103:553 104:703 105:397 106:258 107:236 108:140 109:854 110:316 111:393 112:329 113:549 114:1155 115:312 116:209 117:257 118:141 119:792 120:338 121:406 122:279 123:543 124:966 125:335 126:179 127:267 128:150 129:807 130:213 131:305 132:438 133:749 134:1073 135:479 136:195 137:167 138:99 139:613 140:307 141:404 142:446 143:646 144:755 145:451 146:237 147:250 148:103 149:732 150:332 151:415 152:495 153:578 154:674 155:407 156:275 157:214 158:129 159:812 160:284 161:349 162:432 163:675 164:925 165:450 166:196 167:208 168:100 169:712 170:323 171:378 172:409 173:609 174:1104 175:356 176:196 177:214 178:130 179:734 180:317 181:323 182:362 183:656 184:1058 185:376 186:192 187:207 188:103 189:676 190:458 191:479 192:366 193:411 194:481 195:336 196:245 197:303 198:186 199:1066 200:382 201:409 202:446 203:501 204:597 205:395 206:273 207:257 208:144 209:927 210:385 211:431 212:473 213:544 214:527 215:421 216:274 217:232 218:144 219:900 220:407 221:462 222:428 223:381 224:497 225:355 226:273 227:261 228:196 229:1071 230:437 231:516 232:494 233:547 234:672 235:383 236:198 237:223 238:139 239:844 240:403 241:425 242:376 243:696 244:955 245:383 246:141 247:189 248:93 249:609 250:496 251:509 252:428 253:385 254:393 255:293 256:254 257:285 258:197 259:1091 260:281 261:406 262:475 263:671 264:851 265:491 266:246 267:197 268:87 269:626 270:280 271:400 272:464 273:717 274:800 275:497 276:254 277:180 278:91 279:648 280:464 281:481 282:470 283:427 284:439 285:338 286:266 287:273 288:162 289:1011 290:670 291:593 292:524 293:516 294:470 295:290 296:177 297:241 298:106 299:866 300:357 301:383 302:409 303:654 304:1031 305:347 306:182 307:181 308:78 309:648 310:542 311:529 312:442 313:347 314:448 315:281 316:241 317:269 318:170 319:1062 320:263 321:332 322:382 323:765 324:1072 325:425 326:201 327:180 328:90 329:621 330:277 331:297 332:383 333:894 334:1156 335:406 336:170 337:153 338:81 339:514 340:553 341:504 342:512 343:402 344:393 345:266 346:217 347:329 348:148 349:1007 350:659 351:526 352:504 353:524 354:649 355:287 356:161 357:226 358:114 359:803 360:345 361:376 362:409 363:679 364:1056 365:391 366:172 367:192 368:91 369:629 370:590 371:533 372:437 373:608 374:579 375:353 376:178 377:225 378:125 379:774 380:432 381:490 382:456 383:544 384:560 385:396 386:272 387:225 388:120 389:907 390:449 391:471 392:457 393:592 394:588 395:398 396:225 397:242 398:116 399:864 400:559 401:514 402:425 403:421 404:369 405:309 406:242 407:275 408:160 409:1128 410:716 411:556 412:445 413:616 414:566 415:280 416:153 417:222 418:109 
1 1 1 0 1 1 0:422 1:437 2:394 3:413 4:630 5:319 6:223 7:258 8:155 9:949 10:253 11:357 12:261 13:445 14:1110 15:334 16:208 17:255 18:143 19:894 20:284 21:385 22:399 23:581 24:778 25:431 26:226 27:247 28:131 29:798 30:475 31:515 32:403 33:377 34:443 35:291 36:250 37:300 38:174 39:1032 40:418 41:422 42:345 43:398 44:443 45:288 46:232 47:303 48:194 49:1217 50:354 51:416 52:407 53:484 54:690 55:385 56:270 57:262 58:145 59:967 60:311 61:383 62:335 63:504 64:874 65:377 66:249 67:263 68:149 69:825 70:293 71:322 72:375 73:552 74:1018 75:420 76:227 77:236 78:109 79:779 80:435 81:472 82:386 83:434 84:629 85:337 86:243 87:336 88:150 89:909 90:419 91:522 92:384 93:408 94:480 95:323 96:254 97:334 98:183 99:1024 100:506 101:527 102:398 103:357 104:329 105:292 106:267 107:353 108:168 109:1134 110:352 111:436 112:381 113:517 114:797 115:382 116:230 117:287 118:179 119:892 120:322 121:387 122:356 123:513 124:825 125:391 126:221 127:252 128:134 129:869 130:224 131:305 132:337 133:713 134:1185 135:437 136:183 137:192 138:116 139:639 140:202 141:316 142:397 143:740 144:1112 145:470 146:224 147:169 148:88 149:613 150:192 151:301 152:455 153:773 154:1016 155:534 156:218 157:191 158:78 159:573 160:242 161:315 162:371 163:692 164:1077 165:443 166:214 167:190 168:101 169:686 170:361 171:462 172:368 173:527 174:762 175:376 176:234 177:289 178:144 179:930 180:400 181:425 182:394 183:487 184:793 185:357 186:195 187:255 188:137 189:827 190:369 191:500 192:440 193:514 194:541 195:352 196:251 197:277 198:173 199:914 200:330 201:421 202:410 203:510 204:680 205:403 206:291 207:262 208:130 209:894 210:318 211:412 212:526 213:553 214:647 215:444 216:273 217:209 218:146 219:803 220:420 221:482 222:410 223:403 224:475 225:316 226:271 227:307 228:176 229:1071 230:382 231:432 232:415 233:598 234:752 235:436 236:236 237:245 238:136 239:821 240:566 241:514 242:438 243:386 244:352 245:246 246:220 247:297 248:177 249:1074 250:470 251:480 252:463 253:442 254:435 255:317 256:273 257:291 258:181 259:979 260:261 261:337 262:433 263:686 264:865 265:492 266:280 267:198 268:126 269:653 270:254 271:368 272:412 273:704 274:893 275:509 276:249 277:189 278:108 279:645 280:442 281:491 282:483 283:440 284:409 285:324 286:241 287:284 288:177 289:1040 290:537 291:524 292:386 293:379 294:497 295:257 296:237 297:331 298:175 299:1130 300:597 301:593 302:395 303:256 304:215 305:200 306:211 307:335 308:214 309:1254 310:437 311:472 312:381 313:428 314:639 315:342 316:232 317:276 318:166 319:958 320:234 321:323 322:383 323:727 324:1140 325:445 326:209 327:184 328:89 329:597 330:245 331:286 332:333 333:855 334:1169 335:426 336:186 337:177 338:98 339:556 340:317 341:387 342:439 343:572 344:806 345:471 346:246 347:185 348:123 349:785 350:548 351:554 352:431 353:355 354:336 355:243 356:218 357:333 358:215 359:1220 360:582 361:592 362:382 363:258 364:210 365:183 366:231 367:392 368:240 369:1270 370:451 371:501 372:458 373:447 374:455 375:337 376:224 377:304 378:172 379:1053 380:398 381:470 382:403 383:553 384:579 385:380 386:251 387:267 388:159 389:942 390:377 391:450 392:428 393:590 394:593 395:405 396:267 397:262 398:137 399:893 400:405 401:446 402:451 403:541 404:674 405:379 406:231 407:249 408:138 409:888 410:623 411:616 412:378 413:282 414:227 415:221 416:215 417:378 418:247 
1 1 1 0 1 1 0:376 1:442 2:483 3:582 4:692 5:400 6:203 7:206 8:112 9:764 10:501 11:463 12:481 13:644 14:641 15:378 16:208 17:217 18:111 19:676 20:393 21:401 22:421 23:582 24:721 25:383 26:199 27:271 28:113 29:836 30:350 31:414 32:456 33:601 34:726 35:390 36:219 37:250 38:120 39:794 40:495 41:453 42:537 43:699 44:600 45:339 46:167 47:190 48:98 49:742 50:464 51:498 52:434 53:443 54:529 55:304 56:182 57:239 58:163 59:1004 60:505 61:516 62:514 63:559 64:596 65:320 66:205 67:210 68:99 69:807 70:424 71:449 72:435 73:541 74:680 75:367 76:232 77:242 78:138 79:884 80:481 81:503 82:431 83:423 84:394 85:318 86:270 87:334 88:184 89:1054 90:448 91:512 92:417 93:381 94:414 95:343 96:296 97:319 98:200 99:1062 100:406 101:454 102:500 103:636 104:726 105:388 106:230 107:235 108:98 109:719 110:503 111:488 112:475 113:610 114:663 115:339 116:187 117:180 118:107 119:779 120:687 121:545 122:445 123:528 124:557 125:299 126:149 127:222 128:102 129:797 130:276 131:352 132:398 133:671 134:1079 135:377 136:218 137:232 138:95 139:694 140:272 141:327 142:415 143:813 144:960 145:460 146:227 147:170 148:93 149:655 150:291 151:358 152:477 153:718 154:870 155:453 156:246 157:200 158:97 159:682 160:226 161:299 162:425 163:761 164:1186 165:482 166:196 167:167 168:75 169:575 170:521 171:548 172:515 173:560 174:546 175:309 176:210 177:209 178:105 179:808 180:678 181:528 182:383 183:570 184:544 185:305 186:154 187:251 188:106 189:812 190:457 191:500 192:467 193:501 194:499 195:338 196:284 197:266 198:138 199:942 200:359 201:434 202:491 203:529 204:589 205:430 206:253 207:238 208:157 209:912 210:351 211:448 212:485 213:612 214:627 215:430 216:249 217:259 218:127 219:804 220:411 221:482 222:446 223:518 224:544 225:375 226:247 227:262 228:163 229:944 230:665 231:478 232:424 233:550 234:529 235:299 236:180 237:235 238:121 239:850 240:537 241:471 242:511 243:604 244:619 245:340 246:190 247:199 248:103 249:757 250:495 251:522 252:429 253:409 254:415 255:329 256:271 257:314 258:150 259:1058 260:336 261:453 262:419 263:552 264:700 265:448 266:262 267:244 268:123 269:855 270:285 271:415 272:465 273:696 274:799 275:491 276:251 277:203 278:98 279:689 280:434 281:537 282:452 283:479 284:427 285:328 286:273 287:282 288:157 289:1023 290:737 291:550 292:473 293:480 294:370 295:285 296:173 297:253 298:117 299:893 300:593 301:530 302:474 303:495 304:442 305:332 306:175 307:247 308:119 309:924 310:525 311:515 312:417 313:386 314:556 315:276 316:218 317:279 318:174 319:1046 320:309 321:359 322:372 323:717 324:968 325:399 326:223 327:190 328:99 329:756 330:309 331:381 332:430 333:736 334:954 335:411 336:215 337:187 338:102 339:667 340:522 341:536 342:429 343:446 344:531 345:297 346:223 347:259 348:150 349:999 350:707 351:618 352:480 353:469 354:376 355:233 356:167 357:262 358:113 359:906 360:579 361:549 362:508 363:562 364:584 365:320 366:185 367:268 368:124 369:936 370:606 371:559 372:497 373:597 374:577 375:346 376:217 377:258 378:112 379:911 380:410 381:528 382:529 383:622 384:645 385:384 386:235 387:299 388:142 389:886 390:421 391:497 392:500 393:680 394:664 395:399 396:250 397:241 398:133 399:895 400:696 401:621 402:519 403:497 404:526 405:343 406:213 407:268 408:125 409:872 410:570 411:568 412:510 413:600 414:574 415:336 416:168 417:247 418:119 
1 1 1 0 1 1 0:535 1:516 2:354 3:282 4:548 5:220 6:206 7:290 8:201 9:1048 10:611 11:525 12:465 13:436 14:449 15:242 16:172 17:263 18:134 19:963 20:411 21:412 22:380 23:549 24:752 25:321 26:182 27:277 28:139 29:837 30:366 31:439 32:393 33:488 34:599 35:349 36:242 37:313 38:139 39:932 40:448 41:470 42:441 43:590 44:624 45:364 46:204 47:210 48:104 49:805 50:546 51:499 52:464 53:438 54:667 55:297 56:191 57:239 58:150 59:949 60:562 61:488 62:400 63:364 64:546 65:224 66:204 67:300 68:143 69:1039 70:416 71:429 72:397 73:581 74:913 75:309 76:180 77:218 78:122 79:766 80:445 81:492 82:401 83:415 84:438 85:325 86:262 87:285 88:196 89:1072 90:458 91:507 92:380 93:329 94:363 95:276 96:270 97:330 98:195 99:1223 100:422 101:439 102:434 103:571 104:644 105:341 106:227 107:254 108:140 109:859 110:663 111:568 112:499 113:522 114:567 115:298 116:165 117:250 118:122 119:860 120:531 121:542 122:414 123:501 124:593 125:276 126:146 127:247 128:123 129:897 130:417 131:434 132:451 133:648 134:807 135:296 136:229 137:222 138:104 139:723 140:293 141:340 142:513 143:701 144:794 145:449 146:219 147:192 148:128 149:702 150:296 151:392 152:466 153:693 154:761 155:447 156:235 157:200 158:122 159:719 160:257 161:305 162:435 163:814 164:976 165:433 166:191 167:201 168:101 169:618 170:918 171:670 172:481 173:489 174:359 175:238 176:144 177:231 178:115 179:869 180:570 181:535 182:436 183:499 184:541 185:307 186:157 187:235 188:132 189:858 190:472 191:498 192:388 193:460 194:640 195:312 196:208 197:281 198:145 199:927 200:413 201:502 202:453 203:422 204:406 205:318 206:293 207:302 208:179 209:1043 210:416 211:461 212:505 213:471 214:494 215:380 216:262 217:266 218:161 219:915 220:483 221:510 222:375 223:378 224:400 225:319 226:268 227:309 228:199 229:1090 230:938 231:603 232:470 233:464 234:500 235:230 236:155 237:196 238:91 239:867 240:592 241:525 242:498 243:515 244:510 245:299 246:171 247:228 248:101 249:831 250:509 251:513 252:466 253:529 254:477 255:331 256:221 257:265 258:134 259:886 260:284 261:384 262:464 263:644 264:739 265:476 266:268 267:217 268:95 269:760 270:307 271:374 272:477 273:667 274:835 275:439 276:265 277:199 278:112 279:656 280:463 281:509 282:464 283:431 284:375 285:341 286:263 287:265 288:187 289:1033 290:927 291:578 292:493 293:515 294:446 295:285 296:149 297:221 298:94 299:806 300:776 301:599 302:466 303:447 304:408 305:274 306:125 307:227 308:97 309:851 310:611 311:524 312:456 313:501 314:533 315:266 316:166 317:257 318:127 319:890 320:327 321:375 322:397 323:629 324:988 325:401 326:213 327:188 328:113 329:700 330:347 331:374 332:400 333:741 334:936 335:401 336:187 337:181 338:114 339:650 340:518 341:577 342:448 343:376 344:339 345:282 346:242 347:302 348:180 349:1067 350:865 351:641 352:496 353:423 354:392 355:222 356:146 357:245 358:115 359:969 360:833 361:694 362:564 363:394 364:267 365:263 366:153 367:209 368:110 369:923 370:750 371:550 372:521 373:523 374:428 375:315 376:181 377:217 378:107 379:881 380:405 381:503 382:495 383:522 384:482 385:396 386:284 387:275 388:168 389:943 390:419 391:463 392:447 393:510 394:572 395:385 396:272 397:273 398:145 399:987 400:560 401:534 402:469 403:468 404:498 405:300 406:226 407:268 408:134 409:1016 410:911 411:689 412:559 413:500 414:364 415:281 416:133 417:223 418:110 
